{"weightsMatrixsBetweenLayers":[[[-0.8768357601169869,-0.32935569706227463,-0.2571234656395842,0.23527612244917107,0.25246676929110734,-0.6735322256390819,-0.8613806738016323,-0.6852814999898129,0.596396674985272,0.8013868355688194,0.2857231035301262,-0.4800889486901925,-0.4944352677626739,0.03555210205144229,-0.5706911692439226,-0.6246336497066362,0.9552838772004635,-0.11245733889454979,-0.678829518379271,0.040516582933999956,0.2951996419395302,0.26697337887345807,-0.8841948423377795,-0.6734768103731543,0.7169647187560511,-0.7218990758181807,-0.6432919893801481,0.1477006942424186,-0.3691940457169838,-0.10412247389614437,-0.13841598075553652,-0.7060603560107399,0.48424148993862143,-0.2647247710157623,-0.44168691336067106,-0.15400958917201893,-0.1142882826202595,0.49261795350672916,0.6456665673316797,0.05023376821601413,-0.7956922531027006,0.10651003772289783,-0.7673983977861277,0.28468441588923116,0.24713286075040364,0.8833118258573461,0.004101501651138849,0.2776815073052134,0.12987106049735572,0.24937629245673096,-0.38791909459919255,0.4914149202443145,0.6605594495310694,0.6121012309574048,-0.9081547101160301,0.46071350516299026,-0.4557464229164978,0.2940770042718852,0.5869462894376328,0.28560760508417793,-0.5966645706836232,-0.9211111290130655,0.21934569933699777,0.7495906905801137,-0.7114070750483351,-0.2328111901376508,0.12001171436080717,0.8321364689801879,-0.08756186603888025,0.16197655592296464,0.7585448127295631,-0.9940287928030463,-0.1619382311829516,0.8302783891492999,-0.3529245554692065,0.021909301614910386,-0.010334940548742297,-0.24269415455764085,-0.542239111959271,-0.2358338931795014,0.1436472947265197,-0.6195490567461487,0.596674306836571,0.13347683658036757,0.15282936279915438,-0.8662266549461033,-0.19129116719640635,-0.2509427587799697,-0.8968802479308216,0.2751810977594207,-0.43399796150952175,0.6542150973594935,0.04431318216089764,0.5455298109898921,-0.2085776637250402,0.8982853659912909,-0.1549516739645214,0.7311401704624364,-0.002120021735669282,-0.13148228637447515,-0.6902483034569266,-0.7594433372677027,-0.6343689605428806,0.6067176464512072,0.09028013854739253,0.25998886831894996,-0.39275237961346376,0.053464167958145514,-0.39801878075726815,0.3409600003117333,-0.9968031029481762,-0.6655160177944892,0.9957398974966365,0.8049159521506395,0.7588129035289002,0.06673075090172889,-0.5953600165460681,-0.409404844463989,-0.42734485817345513,0.41436516328330675,-0.42611603185114916,0.7784899680337557,0.5691518771549435,0.1977924883706698,-0.9672461700263163,-0.15685512552002573,-0.8131050696410784,-0.1129128423239693,0.11725575808301004,-0.08555829231007432,0.8057984542840071,0.3952041975191848,0.6477163429582786,-0.5961732888981424,0.24230745082776795,-0.11542656650701387,0.49922836749333993,-0.8256095870800061,0.6998517486738999,-0.04074293490742667,0.9380570306141229,-0.6557026664676222,-0.502919791125761,-0.1561063700134463,0.0907812997624784,1.0031837549330913,0.7726897238592642,0.387834515278113,-0.5247488901082821,-0.17701370622176574,0.662295145452621,-0.8509687220415943,-0.4589323001090809,0.8205131628041349,0.7477327608213864,-0.38981594692954097,-0.030773861932579125,-0.3056763544951032,-1.0154000158583083,-0.9442049206758463,-0.866307249405875,-0.35377011035650907,0.37635308569382553,-0.3099404663528307,0.5043093269766961,0.6497539229160291,0.16410846766100187,0.30977756577267973,0.9556109386545093,0.09390879374485173,-0.44825669530380846,0.1659069387970833,-0.32993787880672415,0.36601690152223904,0.7889842851390632,0.8701862618266909,0.7664986800285286,0.024404277954169624,-1.1845711621708086,0.1253373602384259,-0.7631990722737425,-0.584006134235462,-0.40614109604809345,0.9602421309232159,0.7627898990813718,0.8183256391160965,-0.765447896612151,-0.09462168126427681,-0.5956423878341578,0.8116360161868443,0.7157699995773356,0.08076910137952258,0.12080654602086084,0.7304852885304918,0.5490247650267649,-0.033607604326610745,-0.5431090517951849,-0.9276248965339366,-0.43741668773220216,0.9110848470374834,0.10149256822008344,0.7599431528925049,0.7077272841300392,0.6722587821940615,0.7706669617224948,0.22959061724317126,-1.2975494187807932,-1.009209698656225,0.04426158305118051,0.29428144402973017,0.5567410369813564,-0.6419704313005294,0.39656971666309476,-0.9233869979692504,-1.1378044127205076,-0.3284800606260694,0.9014946060881068,-0.7804967132907312,-0.9191090580675801,0.17845119162305254,-0.14526754988121746,0.9855100253139087,0.8219776805365635,0.5504328413043531,-0.8009399197547096,0.8763817188748281,0.3635796613874746,-0.8752652820644462,-0.8304420124955673,-0.7597323354218789,-0.03294802582697573,0.6185797744023285,0.4580427929208455,-0.6154822580236606,-0.8541357565314283,-0.9667719173898928,-0.8233097004547657,-0.07231943546860779,-0.10488071655661516,0.8240739696051584,-0.21661457404860235,0.249947058180161,-0.8001279599519504,-0.9198787719847561,-0.36960896724954817,0.1622596325760715,-0.8318598320041736,1.1315605329623972,1.0658261405261575,0.528239636311542,-0.7940319663272367,-0.6769724701420108,-0.7597204936178148,-0.05969933010119036,0.5548537507283658,-0.808684877568217,0.43996592830570297,-0.5916280519863236,-0.9507134196002031,-0.005232750736163833,0.13855188489591042,-0.1694061359643308,0.3755338671130965,-0.6898903292396699,-0.6432031935465959,1.043170928036232,-0.2957920063953271,0.46033912509796554,0.15999756528745876,0.5075931518582364,-0.6214906206410185,0.6231801168792842,-0.2626448763285797,0.6983082814995517,0.009146394957262187,-0.16660556845556712,0.7077924091736661,-0.5419174959732443,-0.5244344102923023,-0.8790809336489984,-0.7130528836513841,0.7346426284753521,-0.5472926492543115,0.4883318258084025,-0.10209499675160158,0.16708822819202163,-0.9351399490524258,-0.5531252945239543,-0.69386097626509,-0.9222031872986773,0.4311587999482735,-0.13023637387610162,0.4785154808002509,0.9205495690852639,0.15706862234028565,-0.04658797679827175,-0.031728131064421544,-0.38651313112680663,-1.0139110278040586,-0.1554613470339477,0.09247410535147692,0.7419032197845179,0.2644115743493674,0.9484553790260891,-0.22660098385938338,0.08964167302166172,-0.5552676611258853,0.9275770755082775,0.9692300465285909,0.33068302083252776,0.7268350564459621,-0.8399412550348321,-0.07508984773196616,-0.5162602192158254,-0.8711863274184395,-0.008947762249298155,0.47120417440752416,0.4484156763728068,-0.5598689699457632,-0.3377556166025137,-0.3304434456138499,0.31767633997229994,0.46763824715037716,-0.46549014917403736,0.7018906323378287,-0.7638879647841408,0.05345027761860183,0.5791083591788729,-0.8502140272971509,-0.64866156777994,-0.48514348297828924,-0.22701261905534229,0.12825611644059492,-0.4508072376807914,0.8649073561157357,-0.39894087027978586,0.10427060352879533,0.4786044905412365,0.8968824858790073,0.32287991050998094,0.4360124016882475,0.8408869929137813,0.9638042112681424,-0.32992024935183145,0.17037220042289689,-0.5253231290415511,-1.034651673417776,-0.4880484014713624,1.1294328909408549,0.3902534959099966,0.2557262706223154,0.16272049891901963,0.09943846752219074,0.13581881887911607,-0.03572872677528524,-0.8046058280182871,-0.21373061454131473,-1.0697521316437022,0.42509501686899936,0.02714669286741446,0.22607996815171832,0.5075775075285679,-0.18341489711126735,-0.08774008985018593,0.332404780749632,-0.12462327200412318,-0.28722083326892955,-0.9519289519357288,0.8201245442864511,-0.3509748597219308,-0.3787152895170471,0.6484924829566993,-0.011023749436699523,0.6355942446413572,-0.45330130049294115,0.8237740228264484,-0.07627577796893073,-0.5078111016056643,-0.7533692099613781,0.27920148109761006,0.24900794233522772,-0.471482126347887,0.2760020149506017,-0.33493938256908307,0.19726037911498384,0.5816481380825571,0.8763526634506039,-0.444594528052915,0.5618457121182321,-0.5448883222173477,-0.2802700544323006,0.6280941803523412,0.31940136471491104,-0.40786189581906285,-0.4583044145963227,0.48911061190296623,0.4515995472644872,0.8015294077494155,0.8979653813342441,-0.32062521038241937,-0.048097321462269194,0.06525586141631795,-0.5422983151005647,0.6450793286359955,0.561996258226199,-0.18102003063877387,-0.5760268180692206,-0.19079887992327993,-0.9510434227773814,-0.4796826751044354,-0.9932277472772525,-0.17184376601022233,0.3643895967735032,-0.7384232576851109,-0.3164697736581722,-0.6648400211516104,0.22468523100409074,-0.006162114621113424,0.9504938424059981,-0.6099506401517192,-0.8485851844563769,-0.6465485076653262,0.08416246647759398,-0.7585442662732353,-0.7840604618343238,0.5867986896245638,0.1353023817288699,-0.2722340669022686,0.44965266986914965,0.2916955359570377,0.4100905280873387,0.02961718983704246,-0.5069843719980363,0.8391418240675965,-0.18997652555095407,-0.39004616537394626,0.5852880494058783,0.0077552007785291685,0.8602775405175294,0.3642159437203471,-0.21564239589395348,-0.8485621849882007,-0.1688910756698477,-0.04770322830853471,-0.8506867137091075,-0.4014443553615978,-0.8393907757122083,0.09543653181382795,0.15946840872906007,-0.3074032169410594,-0.023897097441390482,-0.3799201825802546,-0.9858500680273514,0.6231423877896175,-0.810072160886309,0.6230033465604489,-0.321873738123134,-0.5500625514614236,-0.1995566736770344,-0.528045964054907,-0.02108387741343905,1.1587905602951243,1.1302098275073735,0.44640172586696625,0.6256089625257852,-0.27633384455153576,0.37018520003050076,-0.7795472419655112,0.407313705963555,0.1930268672173542,-0.6220289798748987,-0.008138673113476715,0.5081374630116519,0.917213604702679,0.7427918068457592,-0.42589564724448364,0.2634466207397028,0.9928262436571911,-0.5162221096342525,-0.6350813985100554,0.5632343898662552,0.5163309709078682,0.8019114227454864,-0.8071959280727649,-0.7483718257337666,-0.5364180599635983,-0.4386370728401185,0.7101085989202514,-0.7759041941865248,-0.11623190961418618,0.9867797189208384,-0.5830506953759479,0.36046243538937667,0.4311253525236919,-0.2846963493549051,-0.5877934880005041,-0.718140619021581,0.5210378106816917,-0.043233118179632844,-0.6862678782148699,-0.5319114570456925,0.10220357050463456,-0.6964669220984399,-0.09340422690820172,-0.752890633655865,0.34806407109537746,0.694200003323921,0.731737225871781,-0.08789210138701324,-0.7312707546988492,0.438395447228024,-0.07011595321716262,-0.7471823077696155,0.7521783819807252,-0.7692108851434605,-1.1076842946902876,0.003676994689045029,0.347455642661249,-0.28657966093947096,0.8487928505492675,0.5820121165754245,0.38764161017800053,-0.7669337183583648,0.10348044780061814,-0.08584676290676262,-0.4791333034159399,-0.6969360855464529,-0.3488923466166689,-0.20842928079491846,0.3938439843098562,-0.450707441249059,-0.6509794996101461,-0.2172108261799314,0.9618799493057423,-0.7605172036848402,-0.28217019335102783,0.7539150355440835,0.7847281258896556,0.4094977331605685,1.056635221805951,0.7164593600086193,0.22162447662303517,0.5589872164210717,-0.8054418937588137,0.5000136516754069,0.9387315919577396,0.10011535026094387,-0.42326928695045574,-0.3719159053505866,-0.31739236482303296,0.15020768604609722,-0.557948998529537,-0.19240973361342137,0.37485540465157563,0.015746616264100625,-0.6132556237040863,0.5788166967473835,0.6721987110024883,-0.713563042598612,0.36630075305247795,-0.8561726584066087,0.2563839208426514,-0.6050552965142922,0.36511295942558253,-0.885200294221731,0.7494509917621482,0.11776600759146492,-0.27081625917537344,0.32623928812326597,0.31915816425373733,-0.8006013689886778,-0.4991981625168297,0.1484161505860888,0.2838049555141881,-0.6231454179734942,-0.5875499923607674,0.8559333511823153,-0.193285648456402,-0.6352797917441546,0.38464149175988943,-0.6657559615529277,0.5907205904756663,-0.7450420766218129,0.1418139861031753,0.22181267943163813,0.2692029405459581,-0.388155471752231,0.32852261863225357,0.018639780559699386,0.23924281759128233,0.8412965565703737,0.6109522554018825,0.02214496105585265,0.6282275481602646,0.28202058711236383,-0.9545608759787353,-0.916296657491023,-0.24071138922034765,-0.6819857352077542,-0.16227645206678643,-0.4724453660224113,0.17553152181009457,0.740716410596508,1.2544460898143381,-0.5817252725236189,0.3143876536438816,0.652248657805721,-0.5374046780637433,0.3953258513166198,0.3445739630723514,0.5987925711505694,0.39940477284701575,0.07886254605203184,0.8934853409896608,0.06583195151926782,-0.8628412682086026,-0.27972721656425625,0.4407113421706735,-0.5181337317051109,0.40663838784885936,-0.8523696166237464,-0.46592172033947216,-0.19587178631486207,-0.19992200734653337,-0.688397665484409,-0.09608950948655594,-0.4667321358110245,0.5306684016636403,-0.5037577888132274,0.5848383506090931,-0.3239816919785332,-0.469663761174514,0.08480813628096504,-0.01873531136191432,-0.06968017477817487,0.5424224426020829,-0.12375810930387621,-0.31612201518852506,-0.5558718497760742,-0.4986161850736231,-0.33016098193425597,-0.8603609198340563,-0.35899520813025076,-0.7252983124819258,-0.38813203624181325,-0.7361392260105144,-0.621702400181729,-0.03021070180949556,0.26426229237497306,-0.6679069962166095,-0.8444539729762888,0.7668987839571527,0.031592533195287646,-0.6922202335659324,-0.4842396423803753,0.8077396749222905,0.4874365446107526,-0.6914770508241432,-0.7162581619032086,0.7211074287632037,-0.2118351952293591,-0.14799692870867437,0.7920577508707467,-0.8528137788426806,-0.41997232779714844,0.4752920617702548,-0.5282146929954145,0.14926008413015396,0.6380359552436623,0.11053581314974292,0.23140199717263715,0.5761980659238226,0.44261191504401065,0.637290150821566,-0.8121944620597114,-0.01389225968593871,-0.7453702102840459,-0.8869507923650763,-0.5312513359884725,-0.5569741035581578,0.7156738702672677,0.04593958825265244,-0.780589193450057,-0.5893475508229215,0.6410563812642063,-0.2723249419432997,-0.6760618406997393,0.6584840612536049,-0.5413849374903853,-0.13979742163646602,0.9390704122652836,-0.24583439602475787,-0.3382909620275077,0.7386218482967489,-0.5252096906910271,0.05778775162369446,-0.9184427172274952,-0.7316059667943143,0.05805095352510175,-0.3121526265813457,-0.08738859396575105,-0.4393414453637088,0.4189743545933933,0.2133808194465819,0.021895064726705438,-0.8943181686538184,0.34130335423285024,-0.05548296760573954,-0.3617515671447213,0.7739694226349192,-0.9444078162236687,-0.8053025790714843,-0.34854766546869737,-0.7363876648102092,-0.08109531073040249,-0.37533628278026543,0.7006305562652667,0.36965979208921207,-0.4606382410743144,-1.000138845969967,0.6403882708558917,-0.10014814904210335,0.8882894423992986,0.7966674858072029,-0.29405447022505715,-0.9566363292030642,-0.92658086308426,0.7438416070023668,-0.6561892085513552,-0.4696048043395731,-0.5048000062797398,0.15458056130157108,0.02011448691634305,-0.39373370755046916,0.1889377115415816,-0.1392456413779757,-0.20475983837761438,0.9348695382153844,0.4462012984960171,-0.23799806841226365,0.4731664920109818,0.962870939091606,0.7921228794388144,-0.6215206748702637,-1.080240311704553,-0.936023549119268,0.18605240426830746,0.7368750963253421,0.4142598185035499,0.39886996010031095,-0.949904754268253,0.4723566589487729,0.54752354070141,-0.9043465406526695,0.1103356519761225,-0.5154343283234915,-0.9261241616409492,0.4503201384466231,0.8163197866439105,-0.8624123928405258,-0.9516027487502736,0.1423949621755243,-0.6133804519789963,-0.3911272903548396,0.08982399045447939,-0.3010229903435504,-0.8319910234016843,0.15591216943596015,-0.6799926734483308,0.46400562939380136,-0.6802383626902831,0.9081612950517144,0.0724540142310118,-0.7156492243781667,0.8267484700577872,0.5326978940623934,-0.8537900899760505,0.3602745769953362,-0.5729823262812764,0.6432426404777521,-0.697472868315423,-0.035922632049214975,-0.8670844315907837,-0.028937080705921492],[-0.6862789938436649,0.14564985668137442,0.07436923965028086,-0.22140920857565538,0.0422044836839639,0.6727433659332154,-0.33390163796094585,0.8221608199021802,-0.03558140336677251,0.9998217650750223,0.48288684457394515,-0.5562874125365709,0.654403290461128,-0.6564033628391828,0.6865952450935446,0.6623285197014144,-0.16128792567315786,-0.08770756856977258,0.8730006070159311,-0.800659296131145,0.23138151655472194,-0.46782022714565885,-0.517016198189221,0.18367002746659677,-0.018835343629480583,0.28539521859448724,0.2029712804779118,0.7634300857505312,0.8687285403162552,0.2807873911032841,0.5953751811459713,-0.7049149777704842,-0.32352715591001346,0.2194812198893069,-0.4518261898990377,-0.005568876516966608,-0.7642666443646337,-0.578118774601555,0.7219032423237232,0.7930312741547426,-0.5191607369726816,0.16246892374329305,-0.8948361381346608,-0.9080690670005175,-0.20647242195612125,-0.34849756769263546,-0.8837622085446428,-0.5216860658984972,0.5459467136534814,0.4049936803348428,0.6731827905205633,-0.9678863057964202,-0.6672129699193277,0.17229931851578373,-0.24910953963866245,0.7860348397388743,-0.5151394060292693,-0.5931699438940572,-0.9816546367618819,-0.5359073789698084,0.665048747106694,0.1384553274308113,-0.9545300531970665,0.28000282491789824,-0.7938926682053773,-0.738513645950116,-0.8490122687720063,-0.03187153602869097,0.9084940347225198,-0.6500694112648541,-0.9141214924684126,0.17765998065628563,0.48558368268962454,0.4821416604446463,0.6792855788702372,0.5935504523560362,0.540582818654764,0.2508866107561644,-0.37909549503446144,-0.0859272709956554,0.12581908763535707,-0.3484616060599366,0.9087951697636893,-0.5398019274538002,0.18663414692634728,-0.04296854928471561,-0.16781368680278522,-0.002378199864605418,-0.7487034724199074,-0.3670687120080426,0.2875714509625148,-0.6103983874894942,-0.3975477190126738,-0.07867256419653577,0.7948964711797042,0.33860976230734785,0.5804503255007805,0.9393007894745377,-0.18532374820418873,0.47582575908062547,-0.39587617773006895,0.6305963890644501,0.23753584935779185,0.43000562372109774,-0.2253821282233914,-0.9092261571339529,-0.48354065495263976,-0.3310972763012302,-0.21561383352752242,-0.7440867314836206,-0.5720831213234727,0.18131798394187104,0.7156791633982329,-0.9346267143484414,-0.7729709698838753,-0.2769867744177981,0.7530526776518847,-0.8219092922957705,-0.7884439999889418,-0.37584191664929845,-0.9378214509612798,-0.22989882346042767,0.6472837304160086,0.22580122808528347,-0.7150465949548083,0.27230010477988,-0.6635290650893169,0.5028070681611799,-0.21927485628704058,-0.5941842720207482,-0.041429271346451024,0.4126842104111256,-0.09021688705327499,0.48927473176219527,0.20690549990633444,0.6273442599870388,-0.5513123806963275,0.396575371860882,0.5413842594604878,-0.3583761001652801,0.5406652271314196,0.7539609592296515,0.7474629408582306,-0.35190105272628996,-0.6151819763933151,-0.04925570011533504,-0.4736010914430318,-0.9074057596682212,0.11148299832189575,-0.5349947241842717,-0.22441350701333687,0.46854426677519184,0.8601092029909074,-0.06890432361945202,-0.3068132212765279,-0.7901169633697281,-0.17937998050843965,-0.18152582416178384,-0.8813056281510067,0.6858948615794807,0.6906316036939747,-0.36222272616483087,-0.6388249441079242,-0.17680686481862076,1.205788704670918,0.017396051602217483,-0.6534892821485134,0.2897456428805026,0.9060250508780818,0.7782162098406168,0.03226947987652105,-0.2578100385116262,-0.2973152929555655,0.14234117372376476,0.032731943853527595,0.04952569804364548,-1.0490096201233416,0.7097755842350629,-0.7909710352210382,1.2010196786821887,-0.357648682290078,0.21690510941382593,0.5184089551714367,-1.0290513011268165,0.26823594655037397,0.5746732624476171,0.5722515128428476,-0.3096700295870867,0.8260219231241879,-0.5001902905887518,1.2881040746740626,0.01471098594792483,-0.29410611790661667,-0.055533057087791354,0.012896705038507407,0.45470955788331363,0.7400839525473742,-0.1370148347375669,0.9258656199825643,-0.5315882572790678,-0.1957155164815877,-0.011382987402981382,0.011803036026567931,0.32113274695538646,-0.6254146853911806,0.5744065619673552,0.3105994568656524,-0.3250921848371646,0.9881416105817573,-0.34685272721775595,0.6098313787331154,0.5136446851454709,-0.7599142533790565,0.41798676341414354,-0.5796564678615819,0.7494379837634083,0.2436500456680686,0.970778505653127,-0.2571678386651055,0.13569429094637117,0.01070208382339353,1.1779169646611163,0.7778967565295016,0.024225681511554284,0.970284162244673,-0.4881617001569142,0.8913907193002627,-0.05634282068526995,0.7483902773705188,-0.02795527034996668,-0.18609777963435628,-0.8355816183050674,0.5121508946535347,-0.7177265063712779,-0.4859389039808611,-0.32730076685108467,-0.3338006461975499,0.561157292718871,0.1514487827431868,0.35555845341652204,-0.0024668991064187512,-0.29405713486162116,1.127457080890712,0.3890360765096496,0.5770612333017355,0.949090179749347,0.38264626638065574,0.9136565236460482,0.5015579418649795,-0.13288537146527485,-0.04426367967905888,0.06812145018497313,-0.4379389192164504,0.8834624373214129,-0.8243260430966234,-0.45148043364804324,0.01104661513712529,0.16811417341132637,0.8847867663091892,-0.888723032879924,0.388452592118472,-0.17566611997196277,0.7933700630031312,0.20813496063996303,-0.3545526670385638,-0.3675526818249348,-0.5145288425989036,0.7819054041981344,-1.0074448811955994,-0.5593103375915025,0.6969558351728418,-0.6180660411354373,-0.5299816417968868,-0.11289119413987833,0.717856146461639,1.173920248885511,1.2320113785768418,1.340688297180371,0.6836673058323535,-0.5273871952801178,-0.09863566165392532,0.6308507970101292,0.22752874013484875,0.6293040381298058,-1.0445594709337773,-0.11697381220507805,0.6411928428883052,-0.38806135062615454,-0.20806740606767793,-0.6187541619957421,-0.8783858629620092,0.03044258628248456,0.31250195442627343,-0.564931195965862,0.9945154429569333,0.0836082264950555,0.30676772135082,-0.6225065993862208,0.3424762908280534,-0.9368101209895434,-0.3644781251135028,0.5850494504815784,0.3654555788350644,0.6534677218673154,0.313032607943758,1.3471700526886532,0.5634096180519761,-0.28134061445080644,-0.4014692194419154,0.5082543409280812,0.40251357822780287,-0.49955574751642917,0.37371273458121385,-0.3983063059491591,-0.971466261698343,-0.5739392649663599,-0.9592012719752927,0.1994971409612835,-0.31536011019935667,-0.5097526549195808,-0.14426361365167295,0.38005311080619486,-0.2802386184783274,-0.3491537252176716,-0.9220005344445428,-0.8167025026066866,-0.6817939999490719,-0.17618212879681253,-0.8417133976300736,-0.8386048574794593,-0.12916394253763833,0.3638965975266529,0.7710836403334335,0.46774636497486394,0.7904274013674246,-0.5381567235634057,-0.8329246413870356,0.05982294428575098,0.5328695503457643,-0.9488654141161894,-0.44161205505625334,0.4614702405294034,-0.21067870318553725,-0.8826283571744428,0.41543875033170596,-0.1852279926002185,-0.20832627177675964,-0.17493508392480736,0.21636526715041873,-0.4903839475047048,0.31470000506843604,0.282752082216491,0.1324247044188023,-0.09142239338729083,-0.1337814945211906,-1.4318696211114426,-0.8767286043735856,-0.5708549009565518,0.128081104704477,0.3331577564512951,-0.025634538541609263,0.261833275013426,0.08684450194290753,-0.07122504513235686,0.6839305254396358,0.24179676366465405,-0.20191981381027216,-0.3318707352979465,-0.6388950107990872,0.6986265716885744,-0.2993707508480651,0.35017432028496676,-0.06946623149796273,0.3980411878152325,0.850709984577367,-0.6188372402260852,0.6797012673114872,0.07386503030053741,0.4178976917709799,-0.42210014081834085,-1.3513827597688706,-0.48755519296172345,-0.4150255948521696,-1.0035835304947383,0.08186290880506678,-1.1157084419125114,0.5655952472830746,-0.20021805584679161,-0.608518061353441,0.9142261095598074,-0.29194671533423217,0.48658414115398785,-0.9588691744056476,-0.23616910675283317,0.4364258639131145,0.8737510224146445,-0.9837658642869904,0.3953304438661159,-0.6367786372329487,0.8369204895715386,0.03127916407628373,0.23128907008430302,0.9962547133662226,-0.5400071224725823,0.19336357504206125,-0.051760127275672425,-0.4346384564064609,-0.5938380273712659,0.24054757928929407,-0.824568997891168,-0.9353373704070133,-1.0577471415055744,0.09055866485924276,-0.47583186874517425,0.30150427282746767,-0.5646367172331821,-0.27102288994547613,0.9609162727212329,-0.8015508114713349,0.4702082052488813,0.43754659031337106,-0.26742253189227105,0.08770915893451944,-0.26268514965291334,0.8064436360881456,-1.0093940908999754,-0.17960042572941542,0.5394594021199072,-0.11186402084246451,-0.10718078786049316,0.34579135974715813,-0.31658655401584634,0.14769882213248958,-0.21090083503773563,0.3455108745454391,-0.2908527904859521,-0.5008184988774016,-0.2831445840632253,-0.6851539103854826,-0.9772644462509952,0.7868421148022539,-0.5371034217582878,-0.10614688166298374,0.5545511701886576,-0.7201413459244679,0.708417184804156,-0.31438634105526864,0.9013814550196385,-0.08430996000703604,-0.19783748548053848,0.5974992679732297,0.43598784719592526,0.13081089252457642,0.14030387473944317,0.23172518938232153,-0.05713322657501505,-0.533729750534511,-0.7387254173059614,-0.3047831600621936,-0.376255884949454,0.06996714718338004,0.1346001867596737,-0.7765232677757371,-0.6723349480898337,-0.5487182052605959,0.07568222292125047,-0.09051596679530331,1.0054694716244774,0.7095440563823266,1.3444631680398496,-0.3691201618858042,0.4274226831428106,0.7802320177944652,0.44880479793218475,0.15880393106581783,0.9016517049055263,0.2781078272889612,0.2648553636298838,0.15724084879767913,0.8509500866520018,-0.19953110371250632,-0.3923159831950863,0.6740640913510297,-0.11672815865360897,-1.0736703468168391,-1.472817878616195,-0.9856982178320437,-0.5638933148885268,-1.6587592841776178,-0.5494184254740049,-0.7915871237245466,-0.10861685638273001,-0.4468175045274732,-0.948099615132276,-0.21074604136907057,-0.32540106540919006,0.960139944484435,-0.16338005683727763,-0.5367944325238703,0.9639388899235977,0.8310346688490102,-0.20697217372777968,-0.7787793053269911,0.8523336478351164,-0.2739118545634614,-0.9018846853368967,0.9425438098300561,-0.9024701457912663,1.1242421008086152,0.37156858948272703,1.3399470013010604,-0.6976915662310234,-0.9092422377477132,-1.4896915854894586,-1.7357835530905084,-0.5883194354333634,-0.18953729735572838,-0.9674984081258104,-0.8263313269512182,0.05520833785894378,-0.2302818763896987,1.0740000421025897,1.1940352710450182,0.1386568904014577,-0.008246384936349768,-0.17424142628038558,0.5520448009812368,-0.9808618624038753,0.47848546791153496,-1.0803311793242212,0.01586745615524756,0.10379119464796248,-0.5611090194368068,-0.12145794047743336,0.027464109477794256,0.8602087290804117,0.729792007792374,0.32600206828003603,0.43611378847490034,0.06065307781435738,-0.6063246382021683,0.44589030361592535,-0.4494257679303985,-0.6983361364287212,0.2266967706542454,-0.6606688489687517,-0.028193292530432384,-0.24906679968461223,0.6634517106895884,-0.5537591768167057,0.1399875748620122,0.7113103947150684,0.1620472385789714,0.4557529365681204,0.5401494389343516,-0.28395183454363115,-0.2279715726392569,0.16069140532367884,-0.849252239548031,-0.10516622143697608,0.2670120973318775,-0.2125094708662456,-0.5039004300014663,-0.1317862967765605,0.7859695687486548,1.0036722064197297,0.41607900661831476,-0.37007517610477797,1.1469703223418721,0.04960876838769955,-0.40605625355823655,0.730682019699033,-0.7007599353001366,0.9544810900064982,0.594134927221234,0.05388271081529979,0.3260295860869007,0.7252518366890578,0.3515613081610493,-0.27965323581089846,-0.022327983695827315,0.3953910726951155,0.2059603647185687,0.6123690911291838,0.43032593292010807,-0.5799121994732704,0.3010126668489239,-0.5683776941316893,-0.627113907894507,-0.8130108481413117,-0.017963295866588784,0.8089759472948249,0.14392809790428873,-0.1074988041493927,0.36740925391891954,0.3065834268382587,-0.26370051093588975,-0.3876890693991015,-0.2948119609983946,0.22244921568790132,0.26908307177091945,0.6061537434438609,0.17624687020078933,-0.30857437834085555,0.12658511471193032,-0.09432372545838064,0.27202130453686263,0.3880733094069576,1.2150922457515558,-0.3400519287293805,0.6815991688218849,-0.09421732169781993,-0.08629557636985531,0.8739678669055168,-0.6539945071330575,0.9705575028619231,0.760631824291975,0.3812953582560869,-0.4552586783436427,-0.026489153133080513,0.8427283292792052,0.5695589050909161,0.2934766014099246,0.5022303877538501,1.0140706481961244,0.21057552928857187,-0.3370648483374146,0.7289457851889705,-0.059625032476304976,-0.30251622282825114,0.4783871370699894,0.03960073889235394,0.41647819803709774,-0.09061210686685241,-0.3579433047190871,0.12353394489111727,-0.22359787322622376,0.786994585994299,-0.6872339174673983,-0.7932136607841878,-0.8410565755888904,0.3232872671930518,-0.32255836359027373,-0.8661823149275318,-0.2351808189518243,0.8331448085416873,0.596355950799219,-0.7546840739840718,-0.6534885412711889,-0.6171356882503376,-0.08754790364174098,-0.46371887418934793,0.5111997280585364,1.1154367804590855,-0.1576864106959639,-0.07162874824369787,0.5536959525243856,0.10652806041891612,0.46394279432727764,0.5101861297230138,0.8920275233152122,0.34986045777929853,0.7858105392467309,-0.6480419491630722,-0.7036129264433436,-0.13413346237238458,-0.082742271907432,-0.626089533037126,0.46258151375999723,0.9750562009094808,0.5186941628670394,-0.32475700004040364,0.25448589458141724,0.7424173746087734,0.7876555816519978,-0.1427380227534229,-0.529920353133872,-0.2963108895796573,0.6826058201607074,-0.26965350134028443,0.7540264257351356,0.16581106037650806,0.5209016227613924,-0.3053066306814646,-0.0055583955805472846,0.7895956292261009,0.20922453299936933,-0.5193273519571181,-0.6528743588686069,0.604545345248349,0.10207218338156733,-0.7475423128381309,0.4835707191153488,-0.1303211844145949,-0.5811611470381027,0.8050545070994027,1.001359646009467,-0.23278265559511674,0.19255285876065983,-0.6543364900766915,-0.121640498788389,-0.5366972916634603,-0.18047789200613,0.8952402617614041,-0.5623477300098301,-0.8791743707677984,-0.5597534632230975,0.7991551977273806,0.7195292081709104,-0.5062909443722745,0.9087708247910873,0.38844871492962785,-0.5793769456273821,-0.598503544596884,0.025642407935573194,0.20127480207947337,0.583178793317996,0.7005379233798461,0.012940829809532749,-0.7591734441000215,-0.7685643931567582,0.07676486617929551,0.48878835928389075,0.0014251514509716918,-0.029306986426266463,0.8214237466650745,0.11301448750060542,-0.30370706464222375,0.5039692147005583,-0.1251523584597103,-0.404011276375547,-0.8952418044369183,-0.4778233353973822,-0.8634367474060012,-0.19031251274799998,0.32527850744341624,-0.02042664727135876,-0.617896156723283,-0.8462074798577105,0.7353506434498499,-0.37031265837157185,0.34259476757591617,-0.5556878908045226,0.07886055747112461,0.7455781419244235,-0.8799415091004797,-0.07969962843266966,-0.42608423346391405,-0.6278205119564195,0.3195426221612181,-0.6585023389598084,-0.7809658816571666,0.5245349127275521,0.4743823385599507,-0.8717700392495846,-0.28006698101020966,-0.7135633445331018,-0.4552339937438461,-0.5478715069603979,0.3085178985202397,0.22021306343422933,0.5401239703964429,-0.9300344456861956,0.9230219186331102,0.14408145399884753,0.7451204744138482,-0.9344641686180829,0.11183486809410727,0.7930329889335062,-0.811137772347019,-0.43990459178353375,-0.027201472668077997,0.5475039510323361,0.42879876325857047,-0.5702165851874585,-0.19950416933282986,-0.10341918004543832,-0.22670886056117776,-0.14958424109432852,-0.07553422159911356,-0.5300848124011126,-0.4573271134639816,0.8547145316518616,-0.7385586412575256],[0.8223870148148711,0.8995915009314648,-0.3721377158219976,0.43169905638798944,-0.31763012679689284,-0.3561704880576402,0.019010193005833287,0.7297589904018524,-0.964051876567992,-0.1235123483870808,-0.26100607752530935,0.262282743313468,-0.06424935249239405,0.5262798580561191,0.19500799296714033,-0.35403018714719725,0.022517272003140576,0.40873465326004466,-0.29320206047504005,-0.21432863667124025,0.40908111138699166,-0.809974483568825,-0.14181428976250743,0.051962840535610955,-0.9264006893337435,-0.9136131957494231,0.32362167074968307,-0.32375265198876013,-0.06402432156994164,-0.5420129039628927,0.10248965053722259,-0.6967121201331077,0.8152962150098623,0.2818523345050503,-0.38871900080973304,-0.20211062197702825,0.5744010251895402,0.6360750863744443,-0.7754025830802825,-0.16666729649532774,0.7539317633659228,-0.9366908063519125,-0.42949829485039237,-0.3845879178285506,-0.26169218117976095,-0.4959594999750551,-0.43794408574360316,0.3932409091694085,0.8789516004191221,-0.6974259144548882,-0.0799485363327694,0.3570734654109693,-0.029948319460010087,-0.5680198904408993,-0.8588279844827649,0.5094551783375052,-0.48159490386274273,0.9665764503526719,0.9066302808484946,0.20773857367270832,0.2686657882870864,0.23283740532200636,-0.5255751558033588,0.0655133646551646,-0.5778137800976806,-0.4573244216716404,-0.4104185667745929,-0.07332385785625643,-0.5342964074625298,-0.8755689794835585,-0.7472216901198302,0.7542036101787757,0.5458235767140031,0.20316245825808263,0.5586108509963028,0.9904449781221165,-0.2690408985966821,1.0349200480798197,0.030092907359458045,0.50635897377792,-0.6451015345762053,-0.4526069276815357,-0.7905558477831551,-0.1196996722251451,0.4605717217438068,-0.303806167775607,-0.9944910018486359,-0.8786998924506445,-0.41328071934980415,0.9164078199951498,0.30036276555790037,0.7145859678502342,0.6133030910179145,0.24369611265843963,0.47931748011212705,-0.9025003899357074,0.4621776293015898,-0.9882270015446065,-0.508472549102882,-0.12224552098302703,0.6039580172602032,-0.21029486937910308,0.2899913442213076,0.16194133947606495,0.8669244266280846,0.4549458867793619,0.8641497137779645,-0.15402415666746674,0.5567515631627086,0.7507525262553453,0.711246982969803,0.41697947746718933,-0.8885532898096669,0.7176158905292388,0.5671347426648177,0.5350505624233463,-0.6233475083004515,-0.5459740275490801,-0.12550564768816752,-0.19220181117640775,0.004278740572956992,-0.5792906063543718,-1.1594487055859413,-0.7660004017276035,-0.08956940931397704,-0.40599998314554386,0.40196951698063943,0.39131423500407797,-1.04760154033466,0.7689506849357179,-0.026800813453276888,0.10463640762176238,0.29580723485664495,0.9799892225363938,-0.2703935593742827,-0.4593390095239096,-0.0839678105742208,-0.9782588721987602,-0.13878988220869548,0.014275912954020148,0.12096938569685145,-0.8323735931579912,-0.714866480417921,0.5299731246624957,-0.7822525623208526,-0.9074465483880256,-0.9273549102518143,-0.1964932303106109,0.7041543726728288,0.6441519169937027,0.1497278629879238,-0.1433491247150398,-1.0454847638535043,-0.38545171380155174,0.3397354628688969,-0.20369513705251055,0.038937960767005,0.5679158114486816,-0.4414163710239382,1.2043460007682107,0.2169818775075737,0.7020387867884876,0.704709791565886,-0.15767849127722852,0.7813519401998205,0.5370580882940512,-0.1197761624267652,-0.544662322360561,0.09353155003869551,-0.8135881699823589,0.12691958297888786,-0.18714387570150154,0.28208485070408845,0.9128539980776875,-0.4814878538196134,-0.24397677719617533,0.12313993762753307,0.2226698519594237,-1.1387368254467274,0.23304156066402482,-0.09717659663697961,-0.15233783526087322,0.7801375545909736,0.5336444004737521,0.011007390611306333,1.0550687731303832,-0.26687902703287225,-0.23539109261555374,-0.7395235563625772,0.9310602435095058,-0.3172246893721001,0.9293441666468605,-0.47868745890599446,0.7400050554761965,0.50609547685451,0.3925088806929255,0.7619670815996643,0.385537794830308,0.0037906245606930708,-0.22992147629353668,0.8887221240863662,-0.871773958581675,-0.37595343830623296,-0.46854224991598303,-1.1581570220004875,-0.9279274679215734,-0.9926137030879572,0.6657070895223496,0.06569966176930618,-0.03570476397627778,-0.7006111024912318,-0.03216849876249232,0.011263714051711324,0.6985976694209737,-0.5235109349409012,0.9619169835563369,0.32347694677608185,-0.3293704905324553,-0.6939755255790229,-0.11251268157711442,-0.3062818228803817,0.3385162266360605,0.2876583499117235,-0.4675564348426264,0.28721127356706916,-0.59655290176509,-0.2972472540320251,0.032842047166271954,0.09765872209506117,0.45093470124468243,-0.6854628935976842,-0.8931798627175966,0.5363553895070184,-1.1157865862205143,-1.0629499875589155,-0.22840824525965256,0.32547540407831255,0.1734214130024142,0.5068853183835327,0.3578313665068684,-0.6167289005867851,-0.7624381916630344,-0.37907469078337697,-0.679466868616994,-0.5014424455671996,-0.3644309458445117,-0.269556135042967,0.28574559853444154,0.838401741535416,-0.35075215001318016,0.6442054144062871,-0.0030248259056474456,0.32017935306640977,-0.9662119044351685,0.2424319507507353,0.3367676579527953,0.3590965062378908,0.5727156112698564,0.3409187124734653,-0.954260620334955,-0.984202006746109,-0.857139969039561,-0.6475186214942306,-0.5184819917135839,0.7612398496835869,-0.2995412787172658,0.5966740969962295,-0.24367648818475476,-0.857314349495078,-1.07028778384179,0.5481917661810207,-1.0339025788043714,-0.49301446254440134,0.31145528589205235,-0.7252681245487856,-0.6299789769096609,-0.6124004066750852,0.52561120068314,0.5210846669662226,0.0020372709420717976,0.5883493405128488,-0.9653871065484666,0.16223561881478732,0.26494088925639797,0.3696113074971256,-0.7741025423753202,-0.30933709239632884,-0.9609069029471908,-0.47333669570989406,0.5725929031614069,0.1568691959618905,-0.16979315518721635,0.2226706261721352,-0.6507505338737055,0.25391855503091687,0.4276241639522217,-0.28686182217994566,-0.16536777361693905,-0.9125286629077706,0.25758587237461117,-0.4631718108931407,-0.7349620975689497,-1.190436107331646,-0.7252793015367163,0.47118707168861207,0.05079226037216332,-0.8174450715754922,-0.9135598610718534,0.4484788584789011,0.29814263524675166,0.3940805814868573,-0.9368830116898034,-0.5132729690737221,0.1531788854751715,0.5201679654677938,-1.2047462470948989,-0.9722124811533464,-0.7092663307080164,0.12168395453470143,-0.0726109220017201,0.6015526570621548,0.32115923106095495,0.019494122623264307,-0.911513473424319,0.8159027184102914,0.45441344394964506,0.1617507618435912,-0.4988356230242222,0.23692077541793732,0.015719745395707432,-1.0386964032156165,-0.7062843802364792,-0.8980244373867328,0.7340163879783578,-0.9346854894838426,-0.9095520630338159,-0.3448335685512614,-0.785478796266416,0.23756551819932337,-0.8426619634477276,0.8718361725451008,0.2530194896840852,0.3568316972217579,-0.754716217485749,0.12788898842374863,0.2972647436657624,0.1268302746255274,0.15243270735821798,-0.2106477521313702,1.0842508192221954,1.0758062769297312,0.341712577828316,0.34384120733442786,-0.3837325972009381,0.8654713046331818,0.5926059848704471,0.061195186316846714,-0.836917077038072,0.33820346214533525,-0.2157432500761423,-0.680265669496716,0.33746694713640824,-0.20555021732793474,-0.808515335412974,0.5334168062267046,0.4392876608476447,-0.615887577975095,0.4419183129457508,-0.6333206989334456,-0.7397821524958623,-0.44496577938352805,-1.054689823328059,0.8910415398001771,0.2584759298833216,0.5038418280620701,0.9839446154110524,0.24232495135211723,0.24800241416947838,0.9848886409423948,0.923094517333776,0.5711133789157855,0.3556660041733942,0.04699360745139585,-0.11859547486682623,-0.3209638590809488,-0.16184863419155596,-0.3367604222246104,0.9122127118925766,-0.09074438203581428,0.20676714145643418,-0.7451624317173817,-0.3151832606988707,-0.5969971683483221,0.4000104179835717,0.7335524616971976,-0.5197124926185774,0.43721166704791453,-0.7807532650435107,-0.1669253900493116,-1.22420092392389,-0.11428401556441355,0.5997506885053593,-0.5800119838669385,-0.229681955396757,-0.3134109672817935,0.7831601973837639,0.33459134987868955,-0.15126465787935517,0.05715327819333495,0.3481414248215371,-0.39673785397259004,-1.1839230992814975,-0.2551713838768695,-0.692086600832805,-0.12170248731797431,-0.31541974063504796,0.04090307157650907,-0.36163532395383263,0.08015399145015067,-0.41850551837938715,-0.3777474209829519,-0.6260504082827023,-0.2337329899425868,-0.7719790251090689,-0.35225752269903615,-0.48696258660809133,0.2166632930133046,-1.2997662022345347,0.3699489725847884,-0.2224468619595862,0.09584664666273439,0.37247065740773966,-0.07400378174993892,-0.01738481372375911,0.7483889309452618,0.7649478978157216,-0.030674836000963865,-0.81673886937133,0.6659713841898705,0.3620857269519648,-0.6292802400587452,-0.08295585411619767,-0.8508448911435114,-0.6697058515429164,0.19443279060420635,0.34563666545087585,0.6751596215713594,0.7766218995765432,0.7599676466798673,-0.02626378454061962,0.13791496426413336,-0.0687151141117333,-0.3390039985551482,-0.5429429662637556,0.23948348819606552,-1.1044193389193122,-0.1269771182766709,0.28222588711053825,-0.6931769230550229,0.41222209435285123,-0.048537216543219665,-0.6516195818140553,0.07696178466549246,-0.4498678184651256,0.7156504359384752,-0.8821313240899109,-0.6219718043648719,-0.8236141781554951,0.6609944873363508,-0.44657250573424706,-0.47085469273567215,0.2619975276529231,0.4032137436527159,-0.979565357752573,0.6718969801550616,0.013536877263696335,-0.6218122399788801,-0.5563486322510094,0.14962648003009268,-0.6730202182063721,-0.5478432061896139,-0.9276801518070023,-0.5189066538255578,-1.0952456506820094,-0.5476962447851229,-0.8415354470531161,0.1208059546356525,-0.9202429971837848,0.3940709432521974,0.15365524428669694,-0.46361276379290495,0.17629281736376876,-0.557936144143278,0.6762295028849284,-0.0013850412972650475,-0.39835416229140613,0.6200592113253074,-0.8930648106206074,-0.32944089439257396,0.095677047279951,0.2591824291912326,0.3196125366444122,0.5252698411899878,0.9072287695558003,0.7543855959605975,-0.9607602127045143,-0.7006856309187535,0.949301401865944,-0.22942846674915374,-0.6532690743982836,0.39986212366508733,-0.7547661060869407,-0.7506460814547565,-0.3407802222549789,-0.7616026538855409,-0.24450902931798046,0.26048739581907737,-0.19560791512941772,-0.16424567278184904,0.04566889797014364,0.29407164134343466,-0.05528843081681922,0.19046058461549015,-0.1972758444609399,-0.9509015139046822,-0.5331794752672381,0.45052903016530277,-0.7085491978093083,0.5611485599562083,0.4903516370343017,-0.47116736427877665,0.3610678518555532,-0.12169311647884715,0.8808991496054974,0.269199996102412,-0.662003235311631,0.9541163307123862,0.22086335484743344,0.40092926017294006,-0.49210245940690267,0.003155585401811806,0.4291894750023924,0.29332092722341674,-0.43017686322574217,-0.0017083600829499478,-0.5039687208504359,-0.03660695598310241,0.16782744881186104,0.2661514893155858,0.43281917387673813,-0.21856413925215626,0.36228986429993254,0.2187419242883682,-0.1721260467396048,-1.276370835759265,0.05714710759339727,-0.6481843431958657,0.7714923151552149,-0.6337862523437321,-0.19767983950399032,-0.8862341997355023,-0.11940489417278936,0.32205941618758177,0.726566616921532,0.46308167775012504,-0.9510757726895547,0.09297257471409986,-0.20162795202905176,0.20895177558718697,-0.0527967189965596,-0.12647906461610692,0.1054577560648501,-0.4862215139594104,-0.40699888900480424,0.34086214794626607,0.4826653637872466,-0.5660693881446699,-0.18637941315374754,0.1254282683208653,-0.35811767871498484,-0.9772109050698302,-1.1449114135439062,-0.44613817169963454,0.19915513178604652,-1.047825392265168,0.8649859485611148,0.4758436166335294,0.008371481202458146,-0.7949310728433729,0.37308780888346793,-0.9070891934027636,0.18125340003358165,0.3355969175115354,0.27929880511310357,0.4454940225226034,-0.7203036059549016,0.42585491174333995,0.38277780124264676,-0.06333026016198955,-0.6395959147912967,0.12107566831446398,0.31102058856026654,1.1523629391884826,0.7074392551101175,0.4297423681999781,0.6296418726212023,-0.6516250913988312,-0.31892329268932296,0.0958247921438595,0.4457422208391467,-0.867868978744179,-0.636457080091198,-0.5799361003196062,-0.2861927042154592,-0.9895829742832433,-0.4496419167569073,0.02983949407544529,-0.39589269232516944,0.08672359483977642,0.4047511344265395,0.1772483421634661,-0.27844724776441493,0.6490187936725169,0.8382636752408749,-0.628093380742208,0.6488821963354017,-0.46180664499707774,-0.37461354339906794,0.6860464733281663,-0.27077735226833777,-0.7063877331342954,-0.6187338108579459,-0.6751599796093094,-0.34377959535465463,0.0841999822753971,-0.7971561225591026,-1.1950218632188745,-0.5998802612215517,-0.6129391712202904,-0.23118647103710005,-0.2939763911306809,0.5887810466755079,0.32145244257450595,-0.20424031423956243,-0.055284332415831194,-0.2545682765875572,0.648860732514277,0.4859622647173099,0.9790110930030513,0.39114867501770895,0.12240462421007843,0.778346422048846,-0.5360477453514484,0.32623255988443034,0.12937918791616076,0.12379869050720771,0.2422364252539628,-0.5749299313299229,-0.9649829710913403,0.20610461492720478,0.5312233275106588,-0.00755809570697133,-0.6800265390552083,-0.08840618518649633,-0.7193606926562084,-0.38538797794057267,-0.6234546806306739,-0.3478822576846624,-0.18952109478482596,0.8573409952567306,0.45297618651573696,-0.9357768629054215,-0.08806192603027929,0.9084441081874153,-0.4125811922787871,-0.14836922501144298,-0.30046158608356793,0.7204811179934626,-0.32172929761595276,0.7304054386511966,-0.6504076181484639,-0.7499498494999794,0.6497768511485507,-1.0539865156172807,-0.11547809715269587,-0.959722352301806,-0.7985920460251357,-0.5704414496011,0.19362927424492132,-0.032996738734985286,-0.3944979299460605,-0.23992636025504202,0.16275779181316777,-0.5573461486701895,-0.6598651672249608,0.2739859420610326,0.7420601637480349,0.7335288776581309,0.4914966926816263,-0.8696848266133466,-0.7320548183918785,0.3858622345209639,-0.5972181375711625,-0.8392508386837156,-0.15240676857925342,0.791057534058563,-0.8930789733126758,0.36856291597565416,0.8241300026643618,0.15263900348343376,-0.3486395667506932,0.17360219431847082,0.24417540238902838,0.21610256121431695,0.72741159145203,0.6163239159851073,0.07859272967802601,0.2179894117213,0.26262364816304284,0.10200801601396853,-0.8840572307551973,-0.8229536474465019,-0.33227334509988293,0.03527570357423973,0.2257378920020059,-0.892641028086568,0.6566580305700137,0.3037830585331944,0.4112045227732417,-0.2689077110685094,-0.9787182998294344,-0.9078594721266665,0.22094943331981845,0.9788841104947505,0.6243183012597053,-0.7298425444342833,0.47332694037962075,0.10837948305782119,-0.08702292794618957,0.3073098969572835,-0.010119285116971905,0.5129424524468364,0.5012173100294645,-0.6984976498543732,0.753445046292229,0.6614418611036914,-0.8373996015225909,-0.5331651668539389,0.66606356341285,0.7035675931483752,0.816370198121526,-0.8223057730160223,-0.3752277624263334,0.10450190283013178,-0.07273228079411664,0.9132907532264078,-0.7174702524219305,-0.5489347191043961,0.15725649307426126,0.06278446836765816,0.5770404322709399,0.4046607474591074,-0.23189475027667047,-0.0375532312287418,-0.62128368942214,0.36220293714620194,0.005884363761339969,0.49826119464996305,-0.048075975394703964,0.9234336155698337,0.9621772573474794,0.6524553852368166,0.8656181336051854,-0.6559764800853867,-0.38814550383140034,0.5322734388677022,-0.8698730892006574,-0.31658237533416606,-0.39849537542500496,0.8902582921689789,0.34194423892204373,-0.2690424847859454,-0.8935744801567167,0.30066179339837706],[-0.964371517837654,0.5357781410252329,-0.940517001296568,0.732427625717079,0.08810742302154084,0.2813925617507791,-0.9720518171655987,0.5327244733031007,0.2823608848543091,0.8788451109211479,0.779917172672421,-0.46393219455610746,-0.6689638261066556,0.8424251409910793,0.4307222561321853,-0.4899851243340489,-0.052998660310812795,-0.9463952738323087,0.9068192355090745,0.90110349803955,-0.9355168202709399,0.009655589396876607,0.07586479260198242,0.3094672403133214,-0.16789811414797517,0.30270634184758993,-0.628156688392925,0.3495707862071491,0.8041428083391362,-0.30538461848630494,-0.9205463638760341,0.2204205533060657,0.3877921668237343,-0.9582730806429521,0.8746685948115195,-0.9932836264130382,-0.5249561913103054,0.006528868543423695,-0.1479095467318539,-0.6547294469583191,-0.8926809429824215,-0.8063169423924553,-0.4515133253019797,0.7857427902864177,-0.3206659048663715,-0.15565818258643432,-0.10224308193921136,-0.17829890745133156,-0.7901918187434066,-0.4206624766295631,0.4931855801669958,-0.908144776181756,0.751335223065623,0.1704078895434744,0.7554754217544208,0.21138165746447912,-0.00022077162749667423,0.3184166664427033,0.16249829897031923,-0.9048013437843944,0.5159097854352487,-0.2869962511559162,0.7398384755899687,-0.9130052605197966,0.3973151953480657,-0.5093610592370683,-0.12316053864443004,-0.3546464043869416,-0.38648235426612476,0.9217235294265098,0.8663739875005015,-0.9472131716352646,0.9277952633230765,0.6275799834550815,-0.8928672973762152,0.2369502720282498,0.9212230283252199,0.9506036966388438,0.7224993398255152,0.8422676853302781,0.32733051842101374,0.721723262896322,-0.14791462510687792,0.7809830482362918,0.966320385538995,-0.5161401874786393,-0.3342510423678628,0.39463815414708375,0.575040986750745,-0.5590641513291977,-0.4217723116144149,0.1521704504783907,-0.4226173143830431,-0.09183179923456489,0.7580680038827331,-0.4886087327534947,-0.07443699465059525,-0.16704004792751415,-0.3598678167604711,-0.4399741476647998,0.20050845988999427,0.5890828830439967,0.8490109833661648,0.23935604223224047,0.10345418976865466,0.6930292965013553,-0.9063190035770137,0.7608501230556283,0.390583416089275,-0.6284767164964186,0.7909910119172282,0.3310237825118043,0.0718302188003026,-0.5017750433242175,-0.6664524944714718,0.5238464328411108,-0.8531304461401463,-0.0871675463178582,0.014202557743151947,-0.647254291384518,0.4526312206212942,0.4074506743429155,0.39369976773407633,0.5860052034948361,-0.48268488689726624,1.018897514927171,-0.05596214046643387,0.5637393969129293,-0.33495134214479555,0.5538803986279868,-0.7214166212025844,0.6688105090968552,-0.4181176948155226,-0.4425558611400462,-0.9946467882150367,-0.9950462287836671,0.09031826652092363,0.859583591613576,0.10350360048273233,0.3808502858748202,0.19770065391199232,-0.3111373317796504,-0.9717618762891502,0.9763954972343668,-0.679872216254002,-0.5350386135974021,-0.053445932840838754,0.9811912109902949,0.7251595752263121,0.9505065440979583,-0.2634253264896915,-0.7584000952706963,0.3311367829911687,0.5196700437900829,0.6564474038156993,0.07897946182790937,-0.3076884637329473,0.5320508936381467,0.4569060417198047,-0.004138439868500021,0.08541683601951891,-0.04821653372578106,-0.5228931385411197,-0.8094480770452005,-0.10589408582388452,-0.32110793657994874,-0.5490339001353569,-0.2613989812428203,-0.141374817494615,0.30541705538665825,0.029479024178892078,0.5355550277511304,-0.5921226925774562,0.5408800383331325,-0.7726411646354123,0.4706576197928878,-0.4695371322416029,-0.5873706705534323,0.7204841857491497,0.2771052953872522,0.12652145985313948,0.020135757601857224,0.24768351341324457,0.8889518539114231,-0.012708736290039387,1.0894116785420298,0.21773212594912775,0.942076530490364,-0.02272012103396012,0.08818581018114581,-0.417918602915872,-1.3130005133304716,0.0054836457039798385,-0.6737324051069306,0.8960132893167958,0.46681626299294204,-0.2208114503663334,0.14319065285785254,0.734190201026552,0.5217069247523337,-0.6078043456642018,-0.43859598018306095,0.2324925750840221,-0.3457307751387586,-0.2446578270842248,0.45595744662357324,-0.42825239872695325,0.05703108000540316,-0.7020334490953548,-0.1257830495606756,0.1750260229173236,0.18052591349783323,0.16425082970188765,0.5999147283522037,0.08645682589647098,0.6571215115917773,-0.4312330508432055,0.2569096326290855,-0.8987570477349773,-0.2198283861070532,-0.697868927540042,-1.0079808898066,0.4084291181742747,-0.3938091788538935,0.8240458506939661,-0.7113189747142836,0.16455681773846775,0.48861545355610103,-0.29256928905770585,-0.8555340926493823,-0.05250972259036097,0.5741795126374688,0.12380986034176489,-0.026381504688294227,0.3079326965829712,0.7879856065284458,1.0569809843786306,-0.8525951885944487,0.25950670418524074,0.30593404499672383,0.7928632499019963,1.6179659717039006,1.0869079965245574,-0.03968678957790128,-0.5383949027810037,-0.04607514993534069,0.28021049221510214,-0.3667093120352414,-0.78621731469569,-0.8575127097717624,0.7640043266336393,-0.8912326140793212,0.1076401795805802,-0.30322731549303106,0.6823390589850019,-0.7834336144452919,0.38923129290012104,-0.5958484730860588,-0.8711974423303098,-0.03035989664791601,0.35506942237833555,0.1325897130257344,-0.44871073624965135,-0.6420958035680192,-1.1471685665419036,-0.3775609088763855,0.013881464639626622,0.5144846977777038,0.7966248219619005,0.2173103644962812,0.9165810777524024,0.5164706850910789,0.7007345366739908,0.6382697173087638,-0.6496137174473141,-0.6936885285168136,-1.337061399831672,-0.14763028227846847,0.4156934396360894,-0.6749470206776866,0.6981349812097745,0.7105186158675697,0.7869876393703586,0.15602851372279178,-0.3265634701412915,0.6416676866698822,0.18380777222928343,0.14689402388400713,-0.7204901862896033,-0.5506012274883216,-1.0018035449339109,-0.09798528915527921,-1.9263557893362484,-0.0933583041123611,0.06002460515628615,0.29505974351546177,1.0263650203426584,1.020783416739886,0.791659434262298,1.14421896630615,-0.04054227127150816,0.5220176879118185,0.3479247694281607,0.9371030184990645,0.3489985066811467,-1.3908911815460743,0.6742391846516589,-0.7774392680249719,0.8650537694186168,0.27680125601795363,0.8442282721602924,-0.3043474841045578,0.17540304067537743,-0.28661347995560027,-1.2019169686205655,-0.5965780528837733,-0.906909995503049,-1.5541877818932825,-0.692821749287587,-0.49862356564926963,-1.2116351092357167,-0.8914829743088984,-1.0185717510207664,-0.5001605654065402,0.8076748187202368,0.09135163032997602,-0.2055412384649967,-0.24461593039108936,1.164470614353591,0.7437916881445414,1.415429917813444,0.05188227845344048,-0.5506799214470918,-0.7415775984688137,-0.6456657884863436,-0.11167553511883237,0.04486871513440082,0.2898003816349857,0.023578989673248826,-0.0017294848109838915,-0.5455839357998279,-0.8771829496026484,-1.071074739667556,-0.9488115962214356,-0.043849807711475834,-0.0543400147034775,-0.07293964283454686,-0.8420864881373649,-0.4426975972233515,-1.3718396132679418,-0.6346994150656273,-0.0011901610287563418,0.4254287927728266,-0.866427262921399,-0.3998014786443598,0.7876000999350654,-0.25697943250576005,0.33544920469272155,0.9940698715970179,0.9479171831194022,1.2872779526276665,-0.8903947211516353,0.38057651505694695,-0.6230322100195114,-0.4174692636311065,0.1474469985422626,0.46828826399867624,0.8255920088944055,-1.0126716935068438,0.37407717035960414,-0.3955733387353359,0.626997843982157,-0.6276657014610274,-0.2442881123248488,0.3007851770753909,-0.5819182340918964,-0.6915979375429796,-0.9452752578587683,-0.6681908705076146,-1.084748881447345,0.48918255241376196,0.22768386586475248,-0.7340482800317226,-0.6825295126098103,-0.011648150837276976,-0.02542374404500985,0.5440062979597152,0.576255813408692,1.1057532935098766,0.31877766068309804,-0.4516628847590629,0.9285747852784454,0.8453591270361525,-0.8911462054627661,0.5697193479049036,0.632388727489088,-0.563133473099206,-0.5589020483222694,0.3739436931831587,-0.48629937779754795,0.238589805098005,-1.1382196875578894,-0.4538289393696921,-0.7320520898024314,-0.41469075994192717,-0.3141528434374022,-0.09815029482561231,-1.2222963041035693,1.0452458202334454,-0.712933186707245,0.42292061486857363,0.2934699840806416,0.83537902894495,1.0180121633194172,0.4872660362794853,0.6583030905127839,0.42946826563379953,-0.45656590343069675,-0.0674286174747096,-0.455001004730169,-0.2648453078621609,-0.44609529100627754,-0.43696594022162477,0.9768310780194979,0.4218445242603999,-0.10498212335197173,0.16445148369206783,-0.17381639364012247,-0.32190524271491505,0.6053379697506095,0.42168094648221344,-1.0529110577695744,-0.4746742951223011,-0.09683265445047433,-0.718383094459263,-0.6671137534916288,-0.08519834164656816,-0.11980176213531005,-0.4751806985386755,-0.2852382963671371,0.782177316645922,0.06216255833793848,0.421005387011165,0.6326812391413918,0.8695436479580364,-0.15455035618074697,0.7674580136817827,-0.9715407159515361,-0.6666490401546582,0.21920527317598928,-0.29053435151685963,0.6302682367524501,0.9988856544695686,0.48937324272793326,0.9931491799261607,0.43049665484734234,-0.0873363259411996,0.5067089727805125,0.7209401165422714,-0.7311117404023505,0.03958542951952435,-0.8628025529453087,-1.070807039927093,0.3810021761840244,0.45172169282339975,-0.3752585320481714,0.31098810913209723,0.5747262416718306,0.5955161533991937,-0.18994716632601255,-0.23865236743594972,-0.912854357492334,-0.7061137867092917,-0.19550601102893272,-0.9744447865774997,-0.2809164437268104,-0.08698840443103695,0.4306480274579293,-0.8594462611473179,-0.09518428400863088,-0.8580401868067159,-0.1455467264962062,0.046619309196606444,0.3828957749388282,-0.5277005183533106,-0.38910840537841,-0.6925855232775135,-0.3684229242772319,-1.0532536323477426,-1.0326349709653615,-0.1221100643442316,-0.9489376738882069,0.022204092481740444,0.8359088387462379,0.3355442866616187,0.0060508049352210325,-0.07190006143177835,0.13376738833984958,-0.5982004744443442,0.13673798871490928,0.008502974631732402,0.0315152185868339,-0.9434768599309591,-0.1977442056703224,-0.4399541123128346,0.8594966786607272,-0.12810187765210626,-0.3058034762891502,0.7518230234170926,0.41392728687471503,-0.4509757732485561,-0.20233497080600837,0.6371470048340289,0.1339293777779772,-0.9823519723672435,-0.657211921035409,-0.5429775095134374,0.09557666874885341,-0.04262021864652348,0.05532541497758048,0.006915883623609209,-0.39405124041626477,0.24992347919893448,-0.2732559787689188,-0.9014597568647521,-0.3883354588125608,0.080467896050676,-0.8883108483442151,0.09249287160306037,0.44175278173105603,0.5734608725672886,0.7260594433023793,-0.7707446018714844,-0.42115301737235983,-0.3442615180281418,0.5108247805584903,0.32425706122961323,-0.21793711091138088,-0.46744223012656927,0.5158642974241414,-0.3475082113598419,-0.7080248031096954,0.7959776091596026,0.35648636743070417,-0.1556689089864715,-0.3924099321366024,-0.1566856624738617,-0.36589800765797437,0.7710634914501059,-0.23444491718044874,0.8608472422334448,0.5754849592968643,0.3711773710092128,0.6117445536807036,0.7403862322422606,-0.45380928094425893,0.9278639546494908,-0.9027363229594857,0.3795223721597286,0.5146468873939837,-0.024400451569828174,-0.6491268755748347,0.2692072827189767,0.03392363766662641,1.3581873960564979,-0.06018249063414878,0.32440371116383754,0.36526895923667907,0.21962351214213865,0.8483064295139436,0.26469827646279415,0.6884078101061438,0.860002347918211,-0.29859211767353727,0.40266137577480626,-0.10741454433597512,-0.2262856552914414,-0.45149954853855984,-0.813725084962314,0.004171695395899464,0.6870574942931621,-0.22753156701962748,-0.47545772327549807,0.596377101065607,0.38705578617927133,-0.6697375956042132,-0.8903486276771857,-0.09304149709048923,0.17202721521658976,0.2538812425214717,0.21849576205678467,0.7441871505795873,0.4582192380955364,0.7194107803743244,-0.41770197950799687,-0.5338852670113895,0.2594221801289234,-0.5216573488840335,0.027783635394717437,0.12051442050589595,0.22082272285168336,0.6234027213732706,0.21360992615767715,0.1426602663553865,0.32958509208107567,-0.6576854471671809,-0.26751859970252395,-0.4004369648217929,0.09479403063467362,0.21978274782807097,0.20154376469876029,0.6457884869448599,-0.6478728538170585,-0.8591200590589726,0.25668027304611235,-0.19780998280401849,0.4132577157168109,0.7474850802564936,-0.7240928530349382,-0.4826671808224839,-0.45885350101720573,0.08802963843720414,0.9212262099743601,0.4562052029524457,1.0334371943988259,-0.33594595639140357,0.20827062170624822,0.06326070107398435,0.7119115913533904,0.6846645499521802,0.29905369100164364,0.2742015194807153,0.4221749214741459,-0.15277925337050194,-0.3653090114593698,-0.7544656901346218,-0.8559929594094806,0.5651391408759191,-0.06191639604577341,-0.17385031864035355,-0.8447676782282986,-0.16734048878403768,-0.23193720313930244,0.35541192708532277,0.8398177993780296,0.9993016067027627,-0.1256496570096841,-0.5716387942150898,-0.6578710340941716,-0.14195332144213094,0.8457496681446871,0.1459617705145979,0.5132553151593411,0.2538630444345224,0.7779519377677779,0.7830184014178654,-0.5633381890754624,-0.43734420724206713,0.07588799136691043,0.31358786453555904,0.1659039868638788,-0.4371612744414252,-0.6909635978773089,0.011003196579250385,-0.09728305903114988,-0.8012781349791527,-0.748043269641476,-0.49258608325218306,-0.6209427758775267,-0.09040252236298786,0.982255073069843,0.3959055512735006,-0.3727082913139763,0.4810763294427942,0.3169884170096554,0.6895737892561822,-0.8609864915062296,1.1545677472130647,-0.622184295923432,0.2926268475728918,-0.7664157227345793,0.13429136850865855,-0.3399504748751046,0.08845331044466319,0.8725235403437158,-0.31128767166863697,-0.3803462187425031,1.132264728887495,0.01959244768986586,0.41469813931567995,-0.6472612962091715,0.23211834088594255,-0.2826884561988741,-0.5663432957012752,-0.025786095204622397,-0.9104608212572743,0.26969014139674563,0.7705440105762071,0.12298118213246487,0.055061081613479335,0.0921746524610283,0.8819363081241165,0.530013524127549,0.9761056516967895,0.9865087063374937,-0.8771728924072407,-0.49212682129941454,1.0620035894325541,0.2697357276102303,0.6293456484885567,-0.25959533996698775,1.0697266660060234,0.1292195537197321,0.30752824504348103,-0.3789268903948006,0.01806433796805268,0.46710855133402135,-0.3140788389240166,-0.5009371258720186,0.4162048852952183,-0.8795080272249057,0.8419989055036932,0.525201020018182,-0.143000173795811,0.47535071927832007,0.22089426144742697,-0.532668835610227,0.114278116579146,0.9606433656240996,-0.07266020504950399,-0.7760933479951078,0.1953389035507006,-0.3445505475713942,0.4590836459315541,-0.9311829867115388,-0.15609083316786107,0.5207302814078449,-0.23921438154988703,0.0779167994317345,-0.20167138683191535,0.11673590051017019,0.2977123772639575,0.8117271324588982,0.8588144623773488,-0.4126217825355804,0.2219226384613908,-0.5647603952008019,-0.7199457885338761,0.2994335797275003,0.02295594930446896,0.027349900729015608,-0.3959328844978969,0.9460805423188795,0.9933635430239282,0.45503276214081234,-0.9542433612485612,0.8092671264442788,-0.9541113604115186,-0.09280596082994297,0.014025434891436372,-0.7054178899671408,0.9839434602986,-0.6516544180953862,-0.1603802802027803,-0.307011028243024,-0.34418800273000694,-0.31401535823165755,0.8545508000169995,0.030883515524153162,-0.14246558004718532,-0.13456625221485777,0.926336570215835,0.9821078238446017,-0.8807077542535104,0.9693641490133593,0.24095154772717436,0.09996919492898292,-0.9082569602896953,-0.3681019934497843,0.7783636944647508,0.22317580871388998,-0.430673785570705,-0.22536975945025395,-0.12173286492315594],[0.48514516290687304,-0.6636948506939468,-0.354435257887765,-0.8575407456884316,-0.7133959790713811,-0.44513977916048875,0.6763660211354434,0.6527681966367984,-0.716337888204051,-0.12710247144602116,-0.49204348498988537,0.06041614060818601,-0.4523664708508085,-0.36885749039804366,-0.22083796424526395,-0.0439173496270747,-0.685724450386759,0.04018803638627544,-0.6781829556572858,0.7835810858290442,0.36207756693249626,-0.9108549938616202,0.2893760206479903,0.7478397952881646,0.38046903349629835,-0.5511359362923764,0.947861299459265,-0.8339255252852555,-0.7704982893107992,0.2060243063557361,-0.7117074394126317,-0.943729227836311,-0.7834456150255449,0.16046687275670762,0.46623491304917,-0.5867279790933816,0.14565758156357309,0.18489220638267173,-0.8166745625447601,-0.7872399601816961,0.32516471993368634,-0.6560504695547843,0.7245673438970545,0.5247273622605597,-0.40863431068580025,0.2627954806096899,0.5168957071546676,0.44890066924806193,0.08418626493532477,-0.6466598121874202,-0.45393226786653723,0.7106612488303642,-0.43416241603548134,-0.9754444195449894,0.7086690831799847,0.20309001248003922,0.7438293960826328,-0.765996371188971,-0.9429696150651554,0.08040102653018251,0.9890904324023032,-0.3709868261083809,0.7168718666117341,0.3348554837312347,0.07981706549861207,0.023800885548623744,-0.8383483621569253,0.9724900013680009,-0.4573121211892863,-0.6372864296824686,0.40844693529368736,0.7375104134189775,-0.1538584277854113,0.5745019580872004,-0.8828209645669434,0.11805788137558003,0.16864825634380964,0.9791699605620932,-0.5246592788455305,-0.9782765975479295,0.7028356201901447,-0.8748479139985047,-0.8557567936072834,-0.26234618192734693,-0.25995228938616055,-0.1608768890330312,0.23351578251785918,0.8930324165831255,-0.23267330044094786,-0.09048265063824726,0.3195028697606433,0.16666009375246868,-0.18755796903599628,-0.37855297389135784,-0.1854775512067278,-0.7361894125744247,0.8269548290493417,-0.776697328236527,-0.3192660511163978,0.852219182219633,0.7562645957697975,-0.03344676930256122,-0.0005634537235549613,-0.42379004724086994,-0.18793951311596263,0.14555208451028623,-0.5452315750249787,-0.12846029296814712,-0.5996681543896829,0.8445453963278218,0.784898162034246,-0.3401569462437859,0.3361990703635187,0.48715263712844553,0.49281994622551084,0.593810074446985,0.9200480638618938,0.13275945573656756,-0.995828748488509,0.6785987547977445,-0.6164779218749875,-1.0695190079924055,0.19808803948277212,0.24501997040060453,-0.7976879320970788,-0.7088323834586778,0.08496751651199234,0.5334656087839882,0.7721185609159679,0.06677734178063588,0.8222575721984051,-0.5525829540917206,-0.29665661357078116,-0.5372913969482364,0.7168386213583163,0.2461327009085885,-0.836077901815174,0.5725074899892252,-0.901052682664881,0.36384115628449,-0.45358826985324896,0.5945587525795437,-0.04072574013898181,-0.7929173242210186,-0.7023807553887674,0.7086820454024859,-0.4126543477790304,-0.5454131527844652,-0.48257230711235505,0.2817210454203958,-1.0546285834525781,-0.9050967162807422,-0.4237373930265901,0.050574692952016304,-0.1640077994180103,-0.2742053773770767,0.04496852021809191,0.307161679050299,1.650529254449319,0.7310238144731284,1.2676162403662328,0.2506923973310539,-0.19179648835206867,-0.05309222673294379,-0.31272526238122106,-0.47690833072668837,0.4938629932079829,0.04582755780728067,0.297668365583283,-0.8156316553292319,-0.07057570357497946,-0.8773780388737279,0.15310396085437156,-0.1471601611584241,0.5157714100887314,-1.0705815658688,-0.504926935539504,-0.6292295201115822,0.33898581689897306,0.060493962623345984,-0.14666226320227477,-0.7797967947782563,0.6414135828553906,0.3275207998586156,0.621534359568605,0.39504829372502803,0.4018437022307422,0.8035495786199575,-0.2839706803393421,0.020775312839879406,-0.16988142823366006,0.8310664129932566,0.022518641482542835,0.07265866578248084,0.9616412245663896,0.7070221791894303,-0.0314060810291322,-0.9290439129203256,0.9380461047566057,-0.46419665258222803,0.7423403375381833,0.028012436097985535,-0.558267490923072,-0.6997292866649012,-0.3690673960078815,0.36355741083618653,0.28730163180464185,-0.2848276774133393,-0.045429483639957885,0.6149131122863232,-0.4404234098525991,0.18914703904466842,0.35175396155608313,0.1913773198685389,-0.07382940533458572,0.5228116257549407,0.5776739603871044,0.7450894383687645,0.8586092486058308,0.5765010838238515,0.21582546734427166,-0.28613377044846994,0.47637361643356196,-0.16514530634003188,-0.7423178106544092,-0.8429060930324586,0.13752732011622681,-0.9757276702913039,-0.9096232043641269,-0.3169924396717604,-0.5211898501138419,0.13675822871755344,-0.44471569609153105,0.19847937716124323,0.35441411246561594,-0.08660351076187009,0.2652851320168212,0.5069474997781389,-0.8492196597870084,-0.4371732660476918,-0.27208497731519465,0.6728263956212396,0.7582136238428162,0.2882437074237053,-0.1522320883371593,0.47323914473876216,-0.2855763668017371,-0.17945797796786578,0.8826045229715686,-0.13831422513304928,0.5537623738533811,-0.3402565496004382,-0.541334919055415,-0.7539052463368058,-0.16939924218216726,-0.07031535539720288,-0.7208680012693804,-0.777309928713185,1.0204406163995345,-0.8160121871351739,-0.7584842965430693,0.37089578184200583,-0.17317829629348885,0.042881208896025376,-0.6748979297950846,-1.2049574500791618,-1.4541577294112842,-0.7587652758296984,-0.5168325736095313,0.2927818786104258,0.25103860858895494,0.6293131825519036,-0.3812379617358273,0.5395799818465665,0.42276095762590093,1.0559472837327029,1.1450223431196875,-0.7907494174240529,-0.2422024874977822,-0.7920932815437777,-0.4914240506436982,0.4168944038371196,0.4829883764028442,-1.154000891378272,-0.823418169652857,0.46587567790586903,-0.4502692853875357,0.3883735769632566,0.29509057341416955,-0.0702020571082201,-0.4367688685688325,0.5032508292389648,-1.1101872731901543,-1.0028608305081619,-1.4106017556594508,-0.8457184566966229,0.09170984959681742,-0.4199169028588874,0.6874080996563395,-0.5062058934945456,-0.43640476667233624,0.5633446445741123,0.3110891611560444,0.1972047497388815,-0.2045261088728837,0.09928007960502881,-0.6155607852440292,-0.534039693789161,-0.2624202478996006,-0.41485831015243696,-0.30308367261182473,0.47642263045176236,-0.6292981170233137,-0.6739710466725044,-0.4273536729559809,-0.13633650592302662,-0.38365407124723894,0.582883860964813,-0.5335298032777611,0.6027591763941004,0.1983374764379274,-0.9675176796534373,-0.5939303822967475,-0.9673017079469131,0.21410059492795208,1.1152614148679258,0.929683787276911,0.0836483764113988,-0.45959379932207184,-0.8448474393050945,-0.5877911944999127,0.38473375760344464,0.6341902701638664,0.46812802005698195,-0.4742606331618183,0.21568160349602222,-0.4284166113947145,0.9302943635865244,-0.5562402175649327,-1.017395147440093,-0.6489106510373556,-0.025946536291644163,0.4262941684679472,0.6534757915453836,0.0615633694724625,-0.10160735504563145,-0.04892139516181079,0.0347673302085712,-0.0024191673353802924,-0.6300555173336961,0.44673585379878317,-0.008569632001371084,-0.09411722914157007,-0.6826063850440922,0.5983227591112651,0.2785120633303545,0.6137419314025365,0.7676463085058587,0.8103101357086574,-0.15957849487508946,0.6574930571893076,-0.8695668781430853,0.02561022329699763,0.10182134059253499,-0.6921233150875025,-0.5918433097255195,-0.6911620424923117,0.835751589730856,-0.5744367050351248,0.6478467965385777,-0.7500755965483189,-0.2604978731052365,-0.12866565582800474,0.018927500384172225,0.8703386009808952,-0.39718660430304625,0.934666953164014,0.11271611947645022,0.4625827345229542,-0.11120201334107345,0.3391214467073309,0.328542159245551,-0.05379931116025007,0.4806474256775453,-0.9004698263979921,-0.931084657667759,0.17188732032721035,-0.35924813081817003,0.06011354768771561,-0.013864997535099023,0.5718569790662611,0.2523646863311458,0.4853867340536767,-0.5780149517140355,-0.6892683433758839,-0.5995979807321334,1.0303796299059955,0.2253177137792624,0.26762487630177123,0.833146688258391,-0.3055358473998404,0.3847100603699853,-0.007640675762976166,1.5151605082074961,0.7461395530878874,0.5540511161915319,-0.40442890862453057,-0.3477942084012295,0.6754042483080284,-0.5038547759798437,-0.5055728004307922,-0.22685304858384092,0.46414432151928,0.3597192861806987,0.6252929545435894,-0.07953095903964046,0.1285561765118143,-0.009431544986084723,0.7271783060443309,-0.7622566422410552,0.21165231318984418,-0.21022124981097967,0.5899277810318432,0.38199617470316183,-0.5597020562412268,-0.49518820000292674,0.047821682207148025,0.16678531501936067,1.0756091245921828,1.0447351613224778,0.7692348495826808,0.7806608772194064,0.294684733909483,0.9353578635365715,-0.48093713926293785,-0.5901859768797217,0.3064801741520066,-0.28458580490422547,-0.9911924800817452,-0.10467259117716064,-0.5707466408386594,0.4852539400712494,-0.6302036306801099,0.4376417657553255,-0.4947445145676999,-0.933385487445087,-0.4302044750744037,-0.9605702277323658,-0.42775464632619614,-0.5166821066948564,-0.2691479371705611,-0.4953288847651988,-0.829057060130698,0.8179275276563999,0.8524524510265638,1.382943782084158,0.3763191334819231,0.794616931477825,-0.07043383728779565,-0.0251550021332808,-0.3919743452162941,0.17969506914775255,-0.3148787418816104,0.16582811312547965,-0.4270977983475021,0.3587270177894804,-0.8924299255688116,-0.5588268053436684,0.033671969294198155,-1.0531420433181877,-0.8251736280515483,-0.4942300365605171,-0.4646888971702396,0.6791503335418119,-0.2625402319653008,0.20881803002781965,0.9542296043860197,-0.6254141133346793,-0.7536296553798795,-0.9076638662280792,0.5235802688153938,1.1839325840667656,0.40291278108620693,0.458457017530789,0.573433394484415,-0.060115228107017395,1.1930245838952254,0.7379744235662118,0.7085622887914281,0.14085514781557426,-0.41912381939609417,0.43456911659566727,-0.3562580487385502,-0.12964558811372842,0.39373440058854386,-0.13696976365747202,-0.30067367713799564,-0.3015364562250775,0.1349036972935733,0.42627769258076653,0.49442365136589805,-0.3551595253546405,-0.6089776670082826,0.24874702936545007,0.08717827286934113,0.1647685556492572,0.9425768466737139,-0.15982264757373787,-0.2768312602048817,-0.6764063540264964,-0.2042747445748311,-0.06379110739050893,0.7044806886715463,-0.15121329613648501,-0.07262550490060397,0.14688940664067698,-0.4793379012215236,-0.018755740577804377,-0.36494534732561046,-0.2840724059461636,-0.5177033234282727,-0.048172549729658176,0.33809269414591,-0.021578120946120813,0.8047958288840746,0.034442057647367366,-0.12767579457117464,0.3445641799073287,-0.6397696094632915,-0.38840634982168926,-0.6837327891124025,0.1462146876258186,-0.2451618365271818,-0.14706222958033402,0.0021858347790078194,-0.9324858970081826,1.02845919177808,0.15942921411942684,1.2319263959609252,0.11314500406589366,1.2876165766479883,1.1394724455460654,1.0196090588558415,0.256515432986032,-0.8261800606399299,-0.6960177147886079,0.5228671475419938,0.7729259769092386,0.47069259754899334,0.3365774259752592,0.7729735319460721,-0.1443028729865679,-0.47223715682752965,0.7318837460529389,-0.6470651522917058,0.6838489199437495,-0.7740832479672114,-0.852458879744937,-0.5673074766883994,0.7209155737327185,-0.309599937579895,0.8897803399212973,0.2569246452769875,-0.4137707660841817,0.668376839361176,1.0168631957766194,0.7753525999064644,0.2450983867980272,0.22375861063373398,1.041973711077381,-0.6412045203724636,-0.437858030089418,0.8105245218666436,-0.7920418763753901,-0.3633732459489688,-0.21403202056915738,0.6331454692736086,-0.5304304049619881,0.337102328645477,-0.24328333477790076,0.8453098666360028,-0.530750111924452,1.1427134876551552,0.1193256356297506,0.24096438591416613,0.398131078545801,0.0054944563642316535,0.9767517786618519,0.6570621029974759,-0.32252060803118415,0.8197950405186838,0.03002668911620028,0.07437792712522842,0.7355575398788815,0.5948011504803036,-0.24393982222465274,0.7396723387791208,0.5504876489478226,-0.10407000821325586,0.8210994968979927,-0.07851251855443023,0.33656602698598204,-0.3421318597689556,0.7841674546249446,-0.5967216506196693,0.167022619311011,1.15219312289071,-0.3125780393258942,1.1888966417673896,0.5086617649007262,-0.2510566817833997,0.8668511582718964,-0.08442192120258771,-0.312573602087188,-0.640444986426681,-0.30089850858713224,-0.15140377669380625,0.9105235940722327,-0.6290565568080072,0.03361537213310697,-0.358532669954524,-0.7509369440128476,-0.02771834237307485,0.4810324239494792,0.10512486809785733,0.7817831514885781,0.6303185872149053,-0.17425707792106254,0.13443527427339025,0.3313445038807242,-0.20437841322898911,-0.7207234955887211,0.5231394649387886,0.041945738777039825,0.13348832252135326,0.3061183823798912,-0.0033938705294205796,0.3479194154750203,0.31438295670065913,-0.9125351154576087,-0.43716760582440267,0.737663795947676,0.14159387434461412,-0.19599314413716037,-0.23229942589024644,0.5101265366188374,0.8561207652002156,-0.2955896764184624,0.7461233129077456,0.9184109955753558,-0.2582533951809823,0.5730730315447845,0.3168177586569977,0.14618197957652906,0.4280896912126452,-0.09773050632035686,-0.18493210291395923,0.44481783642547235,-0.3624061915840956,0.5241283302170019,0.5274172579663874,-0.5453337149537943,0.7391625396981121,-0.6671546603476352,0.5599745740363675,-0.06015437116594187,-0.4623922202261104,0.5357037867215941,-0.7780499199399274,-0.6256773310095999,0.59008529250314,-0.5091202806712172,-0.41027528218368214,-0.15109465177408765,0.40079357875234733,1.0026859538664674,-0.5675872009465821,0.6843862727092499,-0.8568967112913977,0.1724534201900476,-0.06446860434473671,0.8164250584450929,-0.8313876779068032,-0.34103350459822607,0.7720498851405276,0.7298340531760775,0.21419148103618063,-0.31778947830728427,-0.18012431422181888,-0.525055070196265,-0.01617335525637443,1.0983077666221666,-0.5017623828389882,-0.14748894145284208,0.40009760840931957,-0.12281467938916375,0.6979665833676878,-0.35495359260920567,-0.432482152386483,-0.885043840467588,-0.7287365452882795,-0.9937729418662302,-0.8856049067359705,-0.4940745396923973,-0.9004154538725263,-0.6532520641952843,-0.5709892749777502,-1.0270473950808634,-0.17523012239176883,-0.16391215163080497,-0.18524772776396145,0.5307252170643816,-0.8093700945280058,-0.4193917643827247,-0.6259299483684945,-0.4385187493309273,0.33925553093466715,0.13682495752719284,0.6607099444526783,0.15124619182655552,-0.5236809447471558,0.8809310455799509,0.0845773627878965,0.0968241428493458,-0.02193376450367318,-0.5408396599195947,0.16310698842503357,0.8668184884305332,0.616868187573878,-0.5789425169231217,-0.26278027398090087,-0.6314943301836519,0.45313699891242365,-0.012891874387228058,-0.9887230910665846,-0.25129870179767677,0.4184835020365981,0.6104832005813456,-0.18181685309358975,0.7596656164704555,-0.5528331565307583,0.6897240521349063,-0.3012349282636915,0.6113331482044014,0.3947931042891984,-0.25583734104715317,-0.30544535948901674,-0.5187810978111873,0.9092764729753297,-0.6260997675438177,0.1733679776425393,-0.7305590688442338,-0.09149148626803956,0.08243617255209747,0.03420936562647414,-0.550605960742609,-0.04260044599854629,0.8076845746681327,0.48048737685516985,0.6068057038693762,0.34986842421098313,0.5951632717485171,0.47308172270558724,-0.8007460443165457,-0.6314182234340961,0.819554081361075,0.4500681353883473,0.22954522416209627,0.4850158830318267,-0.9477563127166061,-0.6615765734574247,0.3821189528604606,-0.4353097717023657,0.2776016025762555,0.09818083267155614,-0.29504935364363155,-0.3395109581888573,0.00506805507488931,0.7350761693111717,-0.20076981101265065,0.2650873898740893,0.7369323018203531,0.04911159906203144,-0.23819941878890072],[-0.35190565395411877,0.7797414816192125,-0.4758925566566812,0.5186727966390232,-0.34610990922092766,-0.8940537903741781,0.00564333658909133,0.30091194408033184,-0.33328951577112464,0.013779984850766258,0.04085596062897112,0.2523285492389009,0.346753689257967,0.21871170080355817,0.46807916574063135,-0.7361984557048079,-0.11628987342033081,-0.2645735601128405,-0.9235670203651689,-0.2844896200147997,-0.8375298319490714,-0.6767887119173972,0.0316299736487613,0.83423716538007,-0.9429246396386697,-0.07440910115923804,-0.3851751689605707,-0.2065958108103203,0.7270741371176919,-0.2888257768023137,0.7774554245003453,0.6954706623259268,0.8176140357132359,0.9753694085807425,0.6478551104112243,-0.5869562193418196,0.22627030813068652,-0.6072140485624529,-0.1894581758698317,-0.891730696812624,0.33726028568767297,0.8332734197689912,0.8794449472687453,-0.14896749309237975,-0.715308138314245,0.33166410208562624,-0.07275769709960073,-0.2200594485916662,0.30689920402702714,-0.9166009608403313,-0.37746359006600816,0.573494153231996,0.35055855857154716,0.6489064010976735,0.8128227217636632,-0.5254175591005898,-0.602432274875913,-0.8893160815695911,0.7836887468728093,-0.8105318191444315,0.3896846033902438,0.32494316854780114,-0.41476481049333447,-0.09834714895746029,-0.2772652344258097,-0.7572779383313363,-0.19836979064793211,-0.22466870762076852,-0.49834308672923505,-0.892255339639248,-0.687089223792076,0.9396272585860324,0.0032908163093083812,0.45987781447864123,0.034803477152323944,0.9689072329205142,0.004604030064229231,0.419536185642177,0.7197132669845256,0.12150927245093855,0.20621353409596663,-0.7004779812895137,0.3021626720877144,0.9707671373610505,-0.7890068870669467,-0.16288696565156968,-0.46530472038129095,0.49195069273075714,-0.6705464223561135,0.7206400405807603,-0.20907579903372364,0.893154564955997,-0.6184175820331019,0.46569373939876807,0.6321299356133927,0.20533392018935337,-0.259899738458307,-0.6272759226459917,0.0008216009725986772,0.04354044495889882,0.3538390852715098,-0.05596461690058407,-0.08358829705565006,-0.527401100643174,-0.28947430772363164,0.5110879212514273,-0.6957292858974032,-0.006100509121051274,-0.18689599141126842,0.98224062831506,-0.16476351205805478,-0.9885390786333379,0.5339386975100839,-0.27820944535474007,0.6874805262490788,-0.5808867563206523,0.21609726803668375,0.06996439728868385,0.5920583059905307,0.9416653299260734,-0.043652328127980804,0.8097395738184258,-0.21973570331338885,0.6456157329142301,0.038283569047979756,-0.43117608595892215,-0.08753312215872577,-0.5547291342801999,0.7492773809913301,-0.012628297987941493,0.2041823567348826,-0.08395479570366803,-0.003409814254388971,0.926331709668588,0.3073486413932276,0.36739576034810373,0.3995672831841936,-0.2531358741904385,-0.09396226966648748,-0.2767386843552751,0.5986757019147215,0.8248559177806092,-0.3697257374977851,0.2509268507542019,0.2179719494851209,-0.9119870821231418,0.1257290715578143,0.26539232115747813,-0.5184874351012323,-0.1082367110262382,-0.710410307748847,0.5643486103505042,0.26536114501133934,-0.39573083183630436,0.030122719747761498,-0.7056704573914206,0.7327052428015607,0.43080075301489584,-0.23497459794002984,0.48763505225393383,0.5015317174905216,0.9126140692989588,-0.8474967222883927,-0.21700562659695,0.5370945153742028,0.14804236331637552,0.8439619737386959,-0.9382223247857288,-0.15376937382077038,-0.696776846309592,0.9279917091733495,0.25925355890192087,-0.2405227972696311,0.7311548616452376,-0.12880079587539486,-0.79272256371643,-0.6547282332210073,-0.6706071297141867,-0.35825139629374064,0.669791666448407,0.5184991597759314,0.30443165251455295,0.8044707715748542,-0.2187169267989156,-0.2090069707333382,0.4020891838390633,0.17190787701487908,-0.6973808524371548,-0.4254721138464974,0.6780698976669557,-0.9455104982714055,0.7950527488197197,-0.9662548133348996,-0.09400219294247808,-0.15855532707665815,0.316608170558007,-0.026796406140175172,0.8074190971601825,0.2528206218876477,-0.052401447413907586,-1.0390936751390154,0.14624294939830979,-0.2828865159957577,0.6788943288601996,0.7248871154727716,0.3719799656249482,-0.06445072359982391,-0.28969848940919857,-0.8213776029891335,-0.429564254341596,0.7450588348868199,0.9424224339389398,-0.17517093795899186,0.20736115452359674,0.463561334191737,0.047559848081762154,0.287516196713293,-0.5702342673662711,-0.6152276260334708,-0.33205172244667386,0.2158232256996171,-0.043451436050108795,-0.515872689951873,0.5893115591443261,-0.2637464779607479,-0.21184541202102875,0.7485360281049891,0.41873518224302797,-0.34745015556925746,0.26121809186812117,-0.1221990486751861,0.010724070192151453,0.2946162562464873,-0.9665430842260295,-0.8098862033121882,-0.019515360330594183,0.051861368114380565,-0.5617334414181083,0.755841038249192,-0.7448733679130417,0.413057107662875,-0.3325625516108612,-0.30281385196645644,0.3760584160475665,-0.35563046720507063,-0.7803480065203608,-0.6398113171417804,0.23667148429614362,0.6336373007236246,-0.21913217570151375,0.6422916835634083,0.7266714970652021,-0.9379138630650905,0.541059422776727,-0.04209332517182623,0.33570827288198485,-1.0056655703116049,0.5360348800053543,0.1453680719252723,0.38495778215461096,0.7946383959466239,-0.5197473874909725,0.6375263159368856,-0.11035546541367004,0.18686283290882708,-0.7532604982332582,-0.4651163649556895,-1.1444967600476124,-1.094029306887541,-1.4683004923397012,0.14585475027448386,-1.2343019747501625,-0.9227006521049224,-1.2407507745196737,0.6095642327523344,-1.0022144981579777,0.8515421405712253,0.2697591796660742,-0.3022432007809331,-0.4124803812640818,0.1354280878494438,0.5027768577082348,-0.8404622088027534,0.1731678612160466,-0.8030870417729407,0.4639459767063162,0.36909146710351437,-0.4049823307712264,0.24091279016090303,-0.145337927652345,0.44924295971706646,-0.07516928877488589,0.34945410026389,-0.5250522664657246,-0.298969442449204,-1.1129668483077404,-1.3024685030812784,-0.9699038023811384,-0.5224235876205787,-0.0044771219844419305,-0.01818352004533347,0.8796923906980397,-0.1727429127972007,-0.4131326024738691,0.3664794978180281,-0.4166602762245998,-0.9212516648793538,0.05479511509941262,-0.3517812487754857,-0.7245770192243267,-0.6228110784733583,0.15828765563188807,0.8434654218955903,-0.6275988762499479,-0.7420941059901783,0.9496223063876742,0.023838607441282217,0.7469536163797852,0.33241146575692826,-1.0158365237413458,-0.3957402426321293,0.0749448623438343,-0.7737671558360453,-1.3201069798039973,-0.28938854810299885,-0.04051273142129712,-0.6421084251229896,-0.4198000692961142,0.5835506495113776,0.692211136832042,0.2553493264406565,0.7520663634829566,0.13371448186875637,-0.23371884753736485,-0.3547397861070225,0.26103137302652735,-0.09651834859768145,-0.5076444513010869,-0.8946195987116637,0.20864672576827523,-0.6612846835698005,-0.5008148655601538,0.18670204578391492,-0.17216023696426228,-0.6429136478920527,-0.4295211983772333,-0.48477687912491096,0.2955701624434996,-0.6259162591637364,0.24960931656820184,-0.866222974786592,-0.84849951897639,-0.137026590539185,0.0776526677265261,0.5733050218575743,-0.25376827961052906,-0.4957998172462567,0.09804619537720118,-0.7521432802602036,-0.5161443925723264,0.8935282828911709,0.7313879628491863,0.7522678673774564,-0.7046100002146019,-0.4462151402361318,-0.7157477581111681,0.7463947136453534,0.8514894473704935,0.7669547547284732,0.5726659228694286,0.18571786341221624,0.35956925954834995,0.21046480983219606,0.509671802822254,0.268360067710227,-0.8430547700813914,-0.9227838061039791,-0.2088961893029357,-0.7827531429256475,0.42948663347843136,0.5539488457355148,-0.7190780951236673,-0.03614754649096196,1.063401898940928,-0.5292314013445293,0.4850047500712619,0.6219910203996634,0.5394724581409777,1.0234370992343769,-0.3399036595275257,-0.5245513271836185,-0.4958435761580102,-0.2583799019923476,-0.25252562525177735,-0.25535784038080434,0.8995327117582614,0.1758777000085319,0.25876656706492474,0.11377839748518499,0.3119864233516942,1.008118053897687,0.5802532119085757,-0.39040136393227814,0.4477281071330766,0.2794993442496733,0.2605544050171579,0.08770443420785017,-0.5976278504325898,0.4165979281679029,0.17326006649868897,0.646498846088148,-1.0500989768347024,0.23560675436317313,0.09929815104671334,0.2454090008295129,-0.4922693051317387,-0.5253290686109727,0.45053799231010083,0.4859214788767648,-0.7847506479396387,-0.4671201154725453,0.10982473737301238,0.6371921792901961,-0.9034559977547819,-0.9163718133907979,0.33604444970678493,0.051848979439527286,0.5086166492413342,0.06738223381625598,0.7497428151872894,0.37641871180973063,0.45736924892497927,1.073789861830474,0.4586253438399042,-0.47205146245061413,-0.32946559067365433,0.14904335948180564,-0.3028919234087775,-1.1698209358458111,0.06170140640820979,-0.5978135023541156,-0.7241998196463467,0.17608666434975323,-0.6416418905534856,-0.9041705965154997,0.2501624654630963,0.5209168322840405,-0.3965899050271671,-0.25477018098294696,0.18793945720777477,-0.470529914574764,0.6965684579362269,0.7814133987715105,0.1534267358644062,0.9291571045105973,0.15789665186058224,-0.47201074564563433,0.8156246535703862,0.44446591382461403,1.210462747865801,-0.1593139039689321,0.7144919954441356,0.027677767937451338,-0.4330034372981798,0.06344916182188101,0.6324443633044301,-1.0025585736869742,0.3574485064314434,0.16412826004697692,-0.19708573133470708,0.28245325242445274,0.6400587513195664,-0.14530251088190055,-0.8837870820737462,0.2644136634687193,-0.7154027812413006,-0.9764927568813127,0.46228282016275496,-0.6155131453609555,0.7584717241060316,-0.7256255299635963,-0.36964032210197867,0.7057669171738483,-0.4592492994702585,0.04364010062932263,0.07733713408488674,0.20918554437708095,0.9569093870879397,0.8899504675472466,-0.7192346639918581,-0.03885268959075715,-0.07164036643577094,-0.5150898350467528,0.5955479173865221,0.6410084979362805,-0.8187923079348491,0.4089038266266312,0.44012686473301904,-0.04653731107109708,0.6842435490354148,0.5770152542591084,0.6753252716160675,0.9587364983929033,0.5078436040580963,-0.6830614097913741,-0.024693333689735156,0.31909562559592325,0.41877733111283844,0.04724810170027565,0.31208091955798367,-0.2924562810088241,0.401248080265799,0.3330105093607778,0.7502848469002449,0.5955081229206135,0.7966372223191514,1.2515172945636228,-0.01380166534124679,0.3755432749067994,-0.24515414257757137,1.121385404781419,0.2515345142095263,-0.3948495312452672,0.16276623680111857,0.13750390697584858,0.24903411163637437,-0.5163483893769479,0.336160097895222,-0.7196740036322801,-0.7385519124258949,-0.8485955768715339,0.3017680615389829,0.8433116673482456,0.793358080990208,0.3360152516716585,0.16774609235935048,-0.835373672795551,0.8028470120408686,-0.8663911100202462,-0.14345506224061985,0.7613713859120363,0.7061987282585692,-0.20280660549614596,0.31733958985872085,-0.04870069277286521,0.512459247860453,-0.3410061321591892,-0.759668833772821,-0.5297907019224543,0.6064836539656195,0.09286499127695448,0.24116248625578154,0.4056306786684945,-0.7085234011728101,-0.6715925029316666,0.2642965738242244,0.5423117888189606,0.512229786671743,-0.39293395531088254,-0.4770642453384915,0.7903492424584777,-0.11596295924287651,0.00391235228863771,0.6033609982029059,0.27912079121244615,0.47968844389995313,0.9213609350524703,0.9472393460822437,-0.6931457409096887,0.7390245119404611,0.6120182345353762,0.8062859126591224,-0.9230838720471224,0.5051712953131425,-0.5871901393711423,0.029146865313375177,0.9761246067459136,0.4220993936352755,0.7066020440925256,0.9498327464812415,0.5536759170600862,0.8377079869318717,0.2610610765781914,-0.4982940078847508,-0.6115126967324552,0.8074878306435925,-0.5102957123091256,0.8501937870873674,0.5419489766126977,-0.13039133126810346,0.12459605081332019,0.521212837649707,-0.2673961629230962,-0.47136810097925935,-0.9707843699707347,-0.26491090972761,0.00701436743409849,0.5500674381038148,-0.7832177520986862,0.3334187407320379,0.27820227128432234,0.2885514644968916,-0.5069628351012769,0.020856115787258357,-0.31527339432940327,-0.49081568303457773,-0.7675486878621085,0.4525824032825069,0.8552610174751155,-0.1802696438914974,0.5292370638337537,0.8658888103113226,1.0407315150864238,0.8731792221591806,0.3784993944443191,-0.6639363210285449,-0.36501253162888164,-0.6787333041689992,-0.31766034198412196,-0.1989878244370059,0.9366965280862429,0.405930848894133,-0.564386369410401,0.014852634084362647,-0.546623373658383,-0.8540319660427285,0.4497100167764285,0.43802101243553226,-0.46387666479635736,1.3442091302226422,-0.21419460681292257,-0.44602485488896826,0.0043239965535880765,0.04160290020327429,0.9152900887700385,0.5561408456825323,-0.5037985696213664,0.593846235447819,0.6498107882754487,0.42597748718534895,0.6445504309236573,-0.22820925247223528,0.5521228928214075,0.31717417557471034,-0.10685679682657723,0.4142228214133179,-0.2779927098525137,0.7331035405311772,-0.9914833711574932,-0.8772060096423748,-0.1484690923342855,-1.2019096712792599,0.5836642573598234,0.17543096495704344,0.4188143379397283,0.7029060650721833,-0.7038653067120951,0.21193216727603345,0.661165460933535,0.10297923746903204,-0.49258745016580346,0.3152154069393399,0.3609685126567228,0.8265717541433986,0.7788452244511878,-0.6573730648404416,-0.04969372697079536,1.0459016941990509,0.4465713908727195,-0.21072557778331466,-0.7228016623181793,-0.9302634497547895,0.6326022107265206,0.7258417652781946,0.6378303175188944,-0.8426395431427297,0.7215290331125287,0.6895132868192442,-0.6458963941619437,0.6331495567502665,-0.46530822227317176,0.16411544795598387,0.027540282736089574,-0.09201345316290968,0.6234243401895734,0.5955147374662686,0.25148757966899454,0.3454599235183126,-0.038370069501329776,1.07502077788102,0.6745838152673443,-0.24210893726432747,0.33325601853278347,0.5059722727746592,-0.40638248291120793,-0.26466193286288076,0.691077667172492,0.40817217835216785,-0.29818293429548653,0.08424958748511013,-0.5542118753203802,-0.7628687195349695,-0.2510993067830817,-0.11362482446779462,0.134784217419137,-0.3330439833313435,0.8776696660378501,-0.6510733855000431,-0.996352028001375,-0.11325436083725296,-1.297835094031868,0.5256087257171161,-0.40996191838142937,-0.9669649645477637,0.23335865392084432,-0.2074153253293964,-0.37002227894139617,-0.09090367557279187,0.7208142794384111,0.29478604198976843,-0.922130429051419,0.4745314464609997,-0.018317738749596447,0.19754137512095019,0.38188001820373824,-0.2305187364017397,-0.1129484767035975,0.6733831816920262,0.8946281273127217,0.6690780977589359,0.09330479506047151,0.7888643484256517,0.5076949632635962,0.9643726460359784,-0.8457718062772461,-1.023700609525727,-0.17251642785733615,0.7673171914853049,0.7285222187827884,0.6060431643616427,0.511943998988204,-0.39594996838313573,-0.6436030916930144,0.04346953577631372,0.0864048211658355,-0.2654084208817555,-0.7128805887238429,0.9900633081349351,-0.8155941313176888,-0.7310304372397749,0.8012808106270469,0.36198240499278633,-0.5572808143498178,0.2278994725643784,0.35373044830804456,-0.9813673030236769,0.43266084070179733,0.44456554752919253,0.6779384252158769,-0.8272451234596123,-0.37052141328178895,-0.33883308261160083,-0.5790195221033345,-0.14124416022763547,-0.29400424943431164,0.8530109860183838,-0.018848204038231276,0.6399134016228529,-0.2976327205094793,0.015552782684827952,-0.8489769932833752,-0.7184682540901474,-0.16759204399298064,0.2320056686015532,0.0374269882118049,0.09015044322272561,-0.22516688437403565,-0.5420469943213256,-0.0012322792291130414,-0.31574530355401237,-0.7826585288070453,0.48821114211531125,0.26278138538662343,-0.7159366053406537],[-0.0411241061417309,-0.46587107075093837,0.2876569276696954,-0.7941966104842124,-0.3786952635254526,-0.30065273089998445,0.9715609349034255,0.1743395808470818,-0.647922211224595,0.5925754165291384,0.2844424868292168,0.7299861188549661,0.9989860485841836,0.38048359793056913,-0.13015116887224287,-0.16482041002224654,-0.24961271350924896,0.16950502931226108,0.1593006568634192,0.8949944855359719,0.9409543560972411,-0.4616684186400306,-0.6039484607437817,0.5076622279701408,-0.13625249567126696,-0.9797211467067064,0.9595521900540298,-0.523155982360068,-0.7998423890494029,0.744539018585407,0.11678869289340099,-0.968678632992618,0.9237753473224339,0.5510329184791252,0.7146013488377227,0.07092738594571577,-0.46576554952701277,-0.8598671112116042,-0.9678583905660928,0.6206766503578737,0.9944932006248727,0.9316870295330322,-0.4520055764317522,0.6091912093328085,-0.18224525220263982,-0.8479963336103442,-0.36483179063859894,0.8079518059186127,-0.18675327498180622,0.6005117264119183,-0.13722940207967035,0.9275156989585681,0.22744513098094465,0.8666359235296333,-0.8104134987028422,0.19818221029618588,-0.9616211597328905,0.3567467183975084,-0.6835027447669731,0.32407402098650473,-0.8215339085194461,-0.4301127630365827,0.824189449892789,0.6649850926960101,-0.42013631607045715,0.17366014919682685,-0.8813448054943026,-0.5934474491960242,0.3397599954598844,-0.5998990826059798,-0.391106172242899,-0.9752848066443652,-0.9561474401250418,0.6417047461264215,-0.7421410838781063,-0.18698061939978877,0.36622232757148915,-0.5921022947460596,0.6131687801184583,-0.38435739913537803,-0.14513875065717396,-0.09933185087045625,0.926779248673335,0.24184849469139502,0.22737549739667884,-0.21709408625604354,-0.6484349029081146,-0.1335373313811779,-0.614637133308424,-0.14039095468289303,0.38183172937077425,-0.37374287004862006,-0.1298187157195424,0.04069335390898931,-0.10638216308618217,0.8533393567829375,-1.0521000308037587,-0.07345971612289764,-0.14338715631381987,-0.217038032501824,0.2627384711724523,-0.751733157749759,-0.39779739749507514,0.33762566830823754,0.6756463105559264,0.7054919662465131,-0.32639098832331176,0.4373583244549825,0.0416225869397107,0.7998386249362329,-0.6246344710114887,-0.3961151581610336,0.7195262027626708,0.09568155298983187,-0.9703758192542454,-0.625814874849803,0.9059083758629641,0.10417547419085403,0.6759204611710681,0.7375740734739309,-0.4320904760226505,0.11820093350343543,-0.3519456418542363,-0.8501651488112745,-0.06627056988579276,0.02429921580527754,-0.5871554114890479,-0.418105489811151,0.4673270111757186,0.008853659173022766,0.7898318501354941,-1.07890500596231,-0.28789807458866884,-0.014338389648397192,0.9067981801058577,-0.5763498188719677,0.5286524228214425,0.012092205880593513,-0.17747568928951918,0.13241730406271163,-0.6125865501075363,-0.5240612946860086,-0.49217786115510387,-0.3950023961404101,0.641852138876895,-0.73582217668894,0.6480237521531326,0.505607176816304,0.008629350744407191,-0.6653744989170335,-0.34681274842669657,-0.6377125759176765,0.35821739911455125,-0.7275582212244716,-0.3120585787827902,0.5362006682344498,0.35965931484612634,-0.5586740932698345,-0.31146652553416265,-0.6553016648354085,0.8262491623532169,0.41090543567748283,0.3123458136575921,0.5582868703970866,0.4615398949676429,-0.6535828806360413,-0.3301585992851861,-0.6961319654268558,-0.3310978043680519,-0.1745332108615732,-0.9057364042238057,-0.8822895975339978,0.27910763315872233,-0.0938001273718212,-0.2212368276121179,-0.5508963683606439,0.44088190845010156,0.10097746721887615,0.8349190110195722,0.5906922994301885,-0.7985373550476469,0.4548147770032952,0.6411664013565217,-1.3124777383241384,0.2603622928731459,0.47970155203953885,-0.7354146920196162,0.62491627268003,0.21262057605482665,0.3681564813567608,0.6353907762636544,0.04105538121028631,0.9594391738772788,0.556404755311176,0.7858255733939877,0.0361235697168154,-0.013929204414519978,0.9608360929656461,0.27775053583523324,0.4061397714163214,0.8126228857960438,-0.5522021779377035,-0.7020801303627502,0.07755571506048134,-0.30097495119507733,0.3724290314448882,0.07508500944613253,0.3204040194123093,-0.5776802277034533,0.770747495164114,-0.18399257720250378,0.35189743887702063,0.14013462377269237,-0.6664015258681758,0.13581161183335172,0.5630873294903821,-0.5979387827737299,-0.5993718347422157,1.0643961134325346,0.8337755858209004,-0.30028122013780456,0.2519464411393077,-0.7454774850056338,-0.9817391049871671,0.45253869606505187,0.23294263058364956,-0.8526993590855425,-0.3006406584394416,0.8353016315892903,0.11345750550492745,0.5150857467287877,-0.04581585707670936,-0.3519803321349708,0.1705542154753585,0.3045517131466863,0.4907110798776648,0.547248412103651,-0.5111061475676206,-0.2045295938815335,-0.2123407751280809,-0.6465491419719621,0.4668648420851516,0.5216166805675508,0.06892435001934537,-0.663420002629676,-0.4655533257397312,0.4849175744543874,0.7524780750975018,-0.009790731265583861,0.31497680712163556,0.19784559325090476,-0.14063486127424096,-0.8546375781127691,0.44753365158917935,0.38816805893523315,-0.8728738261059766,0.8188466122385092,0.47527555117406456,-0.7098559159280303,0.7390026243389379,0.10621793770662628,-0.01988798063877072,0.23528149566569326,0.05746837502678434,0.6679911669764443,1.018654259286231,0.7363098384180664,-0.06603258501583723,-1.221549843020506,0.20251351595778677,-0.807923403666251,0.17275183625224735,0.15659193466980537,0.5555225505299842,-0.3880155652200292,-0.43730216389279186,0.9005872274821873,-0.07335206546541392,-0.1559229198793206,-0.565263954875476,0.9309069016944092,-0.5940294596516095,-0.6597112562025517,0.6545075296228572,-0.2538905357797958,-0.863997729084458,0.8846672416605055,-0.5261931665545931,0.35740320797186226,-0.35838088802514645,-0.141434036103672,-0.0073158429349778325,1.3940707593490498,0.08600402582040508,-0.5735088283851886,-0.690076034903311,0.05960314822172107,0.5825085477569251,0.19511879719916347,-0.9039500315310964,0.1798913289903181,-0.24563003945015266,0.6417784011960753,0.4803532004111443,0.8836556608566268,-0.67467958136393,0.7383846438312995,-0.03819359581877265,0.12020851270585986,0.4011266309819333,0.3171203904645635,0.05347840443929405,-0.4395135659422283,-0.04779823295196277,0.08219641238048188,0.8657196386313236,0.18827539130736023,0.7016485671260677,1.548646661003079,1.0464016298551488,1.1156289651511702,0.7848773728613803,-1.0639225771518817,-1.6973993804635275,-0.45017093935932667,-0.207114227128524,-0.6605047099710072,-0.9445258543244841,-0.9147323432590698,-0.7951225283107819,-1.2872214260073385,-0.1807918626928005,0.12685112411667523,0.6707073501022502,0.9258718575612226,-0.15321715344920692,-0.06262848761194056,0.5268199019767194,-0.4173861109283698,0.516395786353454,0.818728298379416,0.3086809803858286,0.7805310929016914,-0.17872173848765094,0.29983452833864394,0.8418545388971013,0.6021435147214221,