{"weightsMatrixsBetweenLayers":[[[-0.9910671230721171,0.42716162614307285,-0.3321869643870752,-0.2429937094485366,-0.3322805455800504,0.6186795184720624,-0.5748623198102867,-0.8368449381370366,0.7727019194839819,0.8430350105529576,0.8532850483571051,0.13515605741184133,-0.5465521724412643,-0.6233301083176082,0.5863012682813058,0.724616803218102,-0.6611077220475696,-0.5523775080977424,0.15062058104700737,0.2492893244083776,0.7323400537221789,-0.9309794208950812,0.8337936995715434,-0.9266157345528514,0.9317395879121535,-0.03307711529567081,-0.9028495541708073,-0.8962289142540221,-0.1550983367394605,0.768703821148641,-0.49166731600389335,0.3247287374872361,-0.04034481725757999,-0.0130532560237695,0.8822207601748174,-0.2753948339040427,0.12658227435796618,0.10791407326950488,-0.12965837506820532,-0.013446853976976786,-0.12570412577366652,-0.06436491684209078,0.8013562942340781,-0.6345236142608544,-0.6128602449049664,0.24673093235445942,-0.9381923691362366,-0.2828364425396498,0.6519455740829033,0.7827376257461292,0.6035506336098732,-0.936947059760381,0.6083505237101461,0.8814745443934968,-0.15160815271425498,0.0881972527365753,-0.9790869005987228,0.36280635706315456,0.482239024158444,-0.42812172046539754,-0.5429894675268622,0.8832740226749997,0.652394674553492,-0.049910533608711095,-0.14425038741570118,-0.4302599632328762,0.3532506476323303,-0.09271193599262269,0.09718784271989324,0.9901611601400808,-0.11638858236843916,0.23932729870268726,0.23578034374314844,-0.31592881758460606,-0.9158454979131458,0.033317689990541834,0.8900029222288086,-0.8882491654589347,0.9106781270392246,-0.7374415287797323,-0.4992581759298656,-0.053472841907568985,-0.1869999605760997,-0.5043522880531799,-0.2953212137081018,-0.8025020398048635,-0.4972586600216688,0.3735423668675791,-0.7233879423684122,-0.7505583918368207,-0.5970684775455011,0.8823004915216718,-0.17087179173296776,-0.2946142449815903,-0.5029245750597883,-0.9427510176244243,-0.20399476497446378,0.7808164448761192,0.4855587467460821,-0.282691368093907,0.9260200390127282,0.45823136456544405,0.8285972491144696,-0.6262589548613254,0.47957014752723864,0.38430098104390636,0.9254225460692025,-0.06120791477627165,0.12916785340652134,0.8109777433435201,-0.00868545682471319,0.6199684946556969,-0.7925024824101699,-0.06021435780382545,-0.7874297491050202,0.01072002105528754,0.693132536949447,-0.11381417962119873,0.461274032597699,0.9772786603947847,0.8543232012564552,0.2665056544202196,-0.5056204739454014,-0.358922708401842,0.9596934594909973,0.16385726444667864,-0.6140742898744703,-1.0096733573399401,0.785848084306652,0.7882513560621864,-0.5362242434224391,0.23112347749939016,-0.009572100786484185,-0.11778808085222763,0.362026594093248,-0.5278225420315859,-0.16633159971348607,0.5197613355345145,-0.36131321670018174,-0.13534236207955885,0.5627045548417078,-0.8693547937327524,-0.8651257680928097,-0.1863281246859648,0.6168342065868488,0.3737248719771758,-0.011765689751278787,-0.46776610474312563,0.4053903808299704,-0.06749689662045295,0.2207982384746272,0.1918372887916563,0.41370585506349083,-0.3092776454294575,0.8250945711556316,0.46424982622549094,0.8735165431739303,-0.7859621112776669,-0.320764238042249,-0.5382945613920269,0.6898494566917619,0.05359962517304837,0.8683662822506245,0.22877280731655625,-0.6865137625167963,0.8789624404736852,-0.5107758367409434,0.5340178308870107,0.46950895237765167,-0.9585362700270195,0.48671585028089576,-0.841422656058981,0.7886650072928874,0.21393988544803144,-0.7101416723154104,-0.537776664685344,-0.6041561508135416,-0.26118023390070516,0.5454787757418693,0.46840916093557305,0.6918588403930108,0.2016052641569902,-0.18735065940776446,0.2948835906442389,-0.8294693200800674,-0.9810993858030735,0.6286623316112793,0.8945521677371079,0.22343624640135745,0.5631629818332168,0.9733456007122632,0.2010428079519742,0.5489537181502817,0.993146349777562,-0.8201938227253549,0.9211947285605295,-0.9717140482469109,-0.5725347738870511,0.2143693455617144,0.43925319881686997,-0.6586674555662383,-0.8916631325018781,0.2329760331444555,0.17374052884841984,0.1811052660405941,-0.6905057190577792,0.1954755963232529,0.8959762693083889,0.011577531272600668,-0.842400950561405,0.09699500767678619,0.6449628942671861,-0.8602153472409494,-0.8000554082202069,0.1921166778184425,0.721072130734942,0.21483004382208598,0.960277827235782,0.78415448296315,0.37934611473872565,0.4634027801076481,0.7138498547494342,0.31545593060226923,0.4066500527667185,0.47802534828067156,0.6459945142242361,0.08321227124387542,-0.8254269596906535,-0.7346199168971137,0.9355548336033782,-0.30469651138476234,0.3511020041358222,-0.6698127343352456,-0.5303452059270789,-0.39315900034547935,0.07358476076985457,-0.8774809705805888,0.7102709460047842,0.024438467468225686,0.302851900162229,-0.18478172085261924,-0.7636951775603454,0.7464698716528867,0.08836489390591573,0.7885487397119113,0.28725236811552035,0.7583349814551765,-0.26159740926271774,-0.19691304535548435,0.4451524855311203,0.7249417039527112,-0.9817932016013354,0.4995415158673835,-0.8764318406376547,-0.5738811740610582,0.2756009768564292,0.18451847595925874,-0.7902761128739209,0.594768936333137,0.15207922840780058,-0.93253747995927,-0.7933694690722851,-0.8155578479237755,0.6605684173002513,-0.13130326352914362,0.6681309417587812,-0.0979841603200543,0.4393622879423222,0.55277647902515,-0.944175887714653,-0.5460530647528462,0.5835477169806512,0.37181264704663675,0.20212422915439615,0.2289389662171533,0.9544573777711782,0.3761011104979902,-0.5380698592379233,-0.24133456977057402,-0.38119731626864833,0.1493583147534313,-0.8664555969157353,0.7019171175011388,-0.21113333761725733,-0.2961222712833052,0.04135400509888899,0.13890527467979066,-0.7267635836773354,0.6608163587496394,0.08685550006777219,-0.20953539068675436,-0.7993573204179033,-0.24076137296403563,-0.15183749325688195,0.6071005522400114,0.5650511747476379,-0.18494656342642057,0.313707729384991,0.048232779783335886,0.34554379681766895,0.64880752901841,0.2833243695467543,0.5415782888721579,0.7342956867837765,0.7128290158428505,-0.23793345539194272,0.0853852326102425,-0.04721237819841284,0.8360034935152186,0.6382114142715366,-0.47943586626374507,0.9580600632194116,-0.5974433967813711,-0.9615495128304223,-0.2238867083673087,0.23456951206576562,-0.41717692546210816,0.08450952541629524,0.428073716202834,-0.7374506736472568,0.9276119588787449,-0.5421048131569827,-0.15078621761054847,0.47873086846672863,-0.11955815506160895,0.7699853893653683,0.11128195713828752,-0.33057472149084743,-0.35703361358804203,0.5906129354501494,0.07044123556668662,-0.08432490263349533,-0.311957459554419,0.4647463206209274,-0.8099698785234706,0.5112900144352376,0.7862707904168196,0.400837659758696,0.4983193344931223,0.37918667754363494,-0.040957450150805416,0.5141990337728319,-0.38304349677245786,-0.9043419826967368,0.9282603282858111,-0.8553126970892467,-0.12355861730603591,0.5151010167493345,-0.07164636232169894,-0.22080613092335535,0.48479020182956006,0.26455737181452804,-0.5149522981976326,-0.8899471975864084,0.25377823876968864,0.535645689754593,-0.25562754201779364,0.8154150483525446,0.22793319235289508,0.8654876700972276,-0.6823504171211644,-0.7086504822620463,-0.7876715517560722,-0.9139919134029041,0.26248759974377095,0.9521831316705573,-0.5758614535035138,-0.6537459176714023,-0.5115622073503067,0.6140118148027561,-0.3217204486131336,-0.1952730756976869,-0.10401798346422922,0.8724383892942106,-0.8405422405192079,-1.0159224939930425,0.43597599136506227,-0.3900242548336585,0.12913282101500792,-0.9123027583119347,-0.6357781192421834,0.031345944559366956,-0.6727575597217931,0.11786239093325197,0.6765716975773148,0.6458385855430443,-0.8749712715433163,-0.8690653449175523,-0.6115039293413058,-0.15053854478692588,-0.7164360232488621,-0.8686685177436878,-0.5076797830753828,0.2560550894347586,-0.35824858126329656,-0.6859427344698323,-0.051238093302358394,0.44135600094124056,0.6364303250712195,0.673720803004318,0.5229504683704397,-0.7564037848272687,-0.43027843717380293,-0.7681145204399432,-0.936843932916841,0.0703792553783797,0.5048512530824453,-0.7171555073122369,0.23520990162784206,-0.5234017086124061,0.7716841376296772,0.11281643545254758,0.5981603941395996,0.8366471189874801,0.6666051592614395,0.7871473722499287,-0.09407079096050865,-0.923958625404047,0.34737708958037067,-0.36571410651760694,-0.7276831004134505,-0.604683162824249,-0.570191347184949,-0.015458655439450075,-0.6669663265768841,-0.8806232487611283,-0.5458692773755437,0.37443901845704114,-0.7313559879497623,-0.678194534212837,-0.22021926714283063,-0.32592255762929623,-0.07434708475398508,0.8398170234615099,-0.10896150027179767,-0.6473493838819108,0.8239870062690244,0.07120923851314898,-0.9386796134585645,0.043880181224813714,-0.03410607847962699,0.5045137001980848,0.672522837951003,-0.6415391681300691,-0.2447695094449291,-0.19205637965023506,-0.38511445542614076,-0.9961895674872321,-0.41409695576633565,0.4993195210857547,0.5859478411400111,-0.5841542618482204,-0.8938974808857588,0.4010675074160364,-0.012996877661255615,-0.3858206979963961,0.5182667306082399,0.5506094778663334,-1.0672438654047098,-0.6667221134688621,0.14666689805540198,-0.029549346794947615,0.45903491605961344,-0.18529474311057384,-0.9127152226635665,-0.9440698208822323,0.47563265874274474,-0.1553282516325095,-0.2760136718391614,0.652386271820351,0.34178084611354187,-0.9875056028632025,-0.44333944275402576,-0.775259266426564,-0.033340988246270464,0.8104651728288128,0.4065738098112095,0.03461139526434256,-0.3613510871859045,0.7401422877869079,-0.6670654056539351,0.26623786582838854,0.3218947984834612,-0.45507787325905147,-0.7499536059183287,0.3420658582437709,-0.296438162410945,-0.3717624883148061,0.36317115078760726,-0.8201733618212818,0.008063459353302625,0.5031916114001247,-0.6075785144927326,0.13080584647030274,0.9268356641365433,0.4836397893371967,-0.7198802376558816,-0.24752583385209753,0.3971524424912002,-0.7021430500805197,0.0404659546397702,0.9645128745134194,-0.17194925035725503,0.2959530950284764,-0.7514469807482804,0.3361324583770471,0.24567397322894288,-0.500376321608402,-0.08981714535632276,0.9210498064607036,0.5195682799814683,0.04620280112486355,0.4303503246086292,-0.3132896092839249,-0.9355101128868718,-0.5343980215933289,0.3993213806944393,-0.48696664161465386,0.0542564652790993,-0.07693029990625101,0.16748627313810197,0.6990177811468563,0.3897167678581059,-0.4579101391035558,0.06363103789044262,-0.45182297245371505,-0.09573948221097779,0.03235218068714728,-0.11639823699586076,0.8172406614098386,-0.9924731714076023,-0.9595901460974235,-0.21423640782870423,-0.5104891994772246,0.069147932268653,0.10788343311021842,0.2300119431192294,0.16024400749262413,-0.36524329717815956,0.2460439642723295,-0.15145693978306216,-0.9476982364889273,0.5293003059007516,0.28783234097827615,-0.9098242146041774,0.7514601352842265,-0.12848378378086714,0.3210013435789359,-0.35168238676204355,-0.8887526785114754,0.19110111920788658,0.6242671525710292,0.8822445768832776,-0.8372087730436647,-0.7471192992035837,0.09530158788177927,-0.06366895815915827,-1.0070037227576798,-0.2732717988069927,-0.6522862726195736,-0.6645318618815259,-0.7415862437868542,0.5310586123735421,-0.9563417618777815,0.8862672844413366,0.06676886097499214,-0.7279048651048721,0.9469366183511754,0.047309582877585375,-0.013515151274078997,-0.9770056436219183,0.46902636814122484,-0.8763268971803835,-0.1611730801172082,0.08110269312859084,0.46027293852804396,0.7936405168730436,0.4641884211508013,-0.7285977776040665,0.923800861799861,0.42756140219642563,0.7581675952225919,0.3745383543330835,-0.9423819012488099,-0.09645037322035063,-0.215952076796981,0.9376114875554097,0.7144764612006141,0.2966277667984812,0.7482938919045891,0.5793119506495126,0.22976722633793814,0.6342314019588029,0.8193574402912217,0.3613222012925438,0.25644075792388815,-0.25409098653927464,0.48157154995906304,0.17395243444949252,0.9488751781354904,0.7153438298182351,0.02697872656294,0.24024183570016303,-0.606193070659587,0.048430623861915933,-0.2785936720168299,-0.09642546748343127,-0.7897344365405572,0.8534169080369247,0.20308707196539638,-0.5316959353208067,-0.6280861572045181,0.8601041994130452,0.13948902184657017,-0.838183964526829,-0.4173057557678024,-0.7364138350191228,-0.16186651090922763,-0.39062727393806235,-0.007368039184205974,0.2675374985758238,0.51731785091167,-0.2127903755109279,0.3950091612828718,0.5191612989624336,0.16425977775835532,-0.8826897782174693,-0.4858780000272493,0.1804691851724277,0.3512777297315902,-0.06619748057287943,0.835521525297628,0.36055686657570507,-0.1446460321257444,-0.8996887146776057,0.6508829545560172,0.8274313774164362,0.5369369017350254,-0.6062581740687444,0.3837659940156913,-0.5876683595828079,0.028709423432447093,0.2485094504613828,-0.3165232421092852,0.13246401428182564,-0.6038107972179017,-0.430886086459719,0.6259374091544002,0.84808842928653,-0.2767188518692693,0.6197192864897244,0.7570396583031179,-0.806035409561912,-0.8188353303570387,0.45503408369837645,0.48368659290305677,-0.2179358061824833,0.4117335376269804,-0.5564019076821184,0.12241671911132398,0.47910936564834294,-0.20450918371063287,0.15952410490659874,0.37538584250351176,0.8492748750209358,0.15574203162798322,-0.35438501566508607,0.471104860635209,-0.5963243509464136,0.38320559952383926,-0.8941346452708132,-0.6210995791782321,0.872054534387094,0.4718247386776353,-0.3373859562308786,0.4716257026276221,-0.39652607063681616,-0.6955104931361535,-0.06306292227446923,0.28683894797669346,0.9393436366404263,-0.34890386137734075,0.9129186342920271,-0.552800872379276,0.1924846995752181,-0.3131855988750101,0.6429202853179034,0.7351725706387973,0.912355192658198,-0.6854469720488149,0.651053691740695,-0.5859210457881386,0.2670087993340364,-0.20923394755998662,-0.0017134557674322018,0.35693897916209083,0.20846509127718485,0.2928265266532677,-0.10375800861641034,0.6624200372489817,0.5195773588356665,-0.91757676305315,0.8001866797967787,-0.006843260670173245,0.7764244241397291,0.34497325122271955,0.7387128473311714,0.49116526132777844,0.9271713072063874,0.8233431346625822,-0.606741649290119,-0.11459900660470358,-0.3596815047491352,-0.8200982211588976,-0.02476106674517804,-0.16994168960463027,-0.16996824504727986,-0.25108297002315794,-0.13691757134948,0.973937853226325,0.42990182923255854,0.33338415424281975,-0.32785762042841976,-0.022010827774064483,-0.4809465921685864,-0.41602023618413975,0.7184901002955446,0.657996480774405,-0.3477181524957551,0.7835577456830727,0.19657687667977797,-0.2601025409631605,0.396766357684638,-0.03133343697926936,0.34214899574088603,-0.6878055603081967,0.6044002580644329,0.5319081871652027,-0.9365029351387448,0.8745558772300394,0.10432286246760204,0.9430908041822743,0.5305617028894727,0.7938552206823263,-0.3827286014709527,-0.8521878452380051,0.6110008052408615,0.053455997696239904,0.8162842257364743,-0.12865651582737112,0.8217655127150486,0.7619383409632816,0.7312218222183007,0.05106323467853713,-0.8631746074430016,0.19548393605359804,-0.32948664078950696,0.4958516244606872,-0.570693526094948,0.7411666729798756,-0.9337697324125042,-0.2785700016075475,0.43345697418705575,-0.38288546437636234,-0.6598867440044158,-0.779558569848619,0.2516219366144365,-0.4809712561674125,-0.4499227600456471,0.5036080419290095,-0.4817600078031949,0.7892508630239263,0.015366986688452227,0.11613235923624575,0.8059017045965743,0.27057715032274854,0.1214361741435018,0.6630994945376862,0.19300549327175484,0.45956825330068174,-0.6569166094731234,0.6708958790647426,-0.23702988064638175,-0.24722627906768624],[0.0866791111609384,0.6163597457570438,0.8700298467944769,-0.8134424180287061,-0.46900612553926546,0.1459364357602415,-0.16898018584784325,0.8764827332933369,0.21642494375487908,-0.38014623073039333,0.45986853374092984,-0.6044486098300874,-0.12828662093569887,-0.8530765279461261,-0.2487392151252017,0.06490420798201368,-0.38538297377763,-0.8677752408771591,0.6868375629896493,0.23231872425111133,-0.938938307087736,-0.9327405514487705,-0.019538534612607794,-0.5738629666751982,-0.9615530230817764,0.02302305453506337,0.15222360696471027,0.23962320307888785,-0.28087512975742834,0.7531063880382294,0.5478786176872474,0.5711493337232763,-0.08899152686213885,-0.8023935213716027,-0.9260004437670031,-0.6923650156708946,0.40182452804529645,0.4114911047007932,0.49872191812270006,0.11179369772309972,0.9265668014336603,-0.5513837109122863,-0.2772312682403235,-0.044122751977149974,0.7412915232016994,0.9356106923661307,-0.6177699786111446,0.520522216960258,0.027307817646194405,0.9846753567892441,-0.6525194064425915,-0.4257453064120563,0.4174046074832751,-0.6276517330916618,0.08844281881029703,0.02997831178444077,0.6539318218720171,0.2421588437772808,-0.7336787140304688,0.7337377974859005,0.24836071889344827,0.03588361052214668,0.3244291137691933,0.7399999227493768,0.9805113338577958,0.3575313648290585,-0.6949707282602468,-0.42317595837873895,0.8212871940870432,0.8565037421653067,0.015122453252042402,0.048548001012192574,0.5128144388339633,0.34471363868634086,0.14353927190686655,-0.9618422022096523,-0.7386787306963597,-0.045853216187994116,0.8572240731059007,-0.6825522730463908,0.5674351830798879,-0.055100924486610886,-0.12022191215759515,-0.45824639758649255,-0.060309576323967384,0.4210821473750954,0.4188663122076244,-0.2539059221966558,0.6429033914552033,0.799237040867743,-0.28686198844585853,-0.6369108163017262,-0.7615569321185434,-0.4100799613618791,0.7883428049040853,-0.8757764835929007,0.09442820934236504,-0.7879503654497627,0.9074748869660966,0.4614229084367204,-0.9730234351554442,-0.5233187469093936,-0.06753092349423763,0.9985310090592954,0.7855418417159856,-0.34053050540787116,-0.1747998538155079,-0.2187760740663569,0.42916223985878554,-0.6816550637025246,-0.17639763642941075,-0.35932133733719596,-0.40123516526121517,-0.5356104029811868,0.9803736034276708,-0.5486832202015162,-0.708214481485156,0.7043562590129158,-0.4169332378265763,0.5945275346490515,-0.8705589489014971,0.13556531833016477,0.24369351948320417,-0.3263265995701497,0.9018640404463333,0.6405997060277543,-0.11521489703774601,0.3247948075329768,0.1484734614853959,-0.6008852040066471,-0.660601418438122,-0.16435035249532806,0.5030201838315026,0.7694165641314933,-0.8767809410692697,-0.1654320209595846,-0.8680654519688144,0.8153465825714014,-0.3712963324425545,-0.393306737300684,0.6145135939605346,0.12001348693101432,0.48408856959110735,0.5026938059212273,0.07139402235971967,0.12508385352486887,0.673885060177248,-0.10141051856517082,0.4348104493683403,1.002414842528512,0.20669433405646997,0.6296207926471118,0.19379639656470465,-0.14643587503410904,0.3265922233224484,0.29591840433023114,0.5759911564090162,-0.9002542082060546,0.5958763882814212,-0.9039588747800358,0.36882857872581776,-1.005098383691928,-0.7467824338498986,-0.7988403342954192,-0.6210382357464795,0.6080293124182244,-0.3336887624498602,0.6317726750825761,0.17720438856518728,-0.7800141923375024,-0.44393988173688886,-0.6861824272676169,0.9822638485944034,0.47251976361836884,-0.7986111411458305,-0.12112161323915938,-0.39482971188427546,-0.8723391938105421,0.09613608655362475,0.8255956882589187,0.7286613181519828,0.2046307408273783,-0.010073484356558698,-0.0415562753991918,-0.3929912069785482,0.5653154406717309,0.0528682118722557,-0.8859737727281128,-0.9656997010333868,-0.4672025497091858,0.2549152579659715,0.1522939317454321,0.1172574353839735,-0.2765054494341871,0.4780088641703018,0.3682907080202924,-0.5836822627191256,-0.6235125964317828,0.8472104745578767,-0.7848817566253439,0.40433646528922096,-0.207952995381608,-0.32265500826075777,-0.8573152538505292,-0.18982314101020317,0.7492940881871699,0.12082866026789259,0.5606069811461136,-0.6417541020948467,0.5334415514595802,0.6338228597291612,-0.8685923010323393,0.7395374824329813,0.1898652997634087,-0.8995920917370126,0.2693162170920016,0.03547306845576523,0.31941228871899296,-0.8740809899499241,0.7827454690627069,-0.19746082660009148,0.3282311629262478,-0.7173931225126414,0.49111621210427336,0.677942107672802,0.16358946122490875,-0.8722519149847023,-0.8949274030333672,0.1115226887057737,0.9448577083145999,-0.39165538480041984,-0.8046688577303704,0.2888189685752108,0.07620103932147765,0.7486352731008846,-0.16708729031977057,0.7404771191058098,-0.5381992882395725,0.3805011442070621,-0.2528352436349579,-0.31573111343950716,0.05381315660469368,-0.6304267535158795,-0.7823593482144776,-0.6059215943411544,-0.9492776541008999,0.6173528551961699,0.35642284696133075,-0.6731128976643787,0.7187770064671802,0.8930534847753193,0.1736591888079772,0.7369128942387073,-0.35408129511422526,0.9733269392016848,-0.32724400343976306,0.7368259625560685,-0.7280236911955815,0.5727771897384025,0.9518690905322864,0.007093281829938638,0.8911695014089035,-0.25578414062552957,-0.7946901653675934,0.8298684112864568,-0.7079827720309558,-0.09610240844012358,0.9898621216387823,0.745212650294272,-0.7986139914029726,0.910883780348013,-0.1848622434354227,-0.2545429968344322,0.5361937784316946,0.32560811728421934,0.48737182131203627,-0.8539640993275088,0.1850657566039204,0.5210112020610116,-0.31616310453434116,0.5274694629639484,-0.7511568163569416,-0.46525905101480036,0.944807272031766,-0.12472367272727157,-0.18223466545155392,-0.6266669894026672,-0.21274917976603008,-0.011364546132173754,0.12202369134200346,-0.5209307579818254,-0.6543357059210153,0.17216732744981036,-0.3889492412872094,-0.2521006663250867,-0.7726505062866332,0.23052584312913665,0.05996392576074845,-0.7422820268007839,0.39497282140646556,0.9214999229668651,0.3345054234837171,-0.277983508124987,0.07355259177023524,0.23246955775861552,0.034485640860320424,0.1772485188355784,0.5152938750471048,0.3682694321628466,-0.07620858992474251,0.35159890816086437,0.6059230953100488,-0.5779765875974696,-0.6158635752889459,0.7874384926299828,0.025203094770649123,-0.7229400733242952,0.5217417296070965,-0.3781032200439963,-0.15593682719355062,0.7010663661490847,0.1902131912812378,0.6030299787827419,-0.47743251018950617,-0.975293984441091,0.32602036986403893,-0.7862937882390497,-0.9221901656428254,0.2447672405788634,-0.8289742748027651,0.1042573610310128,-0.962259457972683,-0.7953966176949859,0.4254332875579875,0.07549950943105717,-0.31554879614574133,0.22447119719793418,0.590188030162345,0.5256905199327998,-0.582516904348354,-0.4047831727898613,0.3900771940921886,0.11042195533020148,0.7900526984975369,-0.36379959442954385,0.4625630642972043,-0.5763702557174981,0.42130431846482197,-0.20016676853841311,0.407888271242989,0.5480053009539164,0.47602637001954723,-0.31265957070103334,0.12396212943415194,-0.9037544181064823,0.9888484039606737,0.7994329702851001,-0.69537865461966,0.025507170810315293,0.8777664414056978,-0.8103984494035607,0.19928932919971107,0.35613160056553794,0.08134694578005701,-0.4790023840507382,-0.41740143462093865,-0.1824948989882603,-0.48921539049984214,0.2576847810265279,-0.5586704883490451,0.5032721027833322,-0.06483858913065414,-0.8642134792742275,-0.5102971920134727,0.3741585482263521,-0.035096628414333544,0.9580411870912515,0.6409269722366203,-0.5697498486721151,0.3771178347814519,0.8056644741722858,-0.07542228352703259,0.13221218022336392,0.5256416374193122,-0.31531833586180996,-0.9084539366698262,-0.4092316585316144,-0.6579292505583334,-0.6074818447961968,0.341377735976332,0.9804336113052308,0.10018822886167515,0.6128086062447715,-0.0398735108358634,0.674681722627933,0.6543721395258894,0.6552643803451849,-0.7554358214760648,-0.6064442884873655,0.7335377458658183,-0.030056526555126216,-0.2716683705164235,0.3755363026608809,0.07859871436031672,-0.760384503853612,0.24062410762742809,0.30759925185039394,0.8868853604378952,0.9775908440270392,0.3928195870315402,-0.602444239500538,-0.2847980549470998,0.4807627160036439,0.414190030245177,0.9504982962650921,0.6735441184513049,-0.7746693757808386,-0.47490511581611194,-0.18824329257844546,0.40157665944315196,0.10010366128472123,-0.7417197107833338,-0.19897693834600633,-0.24967202906963223,0.283951822015813,-0.17684485949238263,-0.3588664523242276,0.1651584533066739,0.24813221721334372,-0.024665279553482633,-0.4015038872043064,0.8556961552595869,-0.25908606293397973,-0.08739416013838351,0.8041547960589369,0.1241468193599961,0.5907993978724219,-0.4428297241210596,-0.8547960196930106,0.36595030648101645,-0.9748419667144528,-0.7058249175751694,0.795593571576916,-0.03826383064155761,-0.031666149339130485,0.34541431708875936,-0.412311413078615,0.5289008156469198,0.535177540466004,0.3859665976647398,0.9806629411043669,-0.06823821505150764,-0.7033412524077463,0.7003675549451069,-0.9955409851200976,-0.40690157702723284,0.5924477866986255,-0.3125194479915049,0.8162318752621667,0.15495854898208092,-0.6314130535902209,0.10477382742817465,-0.531408056052762,-0.08137981358415719,0.5872843849438063,0.46085421295585305,0.022832370401175337,-0.5653706995935424,-0.8333240060425382,-0.505799553720185,0.5461924039925483,-0.6070794072365769,0.08827145801668645,-0.7441796240875791,-0.552101780691292,-0.0074543529699227775,0.14196749450316926,-0.4891048670794565,-0.9386955068120584,0.6735663939730047,-0.14840126708422108,-0.5074361986009713,0.6483422651367761,-0.2338783911802715,0.8101443880567041,0.5013635512272911,0.5566081538194038,0.9689888592459681,0.17165701284074197,-0.03415893902261426,0.7019388491603452,0.17372211568648924,0.5976469488222828,0.13921486647062542,-0.06963794001934125,-0.28285328623045364,0.7445508971296778,0.6476222627950673,0.7629756174627015,0.48784612335676897,0.7658318375773474,0.05775178742129327,0.6399344648989049,-0.08390582145462938,0.565721300794273,-0.3625571347433895,0.82680102812113,-0.9144491692162949,0.49758949549216647,-0.3962419358370714,-0.9464344445722632,-0.5000383212558339,0.859990222267813,-0.7022300920191363,-0.18769610906266004,-0.7677628220767588,0.18143109877217742,0.5519752757746464,0.24799549980829694,0.5836986335820272,0.8515946942696365,-0.2512926185020666,-0.6708980293050095,0.6123584195112737,0.44755638430599914,-0.7564911574512977,-0.4348427920870539,-0.16773733658003104,-0.7664352130608284,-0.5366898167420293,-0.9568578045387285,-0.7014735162213916,-0.878176409598439,0.49619079077944916,0.3352037824494601,-0.24313691298652357,-0.31196267674791406,-0.9765296064267172,-0.06197887022967323,0.5283968913969492,-0.2354781680768439,0.02180772510829807,-0.9886980905056209,-0.12244750591927737,0.6364716805259298,-0.8879542021308721,0.36153677226606273,0.7048248272497143,0.20062806570438485,0.9344923613424534,-0.6456728994921268,-0.41488245653168404,0.5919586003701408,-1.0108117791701121,-0.5690605102636407,0.10848664100831208,0.21154306739125506,-0.4434905092952487,0.9733761963542013,0.6338836751856456,0.6220807072497547,-0.9089848437266274,-0.0003969818620787682,-0.13587982608063567,0.6225283451160204,0.6217086524326662,-0.8962994017800399,-0.09400384241109909,-0.17130464250359453,0.011389547777554115,-0.22703270244846052,0.5699381684346366,0.47872446840092603,-0.07675727077328773,-0.12036068415223032,-0.22627032420564439,0.7505422919786308,0.29563498871839455,0.22738058890555948,-0.24295392742063854,-0.7005368493071423,0.9120702110699925,-0.5753444242043043,-0.8109908281742632,-0.3583387717069587,0.8646722941740342,-0.838133872442822,-0.4575597681964525,0.1412917827050087,-0.23443875549391724,0.19585823011383094,-0.3334227023431371,-0.36389151693984056,0.6292384164241263,-0.234733115369637,0.2780796404665829,0.5974183917116993,-0.38050445213497697,-0.8328586636014346,0.839131140459051,0.8989686252261382,0.9440994022419212,0.8929683200136294,-0.889333922932608,0.8713312678884356,-0.6780191617147094,-0.8392943375373053,0.04541251676455149,0.43999762527450026,0.2233461290743849,0.6331061030235566,0.15865190903439505,-0.011616503078144989,0.948576915786326,-0.45214320720608675,-0.4658696694446034,0.5350865605438602,-0.8278714056508412,-0.8169302761109816,0.36815338813962645,-0.6406784780718519,0.4133316150953684,-0.7762253467246926,0.08881028338843623,-0.07808094693134775,-0.2438218981624415,-0.9517721153266302,-0.4753051549233768,0.3691656814860609,0.893736928257025,-0.20482396578042578,0.9259140390247116,0.3617251401745622,0.8633102836646989,-0.04637264819884687,-0.3079855192798512,0.36335583315076364,-0.9070183384339027,-0.9654401689531832,-0.3837389161998488,-0.6578528926888202,-0.9679709832572984,0.9950274814423656,0.9903411916984188,0.3739425374798202,-0.7171760898294921,-0.7760234773209486,-0.07625361384573541,-0.9224426329501985,-0.08598715409582999,-0.7153517959945235,-0.16176113433133774,0.46773865394630176,-0.21183532163863172,-0.5433948939017791,-0.06851969887514589,0.07471104624347055,0.006796546420510177,-0.9179448579445308,-0.13847370121716568,0.5422338043399607,0.8743531387915874,-0.38057105320245577,-0.34674337426995616,-0.15825408494825915,0.7322966663945356,-0.5429703191430237,-0.46471766368837175,-0.8249748228565168,-0.3460481695188057,0.7689334046582189,-0.852845040074004,0.44958240650491277,0.017231741377599974,-0.3581068528917028,-0.10564608919874939,0.7194794350404988,-0.944892609068833,0.02177494900781052,0.24103430670575424,-0.2253095812656133,-0.8852717452918397,0.5803281606810995,-0.7002753133849696,0.5010726041646156,0.5058676771633935,0.9698941732454299,0.35915880409895673,0.5972405578272534,0.16708481171594342,0.41068312563870374,-0.6405879435155136,0.5481984714005421,-0.9039870505382811,-0.3099969317440965,0.11875224926720403,-0.36979577376392225,0.6646020789945678,-0.44539149135506667,-0.6018699099090954,0.5867988458735693,-0.8603079542198606,-0.5461070106734079,-0.23469240805309607,0.4881460306949693,0.25910145705676196,0.23476022830420756,0.9581878565490578,0.043888554428391506,0.8596590097242282,0.3737929588575155,0.8465736203754847,-0.5277801472799837,-0.5417029204146864,0.6102074463634701,-0.2867654960844057,0.29145457200133185,-0.891192075551451,-0.8780752997879289,0.4553407173438771,-0.8650786623265578,-0.9789502776699296,0.2013805720571147,-0.8853277004450117,-0.3709889988659446,0.4219902803998243,0.5335963072816492,0.4366983824224495,-0.5371243277745261,0.995305884383265,-0.6778066331592112,0.1875711795562661,-0.9527116912753782,-0.6257095120474587,0.3567122984376151,0.9685433977432474,0.5479789179579264,-0.18641929023063294,0.3507215513426237,-0.055169725846410306,0.8165262939360425,0.9864977288912016,0.8132481432056651,0.2762445412029926,0.8825248000343736,-0.7660196258110089,0.5999048611080574,0.8954737315169579,0.29662725305847837,0.2441951074130112,-0.31753978835932967,-0.6907415098121512,-0.5260777313106874,0.9963790139360076,-0.13766630249759793,0.21629239085671248,-0.6602063489202381,-0.6475158652200301,-0.5323523900168006,-0.9837899013984384,0.057370116681981914,-0.7622510267499999,-0.37513103344084375,-0.8542882796985926,-0.660915258208161,-0.8203246758173734,0.12753657067060942,-0.5034041022814606,0.06047083532059264,-0.1617710406649394,-0.9126933918914443,-0.15655340822194458,0.35592850533343545,-0.7422039815149303,-0.0678891142635887,-0.6722382836675124,-0.361596297249152,-0.29363013338588756,0.7476227994186478,0.9176257706125712,-0.7252118495166258,-0.6176166770418932,-0.09689512823631263,0.7053939338198854],[0.48374344802032,-0.959361938226662,-0.1404321576741956,0.47623678273736303,0.7583504206369751,0.35841248931195757,0.202962358523457,0.6272957067194178,0.4248075483542584,-0.8700331537625363,-0.7393191981846958,0.21581212652606396,0.24869048412600636,-0.20877351798125762,-0.17328868500011696,0.1830693743656937,-0.970721486023101,-0.6551078027529824,-0.4918798370634425,0.8947562274117908,0.03956275304321988,-0.4351267219944255,-0.4116851034918678,0.21250953544088436,-0.04909642619450327,0.03697857842578767,-0.30650934038316624,0.7270648492845404,-0.4463041396376175,-0.6106170023814581,0.6253213053657882,-0.11478839761127979,0.8483240283954001,-0.7092007122150812,0.6023711230298437,-0.9276719610807281,-0.4605441991067447,-0.5756340374715835,-0.682603529720798,-0.029379978801410217,0.923063285957523,-0.09377822997924268,0.781406542197535,0.6454542716829629,0.7461400442567946,0.6174514185165119,0.38942676454102265,-0.5444679345217023,-0.6480035548563294,0.8086257584228154,0.9511684203005784,-0.5144454190734469,-0.3872765209621756,0.6258186402953374,0.9285002729675047,0.35332788152302674,-0.2678246439063505,-0.8568301472216926,0.6956984018035692,0.6265802638824205,-0.13669392531026558,0.8430812916495029,-0.42721930269305114,-0.6505164123206765,-0.5881580926903758,-0.6990764462692265,-0.7045302458140338,-0.799491253894295,0.4957710656488024,0.7419470032659229,-0.27148244471526384,-0.2867960541517506,-0.7093824524948716,0.12302373555883715,0.22139945823974963,-0.7228774147418875,0.32826541876896326,-0.8207286364850397,-0.4144879548082153,-0.8218583091595384,0.7292486270880153,-0.3830653410016484,0.7314420473305074,0.6835821310447234,0.1935948302553987,0.3135607015385573,0.9625441782779552,0.11135366398183245,-0.9458306251215676,0.7958206560525292,0.13818757836946968,0.2292800256837871,-0.9843681948592916,-0.35003629413537507,-0.3235988500126331,0.44901838911561076,-0.08987100164143437,0.8666222122384369,0.23425270912609103,-0.9388096996666132,-0.37147835114733824,-0.3027182451249289,-0.31457923402224236,-0.2639595390966843,0.593723703378657,0.6092418908378368,0.23623005247450615,-0.1401135806631431,0.40004769145694924,-0.5941426447155853,0.4133050101480132,0.9091485621661217,0.16263194793724622,-0.45766969966369153,0.9739079892021848,-0.9282188986478411,-0.915365188136034,0.9501179720179618,-0.5758082389556237,-0.6592434331830281,-0.6525110374299459,-0.4287534925573779,-0.7632138869338472,0.6841732198152262,0.5704210894716847,0.33332000593651906,-0.594614838521302,-0.3671334857881854,-0.7552668338561406,-0.8001388931103851,-0.9261631274036247,-0.3869008658653575,0.7875569816134331,0.5619900323725383,0.4004338767830418,0.758493142577796,-0.37879709635538883,-0.20655848817642383,-0.0004611676222056908,-0.6587781442182679,0.06497332089062047,-0.021923572938565616,-0.5313986091416887,0.9174528468197846,-0.8333630159649095,-0.33520607865363955,0.03421126448755052,0.5113732931233207,0.6285760407005971,0.603647089825681,0.7219290493973196,-0.5293121636424546,-0.05020201181738013,0.9198984060698603,0.8885783550748746,0.7093477328941767,-0.16389438229527156,0.2934741763589674,-0.21243124791182613,-0.3259816486280225,0.23197075182759527,0.021567490110686555,-0.3958852769977241,0.05365310428327056,-0.5680151297460648,-0.647108041958044,0.7990486987452462,0.13110809344457106,-0.1330942882510131,0.5349345749858108,-0.38326284837681907,0.3807570006657954,-0.2930196236531848,-0.7111204180914309,0.4950997801170444,-0.3717186336402828,0.14726587312561723,-0.8262187616039443,0.6893299803002173,0.9344976964309345,-0.6112294563790662,1.0016481006748508,0.27848198794496354,0.07186715340243431,-0.08931799566158717,-0.5415150170751263,0.522574917388265,0.04301977028997662,0.3856669097115486,-0.4450966676274622,0.506295988993843,-0.8133497860040929,0.6164677374800535,0.42354446887167335,0.6483253879500882,0.014153316327575164,-0.06134053024119179,0.7917041729333932,0.5437933353497247,-0.27203323282685654,-0.5183402427299455,-0.6649731661465175,0.6491813581025659,0.7284207172227645,0.08326301139678105,-0.42634221358095725,0.5615379790928499,-0.7530997534561039,-0.04890474932549483,0.0402377733116099,0.946525170090276,-0.53802166542264,-0.3438987427933004,0.2533480763927343,-0.6099038617519406,0.9383764303872925,0.631132492289308,0.8977544429434774,0.7683740585217097,-0.5174731434486988,0.24901514665539012,0.14345558541059214,0.1274143204768911,-0.036142778972823135,-0.2775015445349691,-0.8287300220250642,0.5985759078104779,0.4004811107881508,-0.15650604462337736,0.6706582097250128,-0.8388088472920822,0.5552795347346867,0.17680674610731922,0.10644516796296684,-0.4825641918232345,-0.015631922406476702,0.9117540242988438,0.6857446981919643,-0.4036141451393235,0.6032652848506896,-0.14058533068393986,0.6914303062247492,0.42039602943110244,0.28149146194807645,0.4753524661490786,0.3101527236413418,-0.7832636482127417,0.9455644956655124,0.687138890418469,0.4342612454876066,0.5388753842712951,0.42877775777443056,-0.7040692074536323,-0.259697233077223,-0.28400432130293773,0.1114136301114919,-0.3494859800977718,-0.6764641750362882,0.5566070606849226,0.2721488258268553,-0.5921163208049527,-0.19240323451516148,-0.8649802344426928,0.41376014355595786,-0.7752031500274221,-0.5562190784051956,0.43481407249858284,-0.4302369881837978,0.6511387212715898,-0.8255128786290463,0.7898074837980934,-0.16473091627233957,-0.5991667047630984,0.6356192682148017,-0.2697240162156741,-0.3610806078508117,0.8957416589484158,-0.21802713828407894,1.002536324580469,0.9941593379120006,-0.4692427781823704,-0.7746774011355497,-0.5326670444498497,0.649442902197245,-0.6611375822259934,0.19263249222014028,1.0319281923743446,0.6825071108558768,0.25159066176048595,-0.8424106179237716,-0.42574617193944186,0.3621924121159356,-0.9828388886397924,0.16175229506055674,0.9880755008851874,0.8480341641995609,0.8563000061301007,0.7812690385220384,1.0446746637826438,-0.4201235676389355,-0.7078211619169823,-0.6290863637398482,-0.07350056185434159,-0.47414969498576026,-0.09166145241304735,0.876062301471958,0.7125356269930623,0.5445861952085731,0.06533809715843984,-0.715202309739449,0.9076869267553593,0.21185001869990217,0.9941392095410432,0.5338933575913157,-0.8053786091352941,-0.04594907690691344,-0.2565273579297083,-0.02221256955959544,0.5842137508578117,-0.14483942889611656,0.5453202942768631,0.1374629839353679,-0.48224044623449,-0.33902436757526155,0.7611953919829593,-0.8453177621477889,0.6105669628413785,-0.9055518470189327,0.5116091097233888,-0.634504686954187,-0.2958381370774577,-0.4302377102183188,0.5511820145702817,-0.17546927475166751,-0.6852481302916734,0.6756042877180604,-0.7764665377307622,-0.5187408146298023,-0.19003262311984756,0.8935714311349422,-0.6872777248320674,-0.017367998255914476,-0.8874218508092613,-0.061454641414287754,-1.0509550227854114,0.3187194747586172,0.41557900150536137,-0.8507630281503907,-0.6807343534245309,-0.2365053295125346,-0.5382841418652519,-0.45550978156701055,-0.4327792318064362,-0.07031104713927826,-0.30593873389494153,0.5175875202918266,-0.030278491622204508,0.17029961178480912,0.09285047392829322,0.3690249406766228,-0.4471171413831143,0.3260301996677243,-0.5646159970218451,-0.4352322909497237,0.8289437817551609,-0.8232639773423267,-0.0941543933295311,0.4932950048517945,0.09823121197358914,0.18288822302622967,-0.3036015902433191,0.6280419155312449,-0.3607765952992854,-0.6198119892080838,0.7474588669636874,-0.9823182655653834,-0.37763352715398213,0.026326112128977203,0.22983378614751876,0.2032990848372151,-0.006377557060389413,-0.4296119410208108,0.6481680041979083,0.8054281042457841,0.08607265482608366,0.8489128379126756,-0.3534097311176206,0.49082120546272134,0.5580494672264391,-0.9053375342668265,-0.5927662582896837,0.35513291379574535,0.8039147698772521,-0.4172875276019345,0.7537425542878714,0.13985049542285594,-0.14064533881935987,-0.22490542139710032,-0.42669262158105226,-0.8084373848825512,-0.9224997477585294,-1.1241138028471733,0.46987051642732186,-0.3370364303087345,0.4262662853654803,-0.9662878931082933,0.7790194682942408,-0.8930730994951861,-0.0664181095110422,-0.03449691308497946,0.06559127644356268,0.6804294616386308,0.28457923782951955,0.5957928846089405,-0.21671476754948274,-0.2884674027751325,-0.21959959275746138,-0.5774664460534118,-0.8101230970696555,0.8693538970821819,0.09356251465523925,-0.13151766546986055,-0.5254826370700931,0.35528494728600446,0.2459693205378819,-0.5825569838466031,0.8618266617694872,-0.1107731456891127,0.19039181244256387,-0.16095764512061503,-0.49572987199170204,-1.0366515148599693,0.3736290721456175,-0.7673373615192258,-0.16631583520901988,0.9409754728798783,-0.2042117632444981,-0.7921745298216588,-0.5457710082008393,-0.9976477435124892,-0.8763179337079262,-0.30940773493190704,0.64485182785894,-0.39041316436591356,-0.13533469570152154,0.6315916011405138,-0.9837984932064195,-0.7050187410460567,0.6700038776219697,-0.55611238776423,0.5296721670767375,-0.2936080016168521,0.43034445319746306,0.39965747266160184,0.505666192567988,-0.6164349127787063,-0.2934641065808923,0.37284061265065965,-0.5589962414442321,0.19542437707634558,0.21984904349781312,0.7166823470086932,-0.6481045637653101,0.8199845169935297,-0.4256383416193645,0.8282777564579029,-0.9707586326237873,-0.9334985525960993,-0.14483566489641103,-0.4826854278629511,-0.6977525419375064,-0.760374375893685,0.11318302052293165,-0.4324898780707259,0.6525431881839984,0.7632849399882723,0.2769369049638435,-0.45787622285887136,0.7246160737194098,-0.07698779363144459,0.798588671852407,-0.6764970195624462,0.7315056258495064,-0.3711699882613075,-0.46438404690482965,-0.16021529798126152,0.2789283104175881,-0.9137195559536716,-0.5987634569021477,-0.8780410305128952,-0.9260626329616775,0.8778762720665056,-0.7559406496103437,0.6080770471167586,0.8894998720425173,-0.673729057438468,-0.15657214328914162,-0.4510342117837221,0.7687762116914326,0.2320686926023746,0.5821335269078471,0.5413298807892672,0.47387773274772793,0.9971303357980843,-0.4636092039972671,-0.26144928881104995,0.5362876347112346,-0.16857625076597352,-0.7780550116335706,-0.4058306230089053,-0.4599560166267002,0.7576932736199752,-0.008474170938068707,0.6355709618015629,0.5143107902896319,0.5708363565807979,0.34065974338298005,-0.05572203108246232,0.5286504237163813,-0.9726934043234892,0.24874828295850615,-0.6947889971139177,0.36577687304773526,0.32081841504809483,0.2301079915641132,0.562386560038055,0.019250097116227265,0.17151680543706588,0.49060168797652687,0.6569117235488996,0.7856062279638927,-0.21174805527479965,-0.12941886573457495,-0.26452962967670074,-0.7582473626762872,-0.017536044474163275,0.3969349154776975,0.33127481071618886,0.7965491669523433,0.1675979461160333,-0.9302655824495896,-0.06215717709742751,-0.49174580642899096,-0.41735473295679126,0.5511898621327058,-0.43263179857374057,0.6289960981450043,0.8079229534067137,0.7570089519642377,-0.006773432561759699,-0.7479439083278338,-0.5778742206752343,0.8598879147047591,0.657420721138614,0.7446340564002141,0.775566245266247,0.4907687746617632,0.8642725749387522,-0.6373159983626379,0.2933525347416733,-0.8034311360206501,-0.2521069478195598,-0.6032934725086064,-0.24197013923283966,0.2731785149455142,-0.20708170015094438,-0.5902815893422932,0.8166658378467586,-0.7915245310089535,0.8013265464042768,-0.8698343426187964,0.10523102271916755,0.5105238219764823,0.5933479101301495,-0.4532665272290626,-0.7308617245152906,0.6708093744239948,-0.23149775878990791,0.4474115542320702,-0.19115938729393034,0.9247911710245303,0.05154108112390887,-0.6010641285289662,-0.7857837311765139,0.4596443724927057,-0.6653131243021151,0.08015492291493123,-0.9647198209592742,0.14687549912329467,-0.23732445863084847,-0.2568906828946086,0.03085408653683133,0.3494030685810958,-0.3229542437302453,0.9470578896791316,0.0993604908045228,0.3821194749327259,0.9989587036551307,0.5303325334053834,0.9722458651662198,-0.5309369576000381,-0.3267588155764338,0.37117392611531874,0.6321528831714619,-1.0450267522574783,0.37359614002678415,-0.7586690547141463,-0.10403972069875222,0.7310486201739864,0.5591492368906676,0.04003354707459727,0.295768548460014,-0.3986664004786476,0.20451103095858306,-0.7298427770332466,-0.6125711101873934,0.5630972775879304,0.795823402671632,-0.9050704887891106,0.5722544639819023,0.47759553875163097,-0.24442668740660284,-0.7171315274479773,-0.10113837471844814,0.6567920566931907,0.12560720983313609,0.3690163987733064,0.668654297027784,0.2931041127411108,-0.09341215522535508,0.46313549061767334,0.41215992015107816,-0.5793052258269433,-0.5009417992867982,-0.26045952339447725,0.09307241539422709,-0.3518173708883245,0.6365812411931733,0.45064688811103043,0.9063756501243085,0.07698270512946737,0.9959296298492503,-0.5481431621044505,0.391947855027837,0.16778066615369758,-0.5860385711487557,-0.9588742887306855,-0.7185788866625514,0.7854548084626618,-0.5684032574863759,0.14706347939727507,-0.401024133083798,-0.4697812566851339,0.1698607575499735,0.37748008922743215,0.3206624933752053,0.08612399249850303,-0.3219428698995953,-0.3534806587258828,0.2950206339110231,0.9682437906102936,-0.36722498347607707,0.6642799205383251,0.07916343295877348,-0.7970373255820516,0.2619444235736874,0.5823601402729688,-0.6435734797287211,-0.8241382816858603,-0.9331237680755385,-0.8022966678403267,-0.2049266203744078,-0.9022777062390857,-0.563651207654905,0.5679208990076438,-0.8660778780548694,-0.7990697071225376,0.31754530531535335,-0.05448999995298856,-0.6853471780688932,-0.5341783227085516,-0.6536000823922145,-0.9300042999094295,-0.6706926518554381,-0.14521846790241005,0.34010296363791986,0.5465460824285139,0.8518850616953267,0.5189285545913719,-0.0033006641201859164,0.41781753814099465,-0.9569766006867878,-0.7593758975645025,-0.7491188683014559,-0.653610831079636,0.2900330625873737,0.6870235961572695,-0.662965640856459,-0.01930600798498103,-0.8304485651504692,0.9226810020945311,-0.29654938575028034,0.5349593433780457,0.7518297084761466,-0.27405357962481414,-0.8224995761464367,0.7445428368571582,-0.4707737721743857,-0.11950128542357256,0.14741023830112104,-0.8195743283161315,0.013117609921939888,-0.3284546619391408,-0.17615251849431116,0.21168197193870783,0.4265277095556357,-0.008285650974224072,-0.6368184837379385,0.6536781885128775,-0.5281277891117299,-0.13947831996942625,-0.7127174111757502,-0.2073484107940576,0.14672272383611157,0.9289767386617265,0.3467151311968625,-0.2064942369613,0.12438256121387203,0.44557412288022036,-0.21646992614120375,0.6867046455435379,0.8271415127662998,0.9427858306415772,0.1561324601975755,-0.673079529009955,0.6312802184381383,0.40033726727884034,0.5102886607035413,0.944668432360147,0.8130119185647466,0.6284839434840397,0.20890791132050096,0.5964739010913171,0.7612029191630779,0.4896296654653888,0.1493737210108925,-0.28009287741707695,-0.30069078768718904,0.3765517386519813,0.43756210626843267,-0.5800712972423494,0.2415801768411798,-0.537908670127509,0.7398835378427164,0.37166173198690045,0.5622553143834876,-0.05497167950710713,0.2834179655405773,-0.8026102129742028,0.8667014427022592,-0.6034894286274975,0.3197761301978593,-0.9616636944570471,-0.7554673384644253,0.4514713806375645,0.6173459592638942,0.059752481602446575,-0.743628679162855,0.7254571879867587,-0.9543542324064818,0.38338391882236683,-0.18881713954600915,0.3748500067221938,0.22877955271905104,0.37437491206538676,0.8437282484896365,-0.12563443179901554,0.7227041578709007,-0.05545296122345273,0.40237810462075396,-0.9231799219894063,-0.5032831376877946,-0.06967729205784501,-0.15685197391994787],[-0.6725925905015404,-0.6693991643069817,0.3799969433853225,0.4515233367904532,0.022601019171512693,0.9340471742974255,0.9288352761009975,0.6666183063988416,-0.7892827453926374,-0.6099689022827031,0.7184119083713072,-0.5102951929777286,-0.5443531437336614,0.7118194634269854,-0.4210818602360611,-0.442105570408617,0.43298879591590556,0.24892839380037923,-0.4586655069336798,0.5289478536084999,0.4987066324511007,-0.5976859786379869,0.1130859878149506,-0.3378203122244954,-0.524318718960255,0.74652665079079,0.6218758048085173,-0.4159058678628793,-0.5127139733918806,0.05499409473410388,0.7940102489340664,-0.19273232856144462,0.8861631039586539,0.7183597812335636,-0.33598084259621186,0.1477659334530262,0.0512296833330636,0.02647530337309925,0.10590702006404391,0.3946732350395857,-0.346491074623136,0.49030935312520246,-0.059275433823890535,0.6452495118004007,-0.07386248290997831,0.38357591734232477,0.3855338459960536,-0.19207420557874724,-0.82240096746525,0.9411664149641252,-0.1772305631479529,0.08285647751264627,-0.6864803321844111,-0.028199703566581302,0.8768629175601084,0.024480834125128137,0.9192522826672009,-0.17017790977990455,0.8844684201016864,-0.5598665146686685,-0.4606947147329143,-0.34841159346659434,-0.704135988641756,-0.9504628717107086,-0.4249209143299759,0.6601900739265111,-0.6470313128572989,-0.0756293922065728,-0.25587968257956345,0.7265352125759674,-0.6820150134359658,0.7945576685931447,0.41925548924062145,-0.23317931998544383,0.7524676663870979,0.12310692569494455,-0.59559097336786,0.03820337383457785,0.5486866255012238,-0.7482106317412797,0.5727843191635158,-0.9868550008045447,0.37563621338112796,0.052521995280440326,-0.8638243304886029,0.6144572137345317,0.9452066878731891,0.4879330963779567,-0.32761173263174753,0.09976268654575723,0.3318322984720239,-0.19649177749743396,-0.3042834123622002,0.5529363134165786,0.22674055799301115,0.34144667518329647,-0.7846316840827138,0.6457705125803279,-0.8954375448793017,-0.47781135309733463,0.35141876967987695,-0.7426096292156051,-0.02367840796283465,0.20929053001472045,0.6246071470123601,-0.5124535679884223,-0.35348838909198727,0.07438667976821743,-0.3996861022493323,0.6433300192386102,-0.20380811978245256,-0.8899093328763943,0.17861580587121084,-0.522604072639048,0.7076113158652338,-0.8276683138161717,-0.2724787803269603,0.9410476190449089,0.677615905093431,-0.08564563485788108,0.7994985253903046,-0.5803019984865095,0.2244925604551834,0.5749990761552375,0.0842857568089999,-0.3265381192295944,0.4061228724795995,-0.06992014067101279,-0.7631412904274908,-0.4204722557165451,-0.025480663222539123,-0.853241222370789,0.8209107851705325,-0.3471420366421853,-0.47704703083302336,0.7124450052311155,0.09145741819644018,0.6963949718468139,0.8343133349762317,-0.7542008934761419,-0.4231346284807298,-0.6000806339424591,-0.19354454916235378,-0.09961974309570018,0.9434613197010651,0.7701263441595918,-0.018967531765145637,-0.3004262044803032,-0.5222630264412468,0.5505033769367579,-1.0815712019656836,-0.3129716599870807,0.04100536356681917,-0.33947473230530306,-0.8100764236154534,0.10342443485233457,0.8444615646137468,0.5044376285908124,-0.262017345324128,-0.2907135539741552,-0.38976597002547336,-0.37656837790931397,-0.8752194781940587,0.8086075619736645,0.03269377105463412,0.6652849183550535,0.9458227531276656,0.5561417302830044,0.7883736744673921,0.7592796710951322,0.6182248969888577,0.20340608677369237,-0.8304658066857648,0.6867869403958251,0.09034992953281552,-0.47811034056678603,0.1160042569900971,0.4116891064321423,-0.4433733646234279,0.8818549126986668,0.24104052414952332,0.5853175991864146,0.9106735780910032,-0.9275583809518955,0.20848170670597865,0.3683419931811114,-0.5066809429714546,0.912397444558449,-0.796033841740639,-0.10980451615030919,-0.8892078068637977,0.32243252327910327,-0.024820552013921818,-0.03861227401790655,0.0990009710200877,0.5807521324182247,-0.8029920161900961,0.7867352463364393,-0.7435399787586127,0.896194979876402,-0.37434260063611363,0.6596956442592395,-0.23618749836567232,-0.429630291353205,-0.4678562221324317,0.2759918236981388,0.64435700078406,-0.6833848567333389,0.5264693874210414,-0.8294556768062448,-0.5488688270173959,-0.16499532643363432,-0.6913884485855581,0.112747601896013,-0.8476359567390818,0.7406887029545804,0.36886951919981326,-0.7679961507941424,0.7661884153742926,-0.17728849631921068,0.023255239684607198,0.47805756966890206,-0.9070763428973825,-0.1706769285483025,0.9710151230116035,-0.25699467489694294,-0.2670980074555543,-0.6761727350496562,-0.9011384360366405,-0.41486519780163084,-0.3283674329100979,-0.8259924319653984,-0.4486943400809673,-0.5010282110520651,-0.7875643640491566,0.7685433575645719,0.7594401969481783,-0.5366972854529296,-0.3384036768463739,-0.243085184923028,-0.3111611478112311,-0.11719104003643739,-0.6297405045074925,0.40021601064769946,0.8557791883329351,-0.45288125632505866,0.7598402703324021,-0.10886882431037767,-0.7083493845540213,-0.8388906770217481,0.7149869265770323,-0.7987613248315202,-0.03887755316182696,-0.028631941093715,-0.06366894500148329,0.37205695417115864,-0.5361505450943759,1.0213912222896868,0.5230474760927324,0.6180709946122523,-0.9225799205986042,0.8218694858716482,-0.974139783989507,-0.7025293862495977,-0.15614058886596696,-0.2620710959980781,0.7858638005342653,0.27241976822363356,0.7429583729518964,0.7537645895267479,0.23111034924492352,-0.4133140824292802,0.5547745323915781,-0.4200435077978922,-0.09220532875683954,0.6145392505331299,-0.38166271666626794,0.07987877446917091,0.20251757291793923,0.12843905406248585,-0.48878329010717014,0.5260851566166871,0.5677603983998096,-0.20343723841656178,0.07321359381448311,0.6094572531187542,0.5255959119737359,0.2698396316953172,-0.44806454116819255,0.014088688188649272,0.8754983458886738,0.9747893799670132,-0.23780722797732387,0.5149267729054008,-0.04916727790195519,0.7934659812721742,-0.5622204116483398,0.8945374624420687,-0.6467300764020879,0.40795078527279194,-0.05276590255356346,-0.8766738918524536,0.43956665995096944,0.46223529070720093,0.8348432201672156,0.5428110460057821,-0.12159194010615992,-0.5746795920630876,-0.050589161870313475,-0.730262428401094,0.8328559094994615,0.6315182873254501,-0.2943388188727454,0.2142362177403234,0.24572979539717893,-0.12967343295656908,0.8936418624802829,0.3585090031092571,-0.7726991881945688,0.2275896420745074,1.0343428709452296,-0.3009303923112903,0.12465516787067608,-0.06936062795257984,0.6066906296361433,-0.3936108045644307,0.9369579812332991,0.09021766888779051,-0.6702244895897576,1.010185711250268,0.42142938193184415,0.1070891474502432,-0.4517470369061081,0.481206289105438,0.40385906400924787,0.5838255112346278,-0.8733030375173738,-0.4496235864676431,0.6037875002497,-0.00381385857351633,-0.23445934054231019,-0.9440145017983187,-0.979107270152205,0.6883214171158191,0.7174604853486525,0.7756615783164545,0.6062186058439931,-0.5241956564138689,-0.3699401353196414,0.8160282230876574,0.5316500305043537,-0.02813581320519763,-0.19390248081892555,0.9219394974812217,0.11903505803743115,-0.6273488705543511,-0.12101131929740404,0.29239626810012864,0.5076232037506235,0.4079360217726629,-0.9600705461653128,0.7102310434932265,-0.5843378735796901,-0.9242033233733894,-0.36122824389964436,-0.39054625555066047,-0.06424742763534992,-0.6340242595945752,0.6671968753790818,-0.35618609199392953,-0.39340101109519476,0.6655889358169015,-0.006867212639502944,-0.5186052421040265,-0.6384366986687344,0.6706593503580531,-0.7181844164535488,-0.026358522510382617,1.023802946462452,-0.7356614911338303,-0.11969712545398516,0.7859011971543899,-0.03800819499920187,0.5228609673271624,-0.3154192352624316,-0.4165833335686966,-0.8035976575950434,0.21193618168833211,-0.2520867263327365,-0.012412905406501884,-0.4516974314577679,0.707920388376019,0.48817942125798597,-0.1972215956603134,0.29179039116769384,0.3938023581314912,-0.24594099518165627,-0.03381293318888678,-0.5992749093739335,0.13553002419853122,-0.93703131411391,-0.9235407654736176,-0.923750122825969,0.5335493670195285,0.619065020486184,0.2820081981132815,0.5450724680918227,0.7781301253478099,-0.7227147632221954,0.01630633945738789,0.2826123493196546,0.16078884110882327,0.38774316151906174,0.7249740789225941,0.9424428210525857,-0.8084615002964385,0.48614176416498295,0.40880690203786335,0.5262805914778373,0.6918461267575382,-0.12360894312720232,0.12583720919091257,-0.8970148909315688,-0.951529468820053,-0.16889208669631178,0.27274812303907536,-0.023295351395290948,-0.43646318747458374,0.08356854445253778,0.6696509548238541,-0.8889339581724831,0.4922511401802386,0.6688793808815052,0.1911386749564643,0.37342821815489335,0.7549706131452303,0.43791628552611167,-0.8124505378760895,1.0176696871101638,-0.7767501979756272,0.8327649576946093,-0.831600274414504,0.012944820645248153,-0.2111950090963601,0.16592424939729758,0.7575656727169247,0.8856149289988762,-0.9057117171996769,-0.6833033958112309,-0.6783773728576745,0.8588569014805851,0.6409376404241339,0.28473441809633254,0.7083764124949221,-0.5436403027560527,0.5983772872914035,-0.5397407722118984,-0.9209109801006445,0.3993037582671983,-1.0895188015580242,-0.3216195791247049,0.5425469220235324,0.7338261972234865,0.13301631899872746,-0.898226563621437,-0.650042849850875,-0.2616179630017792,0.0755293194915426,0.4282157854037051,0.2604167860677344,0.35502032894894,-0.9680465423367892,-0.7981065511157741,-0.6163228315467854,0.9138298161793685,0.5433617127135737,0.7412495448101373,-0.45800782976917753,0.6756922090835096,0.9899809919216025,0.059477200257108453,0.5536368911722668,0.04344393988212426,-0.6448014386142076,-0.0830990651576589,-0.4989494555561576,-0.511531785272121,-0.2026467221699435,0.8772355531982114,-0.6431622854930957,0.8007561548129023,-0.8944777630638628,0.34204797785988145,0.4625526081758636,-0.4598374435630561,-0.570873113392996,-0.45276643141187567,0.621179447473013,0.2713003424493269,0.36483828659442336,0.7801271777001431,0.6729968442147103,-0.11861315777600452,0.0974371661186693,-0.6817979110060784,-0.28377330696432485,-0.5388478528051476,0.33486843698912067,0.4832862839054681,0.0015303065512625217,0.9477530866395087,-0.1721978301952389,-0.13880074700884554,0.10074712768318413,-0.11101063287953736,-0.7427159943670884,-0.13517737743803432,-0.40388082668391057,-0.0015252158039870956,0.10033139042350121,-0.8860587925098162,-0.09225020308587249,0.24352998020113753,0.7517353242717264,-1.0223967416047748,-0.7031092191261827,-0.22205494833218767,0.23483971990931446,-0.5534481551571762,0.5416879503385302,0.025956518060167477,0.11897921990600321,-0.004612814822863243,0.6167430242682675,-0.4626895639985003,-0.23984122853303325,0.40729380851282826,-0.6477088349106974,-0.1297644036562549,0.2192478494243379,0.16677305708513515,-1.0716778099584996,0.6244820923728029,-1.0671894250341922,-0.8067779404889416,0.29286771456184496,-0.9257100928254531,-0.4999741954634789,0.4694645599825653,-0.043774953199402854,0.1601908422392652,-0.8299768769053453,-1.040667325156874,-0.3275594459444077,-0.2373521884654495,0.4235552475671159,0.8033826882627216,-0.9880804229976781,0.1649306063488621,0.3022652902920945,-0.49798239456942195,-0.8395618491776946,-0.7264225033440584,0.010672711415941795,-0.4869833007899615,0.6900216732697537,-0.21585089222815976,-0.37304601155428213,-0.7909015363483886,-0.12056716352755273,-0.8776513360339253,-0.34734399715609426,0.6926630450206599,-0.6604661790640824,-0.8424763100918553,0.5240377802701398,-0.7654242869017797,-0.9142519879029886,0.3411261469527666,0.8538362291279333,-0.8418446918936985,-0.6318908731599959,0.5853737948154736,-0.7348808423590647,-0.8364761707296946,0.3160073307923484,0.6435390604688216,-0.5714882667690361,0.5162760472433842,0.7110093796020748,-0.43640514863206953,-0.9581049271780082,-0.8165742660497556,0.14723326796797948,0.6937639492923444,0.7542348166798836,-0.7823861449379476,0.2424712905412793,0.00674761951050696,-0.6538497759749009,0.1770121429915744,0.7117661649589645,0.16900630286950502,0.6062642259481418,0.6894508426594327,-0.8879719653237728,0.5668975042984459,-0.829509523785745,-0.5829426874668886,0.7179628868438951,-0.8775136550777867,0.6652106850749048,0.011955414294204346,0.17982728883513902,-0.7277331757536513,0.805387096744623,0.6969007503933493,0.5698841118270418,0.0744387183232706,0.2762089581540237,0.581805190553063,0.19445296025298078,-0.2979541268470867,-0.9612992704198896,0.9821045442954143,0.17233142091325582,0.15957260873084,0.29478976537034296,-0.9013317830576348,0.544198229054159,0.03388877211999753,-0.7233729124649835,1.0227545274772223,-0.2595223893511128,-0.04760271434188634,-0.9376698927438594,-0.7508055420348286,0.3571066392429514,0.09142529536524009,-0.6325972055661728,-0.8871267594284552,-0.7790985326677277,-0.012589673616853838,-0.7202903611459535,-0.8301188274571407,-0.09054034752586437,-0.27192830312991634,0.9307715579416281,0.9149855147889059,-0.9388991248220107,-0.42046934737319586,0.9810155140429999,-0.09628968635567231,0.914784990274811,0.9165033234017486,0.04685397061039463,0.23255243713420448,-0.8204829539782647,0.38301764490708284,-0.14689833805915517,0.9678097118373994,-0.03618970151486211,-1.001794668370415,-0.6125299540700249,-0.40140302174627873,0.05303221424168468,0.4855860693066958,-0.4475825906646281,0.4209522795615298,-0.21761223324037782,0.8098760671864436,-0.5274916294747536,0.8016598795093519,-0.7584086022835699,-0.18442497666012214,0.8066093720686547,-0.2683707513485285,0.44085649273557775,0.9383789562711711,0.2703694635844218,0.8713334304146348,0.6208324137676211,0.15875238504891506,-0.004540704889558259,0.9032797460143669,-0.12089883818846855,0.23221236073688994,0.37580226918106224,0.6918374577548677,-0.7590023396285097,-0.6142337807673341,0.2175309049333685,0.1869030550006207,-0.19195385106789573,0.3412000372108254,-0.2150043042277245,-0.16265464950564557,-0.8002385593059302,-0.6251518710692003,-0.0336996741463782,0.9247123580385983,0.5928507503760665,0.9679841352545332,0.4362739853250541,-0.5841251386956023,0.07533261466887413,0.5177116772756569,0.1760576777805258,-0.49025325451948365,0.9375976606679228,0.31592149214974374,0.5622460942367349,-0.5457015136302126,-0.5495873510559297,-0.41374567327006695,0.195308086598319,0.049807352444416794,0.8336182736416382,0.4264156071609277,0.8331921778924634,-0.5917118560088316,-0.4460209470335577,0.09192656338033905,0.5986150495499578,0.23623652814245516,0.3035342246276003,0.428543192357513,-0.4774569692113113,-0.05612932438079543,-0.028823548469770977,-0.6216153605431365,-0.3822489029954446,0.9391507833152596,-0.9258470239341849,-0.9521145119471418,-0.9707322358618593,0.3537863303295505,0.9710829390447276,-0.21671392715101556,-0.14047133711903811,0.6728497018158317,0.5053498771320855,-0.7759083562362233,-0.28056913522606824,0.32037289794052165,0.6612781811336547,0.8700925599047381,-0.03585747853129028,0.9810647663005794,-0.0561841160206416,-0.13603302138751783,0.7924825972725177,-0.37237598700648605,0.6888035359545484,0.6332829831655973,0.7740509306959367,0.24072877764173528,-0.14704607342155773,-0.608457146315216,-0.6302520182207045,0.41617480674948154,-0.3013668483536899,0.685211180936706,0.8046571736784326,0.6615570624305631,-0.8982643365883304,0.40119854662952986,0.9754936137440381,0.22580943452614174,0.4203362806969898,0.4390290050608586,-0.1433031953989797,0.05758876982918,-0.6587723890764062,0.0338683227523247,-0.5279973193429848,-0.944433261338494,-0.8489032087205748,0.6607604923434391,0.9478927241382915,-0.5985250187615194,0.3881806094160485,-0.10111953154165043,-0.6288173374344197],[0.30453363105810016,-0.6347597020027602,-0.346904311670595,-0.03908085110091042,0.18999688440090434,-0.7793214334452632,0.7908125830289578,0.5682852731389385,0.6701974797101062,-0.3309134758884009,-0.17020370591801903,-0.8710519829068804,-0.07295065191110225,0.4530542673355837,-0.533405791100225,-0.013184789535834796,-0.18950220729708622,-0.2653109356912209,0.9719016010184238,-0.13034563023558743,-0.596630662133026,0.9783536510506381,0.927889399573715,-0.1626216463606882,0.20744538996948325,0.8205728760597713,0.6780673612949291,-0.3280383555660298,-0.08519006724233691,0.13371150384704977,-0.6579833479980666,0.48859739705323424,-0.4272795058650072,-0.687544628765723,0.5555685359967281,-0.6326774874234508,-0.30929953688852463,-0.7740080684258437,-0.19683468177732386,0.9370920051135357,-0.42833948084812423,0.11852465075596064,0.29626409011783844,0.3369409717995665,-0.6177486344883704,0.5460758216019498,-0.934598726662658,-0.37232426316816364,-0.14045332103716301,0.0820832908786205,0.755507044998709,0.20900326040355818,0.6254078545379347,0.12998672801311262,0.8254496241217986,0.8611110664930584,-0.2621945497781266,-0.9708855860414078,-0.3377604400228744,-0.09978434046140361,-0.37499677101317597,-0.18000927124038427,-0.06458443741474407,-0.6338239395156727,-0.46608342424950355,-0.3028659328613115,-0.24200619532542236,0.6812585117228414,-0.3779202492854065,0.735838147323932,-0.16655595912533572,0.13540737071307088,0.8846468842069953,-0.03455555192138023,-0.8334216776279105,0.8716102066964173,0.31429047191754117,0.9578380520031154,0.7071005210960433,0.3641580666612607,0.3663368728400445,-0.5328179679317744,-0.8698142714502204,-0.3074342126572267,0.88825314654401,-0.10565713473535876,0.38553345119563126,-0.930521039611532,0.5698872781607547,-0.21859354172721773,0.4261477436122334,0.6876753432546803,0.0551059681833063,-0.25771153426650695,0.5149263311849179,0.4267773885298187,0.48610790130563514,-0.5361805780802729,-0.9261709706515757,0.9071832248591004,-0.41831612052024253,0.7650216914169315,0.6326660697018696,0.49140516715104576,-0.07674640269862003,0.7697619048339323,-0.8970397291386424,-0.7043148841990146,0.6592475835599305,0.5923607838633977,0.3909509011109137,0.028286928483711282,0.2920638518189578,0.03540817131915874,0.22341124906955148,-0.44110413480511895,0.5724245154479916,-0.8257494900498018,0.3274200092234281,0.7736087646638317,0.5815533712796037,0.21275473620489285,0.668919784256826,0.8151640431121157,-0.7811288610007695,0.7476051022948038,-0.3118449704759032,-0.24864029891735187,-0.6069117637902418,0.24900494895363803,0.6769048597339696,0.7953385179237559,0.3112169241354492,0.48449561214371595,0.41043301260172804,0.9351446559752903,0.7134339573379723,0.09463140640424873,-0.9443133411145825,-0.4554646478702349,-0.4436607306242828,-0.9282169233001012,-0.5631884853377446,0.920094486696789,-0.7148401140884895,0.995883917016062,0.7821258593972814,-0.892778918367122,-0.8068197306178517,-0.05468503027437443,-0.556222801070392,1.0081334396552877,0.3106538585498394,-0.8378323606447323,-0.3687348385105588,0.57741464390021,-0.45049852508530164,-0.014425430970227878,-0.14283533943793023,-0.06173778702013444,-0.7418565913975662,0.964140956218528,0.06302056441991363,0.3203429018537731,-0.864196172539805,-0.035153048735631645,0.2932975735402736,-0.04667379461548197,-0.6422543654361044,0.9501849844812122,0.9128022780865275,-0.8295666174640162,0.4970033271416147,-0.3931723915755959,0.6194184107996333,0.44983304114349043,-0.7766504711047612,-0.49391496574914345,-0.36723860659664664,0.11395795574281486,0.1347171441753754,0.728920209206143,0.794339283443696,-0.8843780156745079,0.7146454726719051,0.42651012347432943,0.2015819292299299,-0.19101623654109715,0.6561841661094512,0.6931283112150665,-0.5037175069075871,-0.6953556625510492,-0.5358539703247563,0.3209117564590355,0.503136928324965,-0.7789272935132163,-0.17343098995713246,0.5315882228525479,0.24730330997510766,0.4306237628198792,0.1957392076271893,0.5687727472976862,-0.9168597847832894,-0.6471482230552109,0.08358080712103423,-0.4849907644548667,0.617708181148406,-0.15613195891200274,0.8841668575684662,-0.8684653913480505,0.3637730311917118,0.6252306950326213,0.5225930202562817,-0.3758664978276875,0.165456711505778,-0.6715162956542177,0.9953769227091144,-0.6022548541777668,0.8393333024115095,0.3981853436073996,-0.5349676335015514,0.8791411480098553,0.783682364986899,-0.5519070094468848,0.3659728642289517,0.8865154971457885,-0.29637209440139917,0.4030856145320564,-0.727839006252693,-0.4865365348566172,0.7836703303573851,0.8805283462166069,0.9000500971334247,-0.4970420006591902,0.8012339176353094,0.8775776347656385,0.45844576183485247,-0.9364682112718284,0.49635278224285845,-0.13912021997186766,0.6652868812075006,-0.23781494491360067,-0.6635294533604127,0.28788370681303516,0.11574246177522389,-0.5134177522122617,-0.5900633397947056,0.6732088358987143,-0.056183351536506096,0.47038286857512196,0.783457711023964,-0.144606565516853,0.06040770591308069,-0.92409114871162,-0.09466593110388417,-0.007264515146367792,0.9322455272535103,-0.06787082322650033,0.8156910980519426,0.60814486071421,-0.4169309553786381,-0.4070655043250704,0.027122169945378617,0.07963684576899505,-0.13475090487557498,-0.8438617153752906,0.5647671257105008,0.7315256201204148,-0.8746889439387281,0.8846537499415449,0.2608191857199103,-0.20938418445181314,-0.060822637220228806,-0.10324275561015588,-0.8981986953936818,0.8680302650275424,-0.26681617575744965,-0.8998492200210929,-0.5281721189342249,0.7160018901453369,-0.4680773811288329,0.20194707587169516,0.5574484435664953,0.5475073639667516,-0.2707194708600388,0.13731503529246558,-0.43421801565523066,0.015408202406148852,-0.07440191595597062,-0.7874283388325234,0.7308999613785571,-0.13441354734398883,-0.882816685193436,-0.3746069714583271,-1.0977968096640611,0.7997087139377478,0.4562759528947283,0.3378802669601449,-0.05540790434498358,-0.10554164227869736,-0.5662281725161424,0.4316831279033747,-0.008278046103423649,0.49660846592471564,-0.8876747937155312,-1.0146126180957507,-0.8140340879947878,0.8682316163690313,0.5148089797346274,-0.29666699465829377,-0.24797147063244784,-0.03864418619277238,-0.22493271488739916,0.5235676263215935,-0.8672006629882006,-0.48277707998600095,-0.31302524954222133,-0.6204811393135689,-0.8098874575025338,-0.6248895544511917,0.2965502679458335,-0.7617358405171373,-0.5012656156457672,-0.6326968611105969,-0.607085722575036,0.2398067115771063,0.156313063073884,-0.7993788060718584,0.360227048369763,0.6295293347709928,0.8581014932777302,-0.5056659735010705,0.18740841220910295,-0.5730447641467874,0.9062107936637882,-0.1863158479398043,-0.23827887336861628,0.5815992204950196,-0.23826927796339858,-0.6179559574556575,0.5201854563436007,0.19672869987173347,0.7662518045265141,0.19328788880962433,0.09921336580449767,0.4638852383237522,-0.8649328272846417,-0.5995890078962812,-0.6080461216440322,-0.11560507182231237,0.5940973837261246,-0.6410538565723355,0.7984515823734227,0.046108572769823296,-0.3540000957688908,-0.8344582734336139,-0.051063836122133464,-0.16502787240880207,0.14956458081634477,0.713167825835667,0.0022007667076373743,-0.11689069814711545,0.7278539706988658,-0.3045140270137853,0.5107911352689882,0.9214876920484271,0.9304080899472311,0.1804402649222056,0.34448895383205064,-0.19367939537849085,0.3817558496133847,0.4147740575595906,0.9248501305859693,0.5247981357180413,0.06815978517919563,-0.38888352060757614,-0.5237921308113143,-0.9889613740957712,-1.024613314437793,0.5134299087246336,-0.35902718548059037,-0.6317767528481851,-0.056837964187737594,-0.19191383568978373,-0.4295203031893641,-0.7954523760427904,0.641572582147707,-0.9233552402843154,-0.5810719838307431,-0.3199103132926482,0.565791771910878,-0.7977811097602998,-0.5578980620177857,0.45568989728598713,-0.024732777936244142,0.5085483282369812,-0.19851684393266536,-0.7106201642167876,0.1255002722075218,0.3344440521673963,0.8366925406620478,-0.23356793149531552,0.898282700216271,-0.9337625615914811,0.5563992373755481,0.341090333885401,-0.14070686415155242,0.3106932779271798,-0.09550451240573295,0.3541563371215748,-0.5307297809872255,0.3400852198581328,0.6576791065870494,0.4844388460876639,-0.7481007580449842,0.3200019792613032,0.47852904788656037,0.5592645647347905,-0.8711299323166303,-0.6311507538194245,0.992009045141589,0.5445588339834041,0.7827779131781782,0.600651789718173,0.6339204294496759,-0.13824689391164025,-0.1869023272715595,1.0786359888225296,-0.12470059627272008,0.46743188140114783,-0.4322407181071651,0.672721471439941,0.6746765289976794,-0.4891645039713132,0.11741210630361637,0.7243710480763768,-0.4586078491336554,0.6147454303645024,-0.44045468149475614,0.07569908921341637,0.8375662098953263,0.17138825923667514,0.07150168908309652,1.0013050574741842,0.6271261299633147,-0.8483352950963989,0.2761003429538903,0.16184922321084186,0.8654928581417201,-0.711253656862654,0.867336898129075,-0.6559100336205947,-0.32681511271442387,-0.4232474162647929,0.6281457473695948,-0.8980959714948,0.8525395419182765,-0.28011304060431347,0.45695387445996705,0.8684138828102038,-0.40634444836894323,0.8457302500407807,-0.9461474156294541,-0.14957138185402413,-0.02911349758731048,0.805291248133819,-0.5315077291177894,-0.5063191876778242,-0.33173935246199393,-0.3857910317260545,0.8621880113086523,1.0173952531855568,-0.5438468666478347,0.4474502984122837,-0.14793264019010582,-0.5669721939243305,0.5622624421823272,-0.14296830185778064,-0.37588369032071894,0.06922553067751391,-0.5370897952863568,-0.8909081911439338,0.5944893670549526,0.9363318454418696,-0.7937858975670832,0.22926135773650827,-0.6111335528549094,-0.09902029651521632,0.19058645013179645,-0.5369641655353589,0.3702693043128619,-0.7213294825152129,-0.10927322986866575,0.8758625426243613,0.35876193602648715,0.2505700232917786,-0.31179317473227647,0.8428493700844462,0.8548868750368219,-0.5192240470134811,0.09298114799795004,0.035135154123145766,-0.40896440883308416,0.22403734135647665,0.9440809973248614,-0.5810013706563701,-0.9639988840738533,0.2180462869372281,0.6396239929303962,0.7608937880244506,-0.5741785813203729,0.5556283378868871,0.4006041447689571,0.8480162281350935,-0.295812025123999,0.7402988795917326,0.9998285890623347,0.6987090403095454,0.3687592117428735,0.8792481363537444,-0.46699407128890397,0.8453982862712569,-0.5129160646634362,0.9765574226589818,-0.49855936855178107,0.1479445916819384,-0.5526632818538473,-0.3135023709810783,0.7622258424687335,0.8095809079427626,-0.15715399738820351,0.5321608349752864,0.5031994430417943,-0.9576310915155191,-0.24470693930852774,0.704445359174327,-0.5866943354966088,-0.7134926813401309,-0.45782145474618674,0.359959771735719,-0.8461831186495594,0.6930163517334444,0.2113157495259959,1.0189832768919096,0.7263098689640107,1.0024445250134961,-0.7000204019742077,-0.7001138718238221,-1.055709534388711,0.452724222741661,-0.7392533825470667,0.9530566328101671,-0.09327953979993218,-0.4815641088919521,0.05980013224137159,-0.2518933277851206,-0.9736951661662357,-0.46001828965035585,0.219650100889616,-0.26886746001721,-0.29324278584663643,-0.703519382572439,0.8341260682879257,-0.6111495553341197,-0.909118753067911,0.42704798894536655,-0.6391009186417668,-0.08780738221138555,0.013152216577626179,-0.760428570307427,-0.2938059578205689,-0.20548538931583768,-0.8574831383802304,-0.3499032100330198,0.269516233782404,-0.2646209073813853,-0.7211755233186123,-0.5107066606189928,0.3314649737402403,0.5747429658828823,-0.8111096437711931,-0.47660916593247726,0.684401682658649,-0.8004525889325383,0.6542729216540347,-0.4105535512571619,-0.6321859858048801,0.14143193020489303,-0.015821388397047234,-0.49275547555715454,0.027717016489823554,-0.4601996286796774,0.26744934242820523,0.8774250042493508,-0.3378017164544218,0.9165416822645075,-0.7578874602593546,-0.01744482260227777,0.7678851889904893,0.3933677014189566,0.15909245393424723,0.6502148468218379,0.2471927238376269,0.9191310178256723,-0.23461767078902757,-0.11649484358639926,-0.5035962971928729,-0.9159229364411097,-0.8030814912389833,0.5279964864131236,-0.03337531735665968,-0.6384103329441121,-0.6221398144300281,-0.5985185912855224,-0.29317513040291193,-0.6979839057026314,-0.46154313883116477,0.9800250328351696,-0.5126906291331935,-0.9070727878837724,-0.7635414179021476,-0.015616060384524939,-0.40847929704873864,-0.8988384077846177,0.8892154415145963,-0.1430147568219103,-0.8952381302409526,-0.3685849404584868,0.6356415395509326,-0.5026457031790589,-0.533331582656403,-0.12504651762218427,-0.8908694355563103,0.5990775235853351,0.921990763066875,0.9126767989509755,0.7369780677366442,-0.27439131073164685,0.8893048454310117,0.9218668853478917,-0.3552936842813292,-0.12116479500427907,0.43300404694126887,0.4455522281725841,0.618067921584402,-0.8363577398376592,-0.24630510800444125,-0.8511033691531241,-0.4465451467756919,0.8394973803360644,0.8090614956828933,-0.6971037693498935,-0.42871286768699984,-0.3949060004541429,0.6619010360480075,0.2171353082988562,-0.8725147904960306,-0.8122969343910837,0.7436789630557856,-0.66582370547516,0.8836667958648158,0.5363865871020216,-0.8956580980467609,-0.7657077501615878,-0.4918258378689301,0.2970394502098032,-0.3073119720742391,0.5622987794210097,0.2608384995841802,0.3767793241756376,-0.9976231821859377,0.8677833966363431,-0.8361172714279683,0.8382887995282515,0.9463563181280009,-0.6882337560280912,0.6814369856950189,0.21963036306971598,-0.9695870609453685,-0.8877356204690496,0.558015662651795,0.3727078719774971,-0.055653116632978145,0.8839854392727992,0.37657971327689627,-0.9529332281899959,0.6661163133293498,0.30547152923119014,0.8741657070575489,0.8489756203649556,-0.5880601500296306,0.5757518695859474,0.5314028686838155,0.9081018831964935,0.175728181174193,0.6918212356344502,-0.4392305602865281,0.8564499655328754,0.5756594363198346,-0.7324595394956646,0.6837685667776925,-0.7271457097089185,-0.9996060599780894,0.8739488741426588,-0.06044791943383974,0.2880664115124735,0.9061184599335572,0.7081780627599412,0.25878260623483307,0.16586501209020055,0.13753040361847327,0.8436509813027571,-0.36323442172624265,0.4763967178608652,-0.5268566293989224,-0.8544750063403235,0.7788696506707664,-0.5167552905887927,0.2481673903913905,0.7308415848573744,0.7883772093446656,-0.7967954849996131,0.1677423616655286,-0.7222801017322857,-0.5353246421226646,0.6715941375600502,0.8278534932063197,-0.8886491784312542,0.014027214129917365,0.09207868972727695,0.7208838074273882,0.8471188264870616,-0.15314183073341509,0.7723414448663007,0.4575750180382229,-0.5906255993171169,-0.043381989820662936,-0.39368037716280796,0.26995615660652905,0.2410517412000727,-0.8338586815066779,0.5015737383462036,0.5433700496450495,-0.056310362570928314,0.6209837164602495,0.13802812123292554,-0.5886740890529656,0.0029232181029654747,0.9893263122310346,0.43610248340352087,-0.5066941252228238,0.9533500847966822,0.13687963962832797,0.3495182461921349,0.7491094794624802,0.5559696447668432,-0.5465080414256716,-0.2995863812925994,0.49648329257552515,0.15507351416052195,-0.577715837030272,-0.9971777968469779,0.2331383821401649,-0.041127596871854244,-0.9599059476653328,0.09443405100525416,-0.09610793991729095,-0.08451182112044979,0.025337861751281963,0.014864365924404033,-0.8262027422079951,-0.5979698395580411,0.1593067272204999,0.12034973575167679,0.7591910842438396,-0.011811695107673999,0.46379643340004484,-0.49947301320804793,-0.9128892211333118,-0.6712843466611713,-0.6814305690197435,0.7147056699568566,0.12346446182454951,-0.7686375890199653],[0.013936776289503072,0.43792418050109827,0.2738970767617781,0.25217884338601415,-0.38581292532846145,-0.3828457294572756,-0.8362974928770113,-0.9236056024174846,0.22880041643709692,-0.6844537882806674,0.6182247344809477,0.1606598979083027,-0.8724677304109211,0.44642091682109586,-0.34653735642297745,0.8692226463749195,-0.8463388240873413,-0.1886528477048719,0.10702680960147459,-0.39827188158169813,-0.26546177389045367,-0.276089355665484,0.7869767901425626,-0.5387021274321118,0.2431929712800751,-0.9418021111326746,-0.25971990211555784,-0.4163946928392743,0.3278490877858782,-0.8927555242580776,0.20384293641494322,-0.9621287403094039,0.3137116943563898,-0.7417913545362183,0.1977781535860737,-0.9172142036242155,-0.9628238625911837,-0.9409192424226185,-0.8383903176283376,0.5712530330647888,0.8350047156834196,0.1372607379310965,-0.6881129601910806,0.7280959818802061,0.5597304095094435,-0.8810478709298402,-0.4426097630908453,-0.6798298855763907,0.43473058599499353,0.9316658398986725,-0.1031034028299845,0.6659210391332245,-0.7362772168458491,0.23247275616729768,-0.47220444720525734,0.5885009962186158,-0.9742602002153178,-0.2565527938192802,0.13077135092688508,-0.409244652801557,-0.6685997643095382,-0.6244283786672411,0.027434416638813262,0.19001363161258913,-0.9748840584048462,-0.06380478583786112,-0.2025269266256428,0.2930818292160615,0.944848035048995,-0.5156520203640083,-0.9090530485105639,0.7316648763344847,-0.2653876319475072,-0.9945286328162416,0.6703911043710954,-0.1921336867242808,-0.01368091440970895,-0.6702048973127567,0.8128179496568827,-0.018172093595864358,0.6918899205491236,0.056437665016742314,0.9770740587641193,-0.1430380121890349,0.9653512045652795,-0.006815216501649957,-0.12172986998850038,0.3295833620526221,0.7260966927786308,0.8266573185259307,0.6709839127805856,0.6841413876198622,-0.24681057735905287,0.09493286388126056,-0.5937513484220702,0.9627226723122337,-0.2737557208951892,-0.3741360427606871,-0.8593067380983567,0.1631214429275246,0.8673494007818702,0.6220872233778966,-0.09295006999445614,0.47411009929686165,0.34127632606795094,0.3738413750183439,-0.7515841182729897,0.9514001954675827,-0.44728788557984384,0.38585180234016836,0.21005028055511996,-0.22797172394223741,0.6909581559032114,-0.4787496941282221,0.23428482407987022,0.9151605168945272,-0.4954323347018576,-0.6840551917262757,0.8263487474752809,0.06010234359032874,0.24203775161014127,-0.9641527216305923,-0.8694178382509052,-0.585516533576469,-0.9509916610939063,0.6035408733528393,-0.967858809313038,-0.08983893626830348,0.5872273843898275,-0.5808853412159275,-0.31660442767935276,-0.8886663387232664,-0.48862146281692437,-0.04512228295718286,0.19612510869539646,0.03498820091285316,0.6694185064283174,-0.05692782140217016,-0.2913236193998645,-0.2839461623313988,0.20403208867598277,-0.21942934177146656,-0.9047535819055132,-0.5485545824298669,-0.007866359651702685,0.40839937093488765,-0.5689994475993586,0.41343434113535993,-0.6330945381637808,0.7550482259390935,0.7654202341638242,-0.5516719028618043,0.4192301506119685,-0.7387212135325123,0.09929994016876556,0.8872920309040608,-0.16433148016288643,0.4558513599778039,-0.4431518269591146,0.4425245085859895,0.8620842886552748,-0.3246698321332056,0.20390316797336147,0.4387957777971571,0.5068946958246542,-0.3148204691158326,-0.3424241641165797,0.9362201898125044,-0.695021505655486,-0.9924495665648418,-0.06985897485690414,-0.7068237618325722,0.9540952683164268,-0.15605272559492298,-0.5283587160148911,-0.9916999750615216,-0.7396127538117578,-0.7067993580254885,0.769982498599378,0.0019040433911445098,-0.3155000432397438,-0.44518505612506093,-0.7720723115466875,0.6645415683842041,0.6601417822819323,-0.2765676703290525,0.7398368112865528,-0.5019361709203534,0.7792735489989208,0.9717080588964643,-0.07484250364313665,0.8632251737420683,-0.05935347802664161,0.4014110398880953,0.9948132231444996,-0.88509898184959,-0.8166268108954888,-0.055762275149100135,0.03194558714029665,0.624312775803681,0.2779203497485973,0.8848581383551329,0.2938794075989163,-0.2198565100472152,0.706552692282212,-0.330761626246306,0.3184625268106356,0.09473593865157771,-1.0079080064122645,-0.04324316575243437,0.1888417296787723,0.66536499043336,0.36496143763096106,0.8842263778623288,1.0166990388570427,-0.2826691197747448,0.3562749744396931,-0.7083784288037684,-0.9523719567011371,-0.1619505020228303,0.6708766173333821,0.4889856531186592,0.04985295032080688,-0.8137979683043077,0.176942593781936,-0.5249412365964801,-0.8123093504110437,-0.5190053046267549,0.31235207034815926,-0.7173019761717365,0.7585105516977811,0.48183936727863347,-0.23904963134266044,-0.6476898650788845,0.44334613499203734,0.0031582744542632,-0.5449213665341724,0.9762073574581533,0.9653650528696069,0.3556179982245486,-0.22489565341447357,-0.43963248392149457,-0.47114609019262704,0.9296730856134976,0.39695577309744107,0.7394596584906721,-0.12112794986215875,0.5439995657385364,0.8808474993424527,-0.2980707532227731,0.7215604779923599,-0.024239369867046123,-0.1661773201220323,-0.6370808097844571,0.1829867453892353,0.8754878572513877,0.19196936617341293,-0.7717105586255257,-0.21671831995084284,-0.9277745835536811,0.8017209093216261,-0.2951925303702161,-0.01644983106566039,-0.479964176031593,-0.8417876367563975,1.022992237944059,1.0415859134068488,-0.2715491369095036,-0.7525521739993377,0.9440012932175131,-0.6507162276118186,0.15633926497953632,0.4884990277421765,0.8684492611594169,-0.16225704370481317,-0.2315571211256563,0.7406023958796369,0.8995293738629565,0.3034547871263089,0.9812844493243746,0.07129116553955409,0.3591457975718485,-0.4690417409476165,0.8798679801648043,-0.2956928009959347,0.8826952333296825,0.42248124726706826,-0.046072274082571876,-0.9875574946376863,-0.8070079615252028,-0.5394053150618304,0.7039806867808238,-0.5039437196072741,-0.7136433535031422,-0.4817653593599493,-0.6148373962761725,-0.2902620079457816,0.024152823864379273,-0.5829917783224152,-0.5358090373691675,0.46428267695061226,0.09527860875886437,0.42891093647847806,-0.23537243063524826,0.5664299184404733,0.5961016160563686,0.6038856858687156,-0.783222092960055,-0.6927819304977221,0.7584435190883251,-0.03328787774042672,0.5103189682845275,0.18005029718739568,-0.9601887330795532,-0.7037419254322993,0.11960537432222088,-0.25772177603815755,-0.44940212402936347,0.27922038695001766,0.8985599712270653,0.0951119335358794,0.6984710826626291,0.9853803778903925,0.7591502689087661,0.6957656329941656,0.7253217796695974,-0.3028173424377036,-0.6645258734802196,-1.086673167164144,0.8932362515579897,0.09110808168487958,0.5923528678528037,0.16068132420059825,-0.6931165944723172,0.06295237009291309,-0.2247508471246668,0.10324307975596532,-0.8030020908099481,-0.032089725739731026,-0.7003928889922987,-0.5371455003652946,-0.8442064801548472,0.14960909142467804,0.19694273511697277,-0.15164660761601187,-0.5357417025159591,1.0481037043459955,-0.38488162173804086,-0.061641314077801185,-0.6848445278876242,0.7821934434840696,-0.6968133478929905,0.8719428029745212,-0.955377820269427,0.16351054668557063,-0.42652110249310377,0.7236284370092995,-0.9519010677503177,0.2498406233854146,-0.6349596713456733,0.21687390390133807,0.4692098824616939,-0.7085738551539258,0.10524057834713081,-0.7013231256637977,-0.43720389160370143,0.9074357436685703,0.6597006266906145,0.5682301816362159,0.07597532212224098,0.7451972392352018,0.5277792784016416,0.2982214718830909,-0.7885869317880773,0.826536926038809,0.5394798118836965,0.34242759133501505,-0.38427395938003445,0.38216374508007867,0.7163529365802854,-0.3447399109362242,-0.7124257897791932,0.8880732341806875,-0.16058082932747297,0.13536875473874535,0.19209370729191383,-0.5364021968980895,0.48011838624458536,-0.7655677297738595,0.40197751284198485,0.5924853720251352,0.3615809165204506,0.3697483213935935,0.3199782803797273,0.8777205319423842,-0.5534174554974016,0.33346422084291133,0.22199602665612733,-0.8851999016277976,-0.5946856728426902,0.4145641489556612,0.5738084562073018,0.5155212501058626,0.25342963748015873,-0.49505673348356705,-0.016625091777913412,-0.3662889261571351,-0.5795065627580939,0.4464658753531666,-0.6981167088907937,0.7859945901943752,-0.4352628266658525,0.478661497337276,0.021241911237886657,0.5410927923500172,0.11004652531042235,0.7952766545932448,-0.2651482953051957,-0.3604298265590048,0.11671691843150225,-0.7140951179850291,0.9391122471434731,0.1477612055102576,-0.481387104859273,-0.7072457703973031,-0.030946352514879535,-0.7673959704309823,0.010503905221052224,0.8199920305118696,0.06072200754184939,0.5169038868411808,0.2997300906385619,-0.4860312163969626,-0.26297444177837637,0.652289775468445,-0.6502651636910507,-0.36663105412629426,-0.8085561100522237,-0.42171831809723476,-0.8847517769168759,-0.7096141074067382,-0.9504639756414587,0.5163466256197669,0.1827356205788439,0.7087493915187775,-0.5261551953284347,-0.5740291794909943,0.4924929755611098,-0.974164356206729,-0.9735797019275443,-0.6037833237571829,-0.08310587140706914,0.6019936740894544,-0.6177763649478655,-0.9756494041351145,-0.0673021706753572,-1.0632429962555414,-0.34213899911964735,-0.5059123170497117,0.34704771159564285,0.41596354834268584,-0.7013431981509224,0.46687935026514493,0.3693741330895434,0.6089777405159257,0.17118224386198447,0.4694348055456784,0.9971452818380726,-0.2970470502274446,-0.9976416576739547,-0.583421644968225,-0.5176853270166951,0.07626282985161091,-0.5941737154961401,0.32108212509551026,0.12572563015316252,-0.21078482581130986,0.9933629860152674,-0.5336874591903998,-0.12779960340983504,0.3880998823264807,0.2831505162349681,0.34830554252943335,0.04593090687297111,0.11426915422819367,-0.224761138539797,-0.8590145191069822,-1.1212713575031175,0.5588496384021926,0.6375298826356945,-0.615561066872124,-0.1850962734039976,-0.5727618730551635,-0.4589664901941136,-0.7561024962893937,0.8506400354161378,0.41350358599876436,0.7115481867362029,-0.41158778588094574,0.0005874467181050025,-0.13025317471472353,0.9430958103692985,0.4013141744751673,0.048130717624339736,-0.6304221617299145,-0.45263106111899254,-0.17455433830509465,0.8008678867809216,-0.5462942368606397,0.90659559747575,-0.7464405072835809,-0.33591519261395253,-0.024068944023344318,0.6830777856494257,-1.0994922427982992,-0.32484549291187004,-0.7390832181521684,-1.093075692566909,0.19914579203753607,-0.21929918409475369,0.2990828896832681,0.9414376737779255,-0.47238920692706354,-0.8249397971668926,0.015791048775385896,0.4822088990331822,0.8262206142765055,0.46509241271127605,0.017905732158117506,0.5631869919007173,0.3296020639123239,-0.19413134027601694,-0.8844123453329402,-0.6855943074370544,-0.1189262955372705,0.504844957060694,-0.4098149104012629,0.8272065814946672,-0.8630792851083409,-0.6107594545461426,0.4927439952532266,-0.998322503140881,0.5290295815041715,0.41452117722644044,-0.23753254467538348,0.6501278873155193,-0.15304062544472172,-0.24288730460873573,0.1470333528817335,0.0246727060346926,-0.9395738767781768,0.6064042566245235,-0.43302998676741766,-1.0992288905050225,-1.063649263533413,-0.8790407054935324,0.4871402248211213,0.723775991011348,0.5303530417680113,-0.32593829806904934,0.09303295582274052,0.2616363610125795,-0.1701507220270665,-0.4650962999431203,-0.27357280490144475,-0.8750410511126311,-0.2650713986111243,-0.16131273362129456,0.3714440910472467,-0.430621252610902,0.469875161384052,0.2193359107290176,-0.4883582132964483,-0.31215057693901155,-0.5528332365764987,-0.5252571602373232,-0.221362205410432,0.9257813083449002,-0.7017656337843738,0.44739304493628945,0.8514827944706864,0.21674547127647276,0.19002914728740092,0.7300666957140033,0.20038915599123877,-0.26737516133964817,-0.5416253909362875,-0.44523526448993844,-0.2757702913090754,0.11991616793594112,-0.6446484525623118,-0.8604021891659226,0.3611056466904653,-0.16053689320273531,-0.692386116825103,-0.148117382226448,0.7849304904769395,0.35767444962447276,0.2321321941197955,-0.07492952252108642,-0.4261775278475477,-0.07813558117059137,0.8280736801573275,0.27016655517735494,0.23415870414666298,-0.3782457458786377,-0.3023409963062018,-0.7649739523836343,-0.26818070083141116,-0.10289650199784525,-0.20267781648967464,-0.2022511761899558,0.9421837150694581,0.47699502584265024,0.9617077438591682,0.19083210727816757,-0.13202808053850004,0.9296235150540765,0.3595380758962776,-0.7485693552901973,0.08861598640291327,1.009639328551587,0.8552739619413942,0.2516314213039939,0.16863603916353073,-0.30108284496328475,0.8794923194594089,-0.08948863010039419,-0.6547983369841953,-0.00478323258108703,0.43193403710972633,-0.3466237954233396,0.014563121815393097,0.9399173626514711,0.12064338089931508,0.08099657224248864,-0.7326219632753792,0.5852682619720021,0.27436724653215994,-0.17743452305715743,0.7264597681197122,0.6952598201731043,-0.9048447425416343,0.34861099002526874,0.8479521983634868,-0.02816576096014778,0.9617530988745444,0.8419363614208879,0.15108350119121755,-0.42209011051918716,0.554062341820996,0.5959191125999103,-0.51837990537025,-0.49694219400228473,-0.5955911880695728,-0.8163668692361118,0.3061808642537108,0.6764469213317992,0.12873327433690088,-0.17605877203037792,0.6348706127870452,0.060608418743033306,0.2729531329184419,-0.07362484431210004,-0.036793593506533946,0.13446358869263955,-0.896641425905449,-0.5994048864752397,0.4611970685716621,0.005326967765824999,-0.578996370519186,-0.737684585801897,0.9255940633731425,0.24667079045621687,-0.42330168806574575,0.6397439651426667,-0.3400187396052182,-0.9036816077149697,0.7878038844047518,0.5890603903815435,0.3365394483954298,0.8694769157015153,0.27215138663023797,-0.2335600537793268,-0.4383049673170632,-0.14502547624890602,0.971917804696015,-0.9166967316724589,-0.5221974853190862,-0.16907224496839232,0.07572891529885709,-0.6446597854896845,-0.8782494388726116,0.7431696352293361,-0.16551635298021036,0.31655145244013383,-0.8841722713295568,0.90039361694395,0.41556914292582864,0.5503171685022044,-0.2130739465578677,-0.7166725336084121,0.5085855619275882,0.9494450129206659,0.9915221607487625,0.2062088474093086,-0.3589389614800425,-0.10194014882088126,0.0858377861577897,0.4239973018508019,-0.5047447288595328,0.5627065609348942,-0.9669991260496523,0.34231789029267273,-0.2590496001070875,-0.7998872075269455,-0.21918865805085552,-0.4665842837963241,-0.7099574025068465,-0.5976532052808198,-0.8873270985518706,-0.7190410819793712,0.828745149977023,0.7594737939055297,0.7137190224709982,-0.7107221094187877,0.2969821024912137,0.012772086340501865,0.06049194940848679,0.5993160704778115,-0.12242407038824776,-0.3521667902720032,0.3291974296327336,0.6644316308676038,0.09008312421011058,-0.2556095684202941,-0.30051579120490013,-0.2715487700511725,-0.7768013434671898,0.0711029614315697,0.4810532545190443,-0.05215426549528708,0.40352790542658434,0.594666066701319,0.3838533669026139,-0.910221148888168,-0.026194513376155908,-0.40451494130060167,0.24603193552096944,0.10308059441616652,-0.32352354769144603,0.5678285416279422,-0.5801729321242644,-0.20045114903255135,0.23513455498214064,0.4564850946229764,0.3517228452971337,-0.046896831525020666,-0.04979475089133789,-0.6224417238961477,0.16752120386656222,-0.5228493616427632,0.3482671003215581,-0.14703820417545874,0.5927598455940145,0.9623410330679069,-0.10558985968772862,-0.881963047498164,0.15418877007394205,0.9330565116588627,-0.6050015026741128,-0.2964528194179061,-0.17925744426848686,-0.45018036241997456,-0.8420188480502807,0.8543991708413425,-0.8711462869617634,0.6970936407387894,0.8964246768337706,0.3440138171944338,0.814062050105056,0.9718188572411348,0.7553241150230843,0.5715241040353392],[0.2491628438484077,0.9123305399124142,-0.32629674943581266,-0.6505228148046558,-0.595531633800864,0.3648008572052013,-0.023363619611918907,0.19251592000213602,-0.6410670798803979,-0.31014825674159185,0.41076606622409884,0.3003688554053743,0.882110150986817,0.16486211199215436,-0.8679543834471359,-0.8121722659070274,-0.29771558844340973,-0.014620721522064173,-0.5462026318326836,0.708269266987648,0.1848817980676003,-0.5528079380780242,-0.851657930371712,0.27554000217687324,0.303689263205011,0.6642574822683183,0.5150508156084355,-0.8129594297071705,-0.5647743030829182,0.1861178200603959,-0.08834008421818762,0.0815359140261438,0.06372536081721147,0.8216166278345161,-0.5998377845536126,0.17345318924401085,0.666674559434908,0.018415868862428172,-0.015957641055533222,-0.8494764471394975,-0.6549943310417101,0.018973519679230746,-0.2004815754796577,0.5036121466380852,-0.9183155716058778,0.16724900199378526,-0.14163776960234734,-0.46855734258751214,0.48823919633060525,0.9642414016679934,-0.7555589602880631,-0.3746699556734087,0.43449782661189706,-0.023843143697145575,-0.543629421834019,0.4253511288303633,0.8270476812296423,0.10461421572298057,0.09861133259330401,-0.6529609732408099,-0.222458901788305,0.4008198182418016,0.8022861663794014,-0.6276939660419472,-0.8155655967598208,-0.4686060207161514,0.3929873018288677,0.2171166059320392,-0.9715852507588548,-0.24495844905215486,-0.9199868068111507,-0.4584425223114525,0.44368676562875314,-0.7209504921628378,-0.10344879136493278,-0.21543980356741155,0.6951739512397209,0.4053398389948133,0.5311019264414728,-0.9310728608141753,-0.6729614480020899,0.11815495103940943,0.4132139850996719,-0.5810646877131851,0.25616291323303786,-0.10704352790183602,-0.15076889992108491,0.6034082077021139,0.13629201842527644,-0.7037793476891631,-0.2177463176735278,-0.5171666270285383,0.7659126134986488,0.988208848080931,0.5923896757791856,0.242686454076313,0.7676118855748664,0.6484632212089163,-1.0031710692428701,-0.19977221325111041,-0.05177042627337948,-0.8499022857192925,0.22453915082507003,-0.11907482697533597,-0.6045516626437618,-0.5814627223889663,0.8816653227896862,0.8891986011987724,-0.5996402617357043,0.8903802094451027,0.4076557106714805,-0.007753794255986879,-0.0013774141612490354,-0.9615128000801949,-0.9825701204518347,-0.5717852104605852,-0.656478843025375,0.8371160775637706,-0.8610374394225946,0.3108211769023786,0.007219170967241053,-0.32078635394682087,0.5443855678323983,-0.1791396809878353,0.1402724648775866,-0.9002960805732465,-0.45305673406817165,0.34967116320487135,0.3521574988805398,0.17847772851439378,-0.21315912118731892,0.43725318252793016,0.8256334831586154,-0.3819100518134505,-0.9927610241119277,-0.38634826756321244,0.5888640388320145,0.17574370021183322,0.31907272869833964,0.9228813099311122,0.3046984588576622,-0.8169035256751398,0.4997962639143237,0.6696386615063928,-0.7729971578136333,0.27003364532647606,0.5607285802672741,0.9180048947055781,-0.3304531675855375,0.2723865881690257,-0.47133103198231624,-0.14370668338829184,0.09390405770327549,0.5693006542602194,-0.28598701253847725,-0.025367264178905564,0.12007340925061517,-0.7860832057447718,0.05374948498995027,0.03311392392372625,-0.6855315774198038,-0.9083745589228075,-0.6355951719581635,-0.0530863603265848,-0.3078689794741267,0.5199917652337287,0.32324245182750194,0.9000776792150317,0.5635661055828693,0.8385636362030486,-0.31119980739032616,-0.10809027752096674,-0.9698307764655694,-0.8195232185731435,0.5242622961412224,0.3634404182993076,0.396615399025809,0.8482906786012885,-0.6613140584014915,0.0958702255565413,0.673152029403811,-0.6380912148214603,-0.4971740004402903,-0.1137754698598293,0.43081275181535694,0.6951150819905807,-0.9675919008427258,-0.8550771770105016,-0.2848866334780954,0.41420532421139356,-0.046809177011876514,0.9380052335107617,-0.46275594793463926,0.12627649691608037,-0.7366625959020396,0.1771726188466812,0.3964197687881055,0.3975413581989731,0.8393299914774335,-0.32500719395609695,0.18666323872890198,0.6363316369910922,-0.747400819544637,0.7613982987844344,0.3536574852800161,-0.8747299057029116,-0.38025385824831937,-0.65027646776058,-0.26748397116487016,0.551890656019643,0.5384003925720968,-0.9664821707041291,-0.8193575330594772,0.22026236567595944,-0.37389313369759586,-0.029622624231648853,0.1806578896076611,0.07079356901317665,-0.22794354859956675,0.8865749243786258,-0.3278998412574853,0.5120939720906973,0.5321615854217642,-0.39552993287467164,0.7473325303016751,0.14213294070677784,-0.16505804580467104,0.1668940035754244,0.6008531004492277,0.10980760383068694,0.9135538125880972,0.610838254099114,-0.8792547042608011,-0.3630757359007295,0.06068445271722353,0.3375667863538418,0.48625853727212914,0.6298508573249411,0.054833645138090914,-0.9892156303552825,0.5094758441879927,-0.4344957921041903,-0.8093232807242454,-0.5679085296459876,-0.5742967443989414,-0.4665943004981328,0.7505254993965924,-0.8758026006252876,0.4937502200354271,0.29774301272963594,0.7364925116147186,0.1068254599997449,-0.6748882590997015,0.5793019574333291,-0.5901323081446522,-0.8891748352586518,-0.3317672027846575,-0.26336571580487367,0.8791415562222018,-0.8957427415416345,-0.8687914990817648,0.013176163984875573,-1.0403721774674635,-0.3482412719591076,0.6121839510246887,-0.9433396475335669,-0.005983615076078777,0.9080751118623448,0.28244097811768654,-0.26785271740048616,0.051256261568830265,-0.008650438469651559,-0.02579263251891573,0.36909120799440737,0.02350558937756223,0.18024777458599214,-0.9188218764600081,0.38260756580857364,0.8764417209375542,0.8228217503847381,-0.6263372389385623,-0.37590412681201196,0.0453775627394705,-0.24163819040660642,0.13895509179761323,-0.4414619941283773,0.05745045915583386,0.00591171851915989,0.655344808401717,-0.2075995133632107,-0.6243871421561067,-0.9315348154373175,-0.2580689008376213,0.10643252490015448,0.4375296207676767,0.3965164077882133,-0.729525315688258,-0.089998786070123,-0.46348296353764123,-0.5516281512045873,-0.007276555326843051,0.47152498642454554,-0.03463616940416037,0.3616061318958571,0.22602767499952803,-0.11246538690118084,0.14667646869481113,0.40048062161000486,-0.8574590207087306,0.39176398981992894,-0.5748225059570141,0.4981132149759914,-0.05601713154831972,-0.6464498492538882,0.6847829573846945,-0.2299434049236126,-0.2728053262778008,-0.7718764409329747,0.30018017222084786,-0.40462013209206293,0.08750648270635955,-0.26616193815565103,0.3058108311117184,0.690612258062025,0.3708106310650718,0.30986550522627254,-0.8552396525629111,0.30922434440162344,-0.9969952671561145,-0.4794310491149361,-0.33125699503539924,0.16306977584353352,0.21478476119132264,-0.3545606881253267,-0.7422843591939488,-0.9499501217402704,0.32443697440421304,-0.47462594112467,-0.5696056130466502,0.5499351074984876,-0.4386544192303866,-0.6260789659613434,-0.8844280040323766,0.01759800124750781,-0.2674300233178206,-0.5456000807710326,-0.7434158256292117,-0.3898475246898026,0.5256402009173101,-0.700904215347314,0.05073595650232652,-0.15065988569989608,-0.7942704667483075,